{"learner":{"attributes":{"scikit_learn":"{\"_estimator_type\": \"regressor\"}"},"feature_names":["MagpieData minimum Number","MagpieData maximum Number","MagpieData range Number","MagpieData mean Number","MagpieData avg_dev Number","MagpieData mode Number","MagpieData minimum MendeleevNumber","MagpieData maximum MendeleevNumber","MagpieData range MendeleevNumber","MagpieData mean MendeleevNumber","MagpieData avg_dev MendeleevNumber","MagpieData mode MendeleevNumber","MagpieData minimum AtomicWeight","MagpieData maximum AtomicWeight","MagpieData range AtomicWeight","MagpieData mean AtomicWeight","MagpieData avg_dev AtomicWeight","MagpieData mode AtomicWeight","MagpieData minimum MeltingT","MagpieData maximum MeltingT","MagpieData range MeltingT","MagpieData mean MeltingT","MagpieData avg_dev MeltingT","MagpieData mode MeltingT","MagpieData minimum Column","MagpieData maximum Column","MagpieData range Column","MagpieData mean Column","MagpieData avg_dev Column","MagpieData mode Column","MagpieData minimum Row","MagpieData maximum Row","MagpieData range Row","MagpieData mean Row","MagpieData avg_dev Row","MagpieData mode Row","MagpieData minimum CovalentRadius","MagpieData maximum CovalentRadius","MagpieData range CovalentRadius","MagpieData mean CovalentRadius","MagpieData avg_dev CovalentRadius","MagpieData mode CovalentRadius","MagpieData minimum Electronegativity","MagpieData maximum Electronegativity","MagpieData range Electronegativity","MagpieData mean Electronegativity","MagpieData avg_dev Electronegativity","MagpieData mode Electronegativity","MagpieData minimum NsValence","MagpieData maximum NsValence","MagpieData range NsValence","MagpieData mean NsValence","MagpieData avg_dev NsValence","MagpieData mode NsValence","MagpieData minimum NpValence","MagpieData maximum NpValence","MagpieData range NpValence","MagpieData mean NpValence","MagpieData avg_dev NpValence","MagpieData mode NpValence","MagpieData minimum NdValence","MagpieData maximum NdValence","MagpieData range NdValence","MagpieData mean NdValence","MagpieData avg_dev NdValence","MagpieData mode NdValence","MagpieData minimum NfValence","MagpieData maximum NfValence","MagpieData range NfValence","MagpieData mean NfValence","MagpieData avg_dev NfValence","MagpieData mode NfValence","MagpieData minimum NValence","MagpieData maximum NValence","MagpieData range NValence","MagpieData mean NValence","MagpieData avg_dev NValence","MagpieData mode NValence","MagpieData minimum NsUnfilled","MagpieData maximum NsUnfilled","MagpieData range NsUnfilled","MagpieData mean NsUnfilled","MagpieData avg_dev NsUnfilled","MagpieData mode NsUnfilled","MagpieData minimum NpUnfilled","MagpieData maximum NpUnfilled","MagpieData range NpUnfilled","MagpieData mean NpUnfilled","MagpieData avg_dev NpUnfilled","MagpieData mode NpUnfilled","MagpieData minimum NdUnfilled","MagpieData maximum NdUnfilled","MagpieData range NdUnfilled","MagpieData mean NdUnfilled","MagpieData avg_dev NdUnfilled","MagpieData mode NdUnfilled","MagpieData minimum NfUnfilled","MagpieData maximum NfUnfilled","MagpieData range NfUnfilled","MagpieData mean NfUnfilled","MagpieData avg_dev NfUnfilled","MagpieData mode NfUnfilled","MagpieData minimum NUnfilled","MagpieData maximum NUnfilled","MagpieData range NUnfilled","MagpieData mean NUnfilled","MagpieData avg_dev NUnfilled","MagpieData mode NUnfilled","MagpieData minimum GSvolume_pa","MagpieData maximum GSvolume_pa","MagpieData range GSvolume_pa","MagpieData mean GSvolume_pa","MagpieData avg_dev GSvolume_pa","MagpieData mode GSvolume_pa","MagpieData minimum GSbandgap","MagpieData maximum GSbandgap","MagpieData range GSbandgap","MagpieData mean GSbandgap","MagpieData avg_dev GSbandgap","MagpieData mode GSbandgap","MagpieData minimum GSmagmom","MagpieData maximum GSmagmom","MagpieData range GSmagmom","MagpieData mean GSmagmom","MagpieData avg_dev GSmagmom","MagpieData mode GSmagmom","MagpieData minimum SpaceGroupNumber","MagpieData maximum SpaceGroupNumber","MagpieData range SpaceGroupNumber","MagpieData mean SpaceGroupNumber","MagpieData avg_dev SpaceGroupNumber","MagpieData mode SpaceGroupNumber"],"feature_types":["float","float","float","float","float","float","float","float","float","float","float","float","float","float","float","float","float","float","float","float","float","float","float","float","float","float","float","float","float","float","float","float","float","float","float","float","float","float","float","float","float","float","float","float","float","float","float","float","float","float","float","float","float","float","float","float","float","float","float","float","float","float","float","float","float","float","float","float","float","float","float","float","float","float","float","float","float","float","float","float","float","float","float","float","float","float","float","float","float","float","float","float","float","float","float","float","float","float","float","float","float","float","float","float","float","float","float","float","float","float","float","float","float","float","float","float","float","float","float","float","float","float","float","float","float","float","float","float","float","float","float","float"],"gradient_booster":{"model":{"cats":{"enc":[],"feature_segments":[],"sorted_idx":[]},"gbtree_model_param":{"num_parallel_tree":"1","num_trees":"500"},"iteration_indptr":[0,1,2,3,4,5,6,7,8,9,10,11,12,13,14,15,16,17,18,19,20,21,22,23,24,25,26,27,28,29,30,31,32,33,34,35,36,37,38,39,40,41,42,43,44,45,46,47,48,49,50,51,52,53,54,55,56,57,58,59,60,61,62,63,64,65,66,67,68,69,70,71,72,73,74,75,76,77,78,79,80,81,82,83,84,85,86,87,88,89,90,91,92,93,94,95,96,97,98,99,100,101,102,103,104,105,106,107,108,109,110,111,112,113,114,115,116,117,118,119,120,121,122,123,124,125,126,127,128,129,130,131,132,133,134,135,136,137,138,139,140,141,142,143,144,145,146,147,148,149,150,151,152,153,154,155,156,157,158,159,160,161,162,163,164,165,166,167,168,169,170,171,172,173,174,175,176,177,178,179,180,181,182,183,184,185,186,187,188,189,190,191,192,193,194,195,196,197,198,199,200,201,202,203,204,205,206,207,208,209,210,211,212,213,214,215,216,217,218,219,220,221,222,223,224,225,226,227,228,229,230,231,232,233,234,235,236,237,238,239,240,241,242,243,244,245,246,247,248,249,250,251,252,253,254,255,256,257,258,259,260,261,262,263,264,265,266,267,268,269,270,271,272,273,274,275,276,277,278,279,280,281,282,283,284,285,286,287,288,289,290,291,292,293,294,295,296,297,298,299,300,301,302,303,304,305,306,307,308,309,310,311,312,313,314,315,316,317,318,319,320,321,322,323,324,325,326,327,328,329,330,331,332,333,334,335,336,337,338,339,340,341,342,343,344,345,346,347,348,349,350,351,352,353,354,355,356,357,358,359,360,361,362,363,364,365,366,367,368,369,370,371,372,373,374,375,376,377,378,379,380,381,382,383,384,385,386,387,388,389,390,391,392,393,394,395,396,397,398,399,400,401,402,403,404,405,406,407,408,409,410,411,412,413,414,415,416,417,418,419,420,421,422,423,424,425,426,427,428,429,430,431,432,433,434,435,436,437,438,439,440,441,442,443,444,445,446,447,448,449,450,451,452,453,454,455,456,457,458,459,460,461,462,463,464,465,466,467,468,469,470,471,472,473,474,475,476,477,478,479,480,481,482,483,484,485,486,487,488,489,490,491,492,493,494,495,496,497,498,499,500],"tree_info":[0,0,0,0,0,0,0,0,0,0,0,0,0,0,0,0,0,0,0,0,0,0,0,0,0,0,0,0,0,0,0,0,0,0,0,0,0,0,0,0,0,0,0,0,0,0,0,0,0,0,0,0,0,0,0,0,0,0,0,0,0,0,0,0,0,0,0,0,0,0,0,0,0,0,0,0,0,0,0,0,0,0,0,0,0,0,0,0,0,0,0,0,0,0,0,0,0,0,0,0,0,0,0,0,0,0,0,0,0,0,0,0,0,0,0,0,0,0,0,0,0,0,0,0,0,0,0,0,0,0,0,0,0,0,0,0,0,0,0,0,0,0,0,0,0,0,0,0,0,0,0,0,0,0,0,0,0,0,0,0,0,0,0,0,0,0,0,0,0,0,0,0,0,0,0,0,0,0,0,0,0,0,0,0,0,0,0,0,0,0,0,0,0,0,0,0,0,0,0,0,0,0,0,0,0,0,0,0,0,0,0,0,0,0,0,0,0,0,0,0,0,0,0,0,0,0,0,0,0,0,0,0,0,0,0,0,0,0,0,0,0,0,0,0,0,0,0,0,0,0,0,0,0,0,0,0,0,0,0,0,0,0,0,0,0,0,0,0,0,0,0,0,0,0,0,0,0,0,0,0,0,0,0,0,0,0,0,0,0,0,0,0,0,0,0,0,0,0,0,0,0,0,0,0,0,0,0,0,0,0,0,0,0,0,0,0,0,0,0,0,0,0,0,0,0,0,0,0,0,0,0,0,0,0,0,0,0,0,0,0,0,0,0,0,0,0,0,0,0,0,0,0,0,0,0,0,0,0,0,0,0,0,0,0,0,0,0,0,0,0,0,0,0,0,0,0,0,0,0,0,0,0,0,0,0,0,0,0,0,0,0,0,0,0,0,0,0,0,0,0,0,0,0,0,0,0,0,0,0,0,0,0,0,0,0,0,0,0,0,0,0,0,0,0,0,0,0,0,0,0,0,0,0,0,0,0,0,0,0,0,0,0,0,0,0,0,0,0,0,0,0,0,0,0,0,0,0,0,0,0,0,0,0,0,0,0,0,0,0,0,0,0,0,0,0,0,0,0,0,0,0,0,0,0,0,0,0,0,0,0,0,0,0,0,0,0,0,0,0,0],"trees":[{"base_weights":[-2.6851094E-1,-1.1639093E0,1.9498718E1,-2.010036E0,1.0271025E1,2.9827735E-1,2.4640411E1,-4.0522723E0,1.1566764E0,1.4248767E1,3.5514874E0,2.8841936E1,4.5134392E-1,-4.493965E0,-1.3301286E-2,2.9700375E0,-2.0942397E0,4.2509003E0,2.3715271E1,1.7771384E0,5.323745E-1,6.145831E-1,1.5907317E0,-4.6795225E0,2.0382326E0,4.602912E0,-1.6417705E0,8.853706E0,1.4578696E0,4.900747E0,-2.4877965E0,1.32797E0,2.7455187E-1,2.5223055E-1,1.2830925E0,1.0623493E0,1.5454315E-1,-2.7176103E-1,-1.2788771E-1,9.807742E-1,-2.7001575E-1,-5.9570957E-2,3.898966E-1,-1.2667267E-1,2.0761205E-2,2.851667E-1,7.9520047E-1,-1.3039563E-3,2.9555824E-1,3.0189672E-1,6.565931E-2,2.8888416E-1,-1.3932936E-1,1.2245112E-1,6.897259E-3,5.854544E-2,7.5608254E-3],"categories":[],"categories_nodes":[],"categories_segments":[],"categories_sizes":[],"default_left":[0,0,0,0,0,0,0,0,0,0,0,0,0,0,0,0,0,0,0,0,0,0,0,0,0,0,0,0,0,0,0,0,0,0,0,0,0,0,0,0,0,0,0,0,0,0,0,0,0,0,0,0,0,0,0,0,0],"id":0,"left_children":[1,3,5,7,9,-1,11,13,15,17,19,21,-1,23,25,27,29,31,33,35,-1,-1,-1,37,39,41,43,45,47,49,51,53,-1,-1,-1,55,-1,-1,-1,-1,-1,-1,-1,-1,-1,-1,-1,-1,-1,-1,-1,-1,-1,-1,-1,-1,-1],"loss_changes":[6.9432173E3,3.6489214E3,1.0359238E3,2.2681982E3,6.4433887E2,0E0,5.26855E2,3.799292E2,8.1974164E2,1.4135061E3,1.19576584E2,5.173633E1,0E0,2.4226074E2,1.7293886E2,7.789339E2,1.4983824E2,2.5331573E1,1.6129688E2,6.106783E0,0E0,0E0,0E0,2.8593726E2,8.904251E2,1.2036863E2,3.223314E1,3.0909363E2,4.7596338E2,4.3102493E0,1.3464316E2,4.99849E0,0E0,0E0,0E0,6.142359E-1,0E0,0E0,0E0,0E0,0E0,0E0,0E0,0E0,0E0,0E0,0E0,0E0,0E0,0E0,0E0,0E0,0E0,0E0,0E0,0E0,0E0],"parents":[2147483647,0,0,1,1,2,2,3,3,4,4,6,6,7,7,8,8,9,9,10,10,11,11,13,13,14,14,15,15,16,16,17,17,18,18,19,19,23,23,24,24,25,25,26,26,27,27,28,28,29,29,30,30,31,31,35,35],"right_children":[2,4,6,8,10,-1,12,14,16,18,20,22,-1,24,26,28,30,32,34,36,-1,-1,-1,38,40,42,44,46,48,50,52,54,-1,-1,-1,56,-1,-1,-1,-1,-1,-1,-1,-1,-1,-1,-1,-1,-1,-1,-1,-1,-1,-1,-1,-1,-1],"split_conditions":[1.7333333E0,1.6E0,6.03E1,1.022449E1,1.1466666E1,2.9827735E-1,1.15E1,4.8444443E1,2.62E0,2.4625E0,2.176E1,5.864E1,4.5134392E-1,9.3E1,9.722222E-1,8E0,5E0,1.1825E2,2.3E1,5E1,5.323745E-1,6.145831E-1,1.5907317E0,3.8E1,4E0,6.2E1,1.983471E0,2.6111112E0,1.02333336E2,3E0,1.032E1,2.2E1,2.7455187E-1,2.5223055E-1,1.2830925E0,1.6938776E1,1.5454315E-1,-2.7176103E-1,-1.2788771E-1,9.807742E-1,-2.7001575E-1,-5.9570957E-2,3.898966E-1,-1.2667267E-1,2.0761205E-2,2.851667E-1,7.9520047E-1,-1.3039563E-3,2.9555824E-1,3.0189672E-1,6.565931E-2,2.8888416E-1,-1.3932936E-1,1.2245112E-1,6.897259E-3,5.854544E-2,7.5608254E-3],"split_indices":[34,93,9,4,27,0,27,40,44,45,4,40,0,8,88,6,11,39,1,2,0,0,0,1,0,9,58,105,39,0,4,1,0,0,0,4,0,0,0,0,0,0,0,0,0,0,0,0,0,0,0,0,0,0,0,0,0],"split_type":[0,0,0,0,0,0,0,0,0,0,0,0,0,0,0,0,0,0,0,0,0,0,0,0,0,0,0,0,0,0,0,0,0,0,0,0,0,0,0,0,0,0,0,0,0,0,0,0,0,0,0,0,0,0,0,0,0],"sum_hessian":[3.9E2,3.74E2,1.6E1,3.49E2,2.5E1,5E0,1.1E1,2.12E2,1.37E2,1.5E1,1E1,8E0,3E0,1.91E2,2.1E1,8.8E1,4.9E1,8E0,7E0,9E0,1E0,2E0,6E0,1.86E2,5E0,5E0,1.6E1,1.7E1,7.1E1,2E0,4.7E1,3E0,5E0,1E0,6E0,7E0,2E0,1.36E2,5E1,1E0,4E0,2E0,3E0,1.1E1,5E0,1.3E1,4E0,5.4E1,1.7E1,1E0,1E0,1E0,4.6E1,1E0,2E0,6E0,1E0],"tree_param":{"num_deleted":"0","num_feature":"132","num_nodes":"57","size_leaf_vector":"1"}},{"base_weights":[-4.571722E-1,-1.1045406E0,1.8351677E1,-2.4137392E0,4.474894E0,3.1011888E-1,2.3062214E1,-2.9883046E0,6.4225016E0,5.9672804E0,-1.5939916E0,1.4023608E0,9.81916E0,-4.7214074E0,-1.5723135E0,1.7391573E1,3.2788274E0,1.0031164E1,3.3896387E0,-3.163735E0,2.1782417E0,1.459703E-1,5.5729717E-1,-4.998539E0,8.2267714E-1,2.7526742E-1,-1.7426213E0,1.7902005E-1,1.0400914E0,9.881005E-1,4.23024E0,1.2651203E1,2.6094813E0,1.940803E0,8.399067E0,-5.149651E-3,-1.7297548E-1,4.2204358E-2,1.878715E-1,-2.57849E-1,5.021676E-2,9.562549E-1,-2.7076212E-1,-1.2522101E-1,4.679894E-3,-6.598449E-3,6.192541E-2,1.659949E-2,2.293433E-1,7.5535876E-1,2.1133156E-1,2.3717439E-1,-9.085118E-2,6.156909E-2,5.628505E-1,4.7167617E-1,1.7652327E-1],"categories":[],"categories_nodes":[],"categories_segments":[],"categories_sizes":[],"default_left":[0,0,0,0,0,0,0,0,0,0,0,0,0,0,0,0,0,0,0,0,0,0,0,0,0,0,0,0,0,0,0,0,0,0,0,0,0,0,0,0,0,0,0,0,0,0,0,0,0,0,0,0,0,0,0,0,0],"id":1,"left_children":[1,3,5,7,9,-1,11,13,15,17,19,-1,21,23,25,27,29,31,33,35,37,-1,-1,39,41,-1,43,-1,-1,45,47,49,51,53,55,-1,-1,-1,-1,-1,-1,-1,-1,-1,-1,-1,-1,-1,-1,-1,-1,-1,-1,-1,-1,-1,-1],"loss_changes":[4.756833E3,2.7646309E3,6.009458E2,1.5727537E3,6.6162427E2,0E0,3.1875E2,6.993452E2,5.9815656E2,5.7356177E2,9.571294E1,0E0,4.078369E0,2.0231274E2,2.0245471E2,1.1391968E2,3.0690933E1,3.9477905E2,2.5223904E2,9.601906E0,7.362808E0,0E0,0E0,1.2216504E2,9.027502E2,0E0,2.1985071E2,0E0,0E0,1.8462887E0,1.3769562E1,2.6719556E2,7.474237E1,1.8441177E2,6.986145E0,0E0,0E0,0E0,0E0,0E0,0E0,0E0,0E0,0E0,0E0,0E0,0E0,0E0,0E0,0E0,0E0,0E0,0E0,0E0,0E0,0E0,0E0],"parents":[2147483647,0,0,1,1,2,2,3,3,4,4,6,6,7,7,8,8,9,9,10,10,12,12,13,13,14,14,15,15,16,16,17,17,18,18,19,19,20,20,23,23,24,24,26,26,29,29,30,30,31,31,32,32,33,33,34,34],"right_children":[2,4,6,8,10,-1,12,14,16,18,20,-1,22,24,26,28,30,32,34,36,38,-1,-1,40,42,-1,44,-1,-1,46,48,50,52,54,56,-1,-1,-1,-1,-1,-1,-1,-1,-1,-1,-1,-1,-1,-1,-1,-1,-1,-1,-1,-1,-1,-1],"split_conditions":[1.7333333E0,5.7E1,5.7714287E1,2.56E0,2.62E0,3.1011888E-1,6.446667E1,7.407407E-1,1E0,1.2E1,1.0617284E0,1.4023608E0,7.3E1,9.3E1,3.2E-1,2.3E1,3.375E0,1.0462722E2,1E0,1.1333333E1,6E0,1.459703E-1,5.5729717E-1,4.977778E-1,4E0,2.7526742E-1,6E0,1.7902005E-1,1.0400914E0,4E0,4E0,7.2521736E1,5.4375E1,5.628E1,4.42558E2,-5.149651E-3,-1.7297548E-1,4.2204358E-2,1.878715E-1,-2.57849E-1,5.021676E-2,9.562549E-1,-2.7076212E-1,-1.2522101E-1,4.679894E-3,-6.598449E-3,6.192541E-2,1.659949E-2,2.293433E-1,7.5535876E-1,2.1133156E-1,2.3717439E-1,-9.085118E-2,6.156909E-2,5.628505E-1,4.7167617E-1,1.7652327E-1],"split_indices":[34,1,9,94,44,0,9,34,102,6,106,0,1,8,106,1,94,130,54,3,0,0,0,52,0,0,91,0,0,6,0,9,9,40,21,0,0,0,0,0,0,0,0,0,0,0,0,0,0,0,0,0,0,0,0,0,0],"split_type":[0,0,0,0,0,0,0,0,0,0,0,0,0,0,0,0,0,0,0,0,0,0,0,0,0,0,0,0,0,0,0,0,0,0,0,0,0,0,0,0,0,0,0,0,0,0,0,0,0,0,0,0,0,0,0,0,0],"sum_hessian":[3.88E2,3.76E2,1.2E1,3.05E2,7.1E1,4E0,8E0,2.87E2,1.8E1,5.7E1,1.4E1,5E0,3E0,1.28E2,1.59E2,3E0,1.5E1,2.1E1,3.6E1,1E1,4E0,1E0,2E0,1.22E2,6E0,3E0,1.56E2,1E0,2E0,5E0,1E1,1.5E1,6E0,2.9E1,7E0,1E0,9E0,3E0,1E0,1.19E2,3E0,1E0,5E0,1.1E2,4.6E1,1E0,4E0,1E0,9E0,1.1E1,4E0,4E0,2E0,2.8E1,1E0,5E0,2E0],"tree_param":{"num_deleted":"0","num_feature":"132","num_nodes":"57","size_leaf_vector":"1"}},{"base_weights":[-2.967798E-1,-2.0001738E0,6.722419E0,-3.291479E0,1.739015E0,4.727282E0,1.6969208E1,-4.449155E0,-1.5629694E0,-1.3533508E0,4.1213226E0,6.1611857E0,-2.1192238E0,2.1818478E1,2.9082665E-1,-4.7274013E0,6.12352E0,1.3615828E0,-2.3610046E0,2.3024776E0,-1.8822818E0,7.0257435E0,6.3351184E-1,3.659504E0,1.05769415E1,1.0623183E0,-1.6488867E-1,1.1907672E0,1.9601046E-1,-4.924785E0,1.42901E0,9.3234843E-1,-2.1333098E-1,6.7967005E0,-1.8414546E0,3.023345E0,-2.6273432E0,1.2952732E-1,2.8755069E-2,-2.6688302E0,1.15007594E-1,1.3261717E1,3.3110666E0,-2.0358734E0,3.4879766E0,5.077764E0,-5.3574926E-1,1.3797141E1,4.4245234E0,8.553007E-2,-2.206328E-2,-1.7550659E-1,-2.8080782E-1,2.1430616E-1,-9.5222E-2,5.7651716E-1,8.252231E-2,2.4647056E-1,-2.0680915E-1,-9.604526E-3,2.0795934E-1,-1.4165193E-1,1.5239978E-1,-1.617024E-1,6.3816074E-4,5.2523296E-2,-1.2089419E-1,9.568058E-1,2.3674877E-1,4.1269022E-1,1.0508907E-1,-1.5601596E-1,4.565488E-2,5.214748E-1,8.754376E-2,4.6501428E-1,1.5674338E-1,-2.1484008E-1,4.7080703E-2,7.7461946E-1,1.773635E-1,2.882473E-1,8.214324E-2],"categories":[],"categories_nodes":[],"categories_segments":[],"categories_sizes":[],"default_left":[0,0,0,0,0,0,0,0,0,0,0,0,0,0,0,0,0,0,0,0,0,0,0,0,0,0,0,0,0,0,0,0,0,0,0,0,0,0,0,0,0,0,0,0,0,0,0,0,0,0,0,0,0,0,0,0,0,0,0,0,0,0,0,0,0,0,0,0,0,0,0,0,0,0,0,0,0,0,0,0,0,0,0],"id":2,"left_children":[1,3,5,7,9,11,13,15,17,19,21,23,25,27,-1,29,31,33,35,37,39,41,43,45,47,49,-1,-1,-1,51,53,-1,-1,55,57,59,61,-1,-1,63,65,67,69,71,73,75,77,79,81,-1,-1,-1,-1,-1,-1,-1,-1,-1,-1,-1,-1,-1,-1,-1,-1,-1,-1,-1,-1,-1,-1,-1,-1,-1,-1,-1,-1,-1,-1,-1,-1,-1,-1],"loss_changes":[4.6525527E3,1.5170237E3,1.4735061E3,4.5929175E2,6.023019E2,6.5117676E2,5.220803E2,4.378601E2,2.2493474E2,7.394642E1,4.6153247E2,5.5782153E2,4.8498547E1,1.9256226E2,0E0,1.7230151E2,6.00041E2,3.781024E2,1.15497955E2,9.981899E-1,5.0577797E1,5.352052E2,1.7473373E2,2.1691907E2,3.153828E2,4.653822E0,0E0,0E0,0E0,1.0938916E2,5.5782883E1,0E0,0E0,1.75854E2,2.3791109E2,1.5407852E1,9.2687256E1,0E0,0E0,3.4902008E1,2.623405E1,3.601964E2,8.426437E1,4.1225155E1,1.1437857E2,1.9235077E2,5.9610332E1,1.5355713E2,2.0357758E1,0E0,0E0,0E0,0E0,0E0,0E0,0E0,0E0,0E0,0E0,0E0,0E0,0E0,0E0,0E0,0E0,0E0,0E0,0E0,0E0,0E0,0E0,0E0,0E0,0E0,0E0,0E0,0E0,0E0,0E0,0E0,0E0,0E0,0E0],"parents":[2147483647,0,0,1,1,2,2,3,3,4,4,5,5,6,6,7,7,8,8,9,9,10,10,11,11,12,12,13,13,15,15,16,16,17,17,18,18,19,19,20,20,21,21,22,22,23,23,24,24,25,25,29,29,30,30,33,33,34,34,35,35,36,36,39,39,40,40,41,41,42,42,43,43,44,44,45,45,46,46,47,47,48,48],"right_children":[2,4,6,8,10,12,14,16,18,20,22,24,26,28,-1,30,32,34,36,38,40,42,44,46,48,50,-1,-1,-1,52,54,-1,-1,56,58,60,62,-1,-1,64,66,68,70,72,74,76,78,80,82,-1,-1,-1,-1,-1,-1,-1,-1,-1,-1,-1,-1,-1,-1,-1,-1,-1,-1,-1,-1,-1,-1,-1,-1,-1,-1,-1,-1,-1,-1,-1,-1,-1,-1],"split_conditions":[4.151932E1,6E0,1.7333333E0,1.3166667E1,5.0804044E2,2.55317E1,3.6666667E0,9.3E1,1.6190476E0,1E0,2.51E0,5.032653E1,8.3E1,7.4E1,2.9082665E-1,9.876543E-1,1.9E1,2.7855556E0,4.6153846E-1,1.8571428E1,9.0909094E-1,2.556087E0,1.056E0,3.2365E3,9.722222E-1,4.8E1,-1.6488867E-1,1.1907672E0,1.9601046E-1,1.625E0,3.8E1,9.3234843E-1,-2.1333098E-1,3.4479556E2,1.1E1,3.4E1,1.075E2,1.2952732E-1,2.8755069E-2,9E1,3.1818182E0,3.625E1,5.1594666E2,7E0,1.0644E0,6.677778E-1,9.6E-1,8E1,2.0244898E1,8.553007E-2,-2.206328E-2,-1.7550659E-1,-2.8080782E-1,2.1430616E-1,-9.5222E-2,5.7651716E-1,8.252231E-2,2.4647056E-1,-2.0680915E-1,-9.604526E-3,2.0795934E-1,-1.4165193E-1,1.5239978E-1,-1.617024E-1,6.3816074E-4,5.2523296E-2,-1.2089419E-1,9.568058E-1,2.3674877E-1,4.1269022E-1,1.0508907E-1,-1.5601596E-1,4.565488E-2,5.214748E-1,8.754376E-2,4.6501428E-1,1.5674338E-1,-2.1484008E-1,4.7080703E-2,7.7461946E-1,1.773635E-1,2.882473E-1,8.214324E-2],"split_indices":[16,91,34,3,21,112,33,8,105,102,44,40,8,1,0,34,1,45,28,3,93,45,46,20,88,2,0,0,0,116,1,0,0,21,74,1,130,0,0,7,57,10,21,6,46,46,106,8,4,0,0,0,0,0,0,0,0,0,0,0,0,0,0,0,0,0,0,0,0,0,0,0,0,0,0,0,0,0,0,0,0,0,0],"split_type":[0,0,0,0,0,0,0,0,0,0,0,0,0,0,0,0,0,0,0,0,0,0,0,0,0,0,0,0,0,0,0,0,0,0,0,0,0,0,0,0,0,0,0,0,0,0,0,0,0,0,0,0,0,0,0,0,0,0,0,0,0,0,0,0,0,0,0,0,0,0,0,0,0,0,0,0,0,0,0,0,0,0,0],"sum_hessian":[3.87E2,3.12E2,7.5E1,2.32E2,8E1,6.4E1,1.1E1,1.38E2,9.4E1,3.5E1,4.5E1,5.3E1,1.1E1,7E0,4E0,1.35E2,3E0,2E1,7.4E1,4E0,3.1E1,2.4E1,2.1E1,3.5E1,1.8E1,3E0,8E0,6E0,1E0,1.31E2,4E0,1E0,2E0,7E0,1.3E1,3E0,7.1E1,3E0,1E0,2.2E1,9E0,8E0,1.6E1,1.1E1,1E1,2.6E1,9E0,1.1E1,7E0,2E0,1E0,4.5E1,8.6E1,2E0,2E0,3E0,4E0,3E0,1E1,1E0,2E0,6.9E1,2E0,1.8E1,4E0,7E0,2E0,4E0,4E0,2E0,1.4E1,8E0,3E0,1E0,9E0,7E0,1.9E1,2E0,7E0,9E0,2E0,4E0,3E0],"tree_param":{"num_deleted":"0","num_feature":"132","num_nodes":"83","size_leaf_vector":"1"}},{"base_weights":[-8.418472E-2,-1.2142038E0,1.6043556E1,-2.1759143E0,6.172237E0,1.9498365E1,7.351323E0,-4.180333E0,-5.931216E-1,1.8559553E1,3.6618733E0,2.2080788E1,2.469842E-1,1.5914166E-1,4.452548E-1,-4.4294157E0,3.6798642E0,1.5106385E0,-2.107012E0,1.2418482E0,1.9106846E0,-4.6291718E-1,5.66029E0,2.5450043E1,3.226413E-1,-4.8336625E0,-2.4554906E0,9.090398E-1,-2.2452839E-1,-9.341333E-1,2.8232458E0,-2.3493717E0,4.7816772E0,1.026578E-2,1.3303557E-1,-1.5031417E-1,1.0014993E0,9.911947E0,2.1650543E0,6.4983815E-1,1.4078525E0,-2.4580668E-1,1.1626115E-1,-1.4723139E-1,4.8546053E-2,-7.827712E-2,4.0284777E-1,-1.08993165E-1,1.7072253E-1,-1.666051E-1,-1.8662348E-2,-4.3598056E-2,3.4784386E-1,7.864509E-2,1.1489849E-2,2.2977631E-1,9.0334016E-1,2.1078502E-1,3.590807E-2],"categories":[],"categories_nodes":[],"categories_segments":[],"categories_sizes":[],"default_left":[0,0,0,0,0,0,0,0,0,0,0,0,0,0,0,0,0,0,0,0,0,0,0,0,0,0,0,0,0,0,0,0,0,0,0,0,0,0,0,0,0,0,0,0,0,0,0,0,0,0,0,0,0,0,0,0,0,0,0],"id":3,"left_children":[1,3,5,7,9,11,13,15,17,19,21,23,-1,-1,-1,25,27,29,31,-1,33,35,37,39,-1,41,43,-1,-1,45,47,49,51,-1,-1,-1,53,55,57,-1,-1,-1,-1,-1,-1,-1,-1,-1,-1,-1,-1,-1,-1,-1,-1,-1,-1,-1,-1],"loss_changes":[7.236444E3,2.6488723E3,6.374409E2,1.0412993E3,1.2691938E3,5.6766846E2,2.9948578E1,3.0018628E2,5.923825E2,6.841267E2,3.07613E2,6.2559375E2,0E0,0E0,0E0,1.0064258E2,6.740364E2,2.5294127E2,1.9154419E2,0E0,3.2909298E0,5.1429905E1,3.500537E2,3.8583496E1,0E0,7.991699E1,4.6434616E1,0E0,0E0,1.7157103E2,1.5829391E2,2.0266595E2,5.52573E1,0E0,0E0,0E0,3.6071253E0,3.9387476E2,4.147841E1,0E0,0E0,0E0,0E0,0E0,0E0,0E0,0E0,0E0,0E0,0E0,0E0,0E0,0E0,0E0,0E0,0E0,0E0,0E0,0E0],"parents":[2147483647,0,0,1,1,2,2,3,3,4,4,5,5,6,6,7,7,8,8,9,9,10,10,11,11,15,15,16,16,17,17,18,18,20,20,21,21,22,22,23,23,25,25,26,26,29,29,30,30,31,31,32,32,36,36,37,37,38,38],"right_children":[2,4,6,8,10,12,14,16,18,20,22,24,-1,-1,-1,26,28,30,32,-1,34,36,38,40,-1,42,44,-1,-1,46,48,50,52,-1,-1,-1,54,56,58,-1,-1,-1,-1,-1,-1,-1,-1,-1,-1,-1,-1,-1,-1,-1,-1,-1,-1,-1,-1],"split_conditions":[1.6666666E0,2.2222223E0,2.4444444E0,3.7E1,4E0,6.6875E0,1.0666667E0,9.3E1,2.51E0,1.049E2,8.67483E-1,7.5178E2,2.469842E-1,1.5914166E-1,4.452548E-1,7.5739646E-1,4E0,2.08E0,1.47E1,1.2418482E0,4E1,3.2E0,9.722222E-1,5.864E1,3.226413E-1,7.479224E0,3.8366863E1,9.090398E-1,-2.2452839E-1,5E0,7.7833336E1,1.08E0,1.426087E1,1.026578E-2,1.3303557E-1,-1.5031417E-1,1.2E1,1.07125E2,2E0,6.4983815E-1,1.4078525E0,-2.4580668E-1,1.1626115E-1,-1.4723139E-1,4.8546053E-2,-7.827712E-2,4.0284777E-1,-1.08993165E-1,1.7072253E-1,-1.666051E-1,-1.8662348E-2,-4.3598056E-2,3.4784386E-1,7.864509E-2,1.1489849E-2,2.2977631E-1,9.0334016E-1,2.1078502E-1,3.590807E-2],"split_indices":[34,94,57,1,0,28,63,8,44,39,46,21,0,0,0,34,0,76,27,0,1,105,88,40,0,28,10,0,0,56,39,106,3,0,0,0,6,39,61,0,0,0,0,0,0,0,0,0,0,0,0,0,0,0,0,0,0,0,0],"split_type":[0,0,0,0,0,0,0,0,0,0,0,0,0,0,0,0,0,0,0,0,0,0,0,0,0,0,0,0,0,0,0,0,0,0,0,0,0,0,0,0,0,0,0,0,0,0,0,0,0,0,0,0,0,0,0,0,0,0,0],"sum_hessian":[3.95E2,3.7E2,2.5E1,3.28E2,4.2E1,1.7E1,8E0,1.44E2,1.84E2,6E0,3.6E1,1.4E1,3E0,3E0,5E0,1.4E2,4E0,7.7E1,1.07E2,4E0,2E0,1.2E1,2.4E1,1.1E1,3E0,1.15E2,2.5E1,1E0,3E0,2.7E1,5E1,1.04E2,3E0,1E0,1E0,4E0,8E0,1E1,1.4E1,3E0,8E0,1.14E2,1E0,2.2E1,3E0,2.6E1,1E0,5E0,4.5E1,6.9E1,3.5E1,1E0,2E0,4E0,4E0,7E0,3E0,5E0,9E0],"tree_param":{"num_deleted":"0","num_feature":"132","num_nodes":"59","size_leaf_vector":"1"}},{"base_weights":[4.4905546E-1,-1.3631237E0,8.28031E0,-3.2518685E0,1.9729574E0,1.2476184E1,1.9899812E0,-4.0951576E0,-1.8547221E0,3.7690647E0,-1.3727508E0,4.9649663E0,2.044456E1,9.595955E-1,8.962782E0,-4.333638E0,1.4299643E-1,-2.3153057E0,8.8631386E-1,1.9410623E0,7.4207215E0,6.95639E-1,-2.0679486E0,7.9567283E-1,3.3210342E0,9.407934E-1,2.4726463E1,2.1424053E0,-1.5019839E0,5.302824E-1,1.0085471E-1,-4.7971683E0,-2.773348E0,-1.381646E-1,3.7401075E0,-3.15998E0,1.952777E0,1.2621168E0,6.531216E-1,1.6603935E0,9.0658E0,-2.6217947E0,2.554872E0,-1.8009915E0,3.8946078E0,1.661729E-1,-4.8573732E-1,1.3163036E0,3.9765283E-1,3.2437162E0,9.4644946E-1,-1.5131667E-1,6.276323E-1,-2.4482189E-1,1.13354616E-1,2.3351233E-1,-1.7238712E-1,2.3145631E-1,2.6826287E-2,-2.1470454E-1,-1.0468613E-1,3.5982808E-1,-6.578944E-3,-3.1037886E-2,2.4265718E-1,2.377954E-1,-9.2510976E-2,5.7000434E-1,2.06968E-1,-1.4540598E-1,1.993054E-1,2.3609233E-1,-2.3186333E-2,-5.4854155E-3,-1.2958895E-1,2.6012242E-1,5.5953022E-2,-4.6534922E-2,2.1228647E-2,1.879478E-1,3.9425265E-2,8.743312E-2,-4.4729438E-2,3.8413644E-2,1.6267538E-3],"categories":[],"categories_nodes":[],"categories_segments":[],"categories_sizes":[],"default_left":[0,0,0,0,0,0,0,0,0,0,0,0,0,0,0,0,0,0,0,0,0,0,0,0,0,0,0,0,0,0,0,0,0,0,0,0,0,0,0,0,0,0,0,0,0,0,0,0,0,0,0,0,0,0,0,0,0,0,0,0,0,0,0,0,0,0,0,0,0,0,0,0,0,0,0,0,0,0,0,0,0,0,0,0,0],"id":4,"left_children":[1,3,5,7,9,11,13,15,17,19,21,23,25,27,29,31,33,35,-1,37,39,-1,41,-1,43,45,47,49,51,-1,-1,53,55,-1,57,59,61,63,-1,65,67,69,71,73,75,-1,77,-1,-1,79,81,-1,83,-1,-1,-1,-1,-1,-1,-1,-1,-1,-1,-1,-1,-1,-1,-1,-1,-1,-1,-1,-1,-1,-1,-1,-1,-1,-1,-1,-1,-1,-1,-1,-1],"loss_changes":[5.8156655E3,2.1046506E3,2.0074663E3,2.4336108E2,7.3229333E2,2.6516948E3,2.2130896E2,1.3403442E2,7.8057416E2,5.129397E2,4.8570905E2,3.9711523E2,1.8140293E3,8.7653694E1,2.4250702E1,7.710083E1,9.396894E1,2.98187E2,0E0,3.9125708E2,2.3132825E2,0E0,1.1423224E2,0E0,7.4584915E1,1.860905E1,2.73583E2,2.327237E1,3.4362217E1,0E0,0E0,7.772095E1,1.7171927E2,0E0,8.908535E0,7.323865E1,1.539657E2,3.5460822E2,0E0,8.486955E1,1.8280542E2,8.348828E1,3.489578E1,3.7279968E0,7.040756E1,0E0,2.0153599E0,0E0,0E0,9.686264E0,1.7810284E1,0E0,3.9347827E-1,0E0,0E0,0E0,0E0,0E0,0E0,0E0,0E0,0E0,0E0,0E0,0E0,0E0,0E0,0E0,0E0,0E0,0E0,0E0,0E0,0E0,0E0,0E0,0E0,0E0,0E0,0E0,0E0,0E0,0E0,0E0,0E0],"parents":[2147483647,0,0,1,1,2,2,3,3,4,4,5,5,6,6,7,7,8,8,9,9,10,10,11,11,12,12,13,13,14,14,15,15,16,16,17,17,19,19,20,20,22,22,24,24,25,25,26,26,27,27,28,28,31,31,32,32,34,34,35,35,36,36,37,37,39,39,40,40,41,41,42,42,43,43,44,44,46,46,49,49,50,50,52,52],"right_children":[2,4,6,8,10,12,14,16,18,20,22,24,26,28,30,32,34,36,-1,38,40,-1,42,-1,44,46,48,50,52,-1,-1,54,56,-1,58,60,62,64,-1,66,68,70,72,74,76,-1,78,-1,-1,80,82,-1,84,-1,-1,-1,-1,-1,-1,-1,-1,-1,-1,-1,-1,-1,-1,-1,-1,-1,-1,-1,-1,-1,-1,-1,-1,-1,-1,-1,-1,-1,-1,-1,-1],"split_conditions":[9.3333334E-1,1.5833333E1,1.15E1,2.361111E1,2.62E0,6.5917377E2,8.847E2,8.5217145E2,9.3E1,1.9914667E1,3E0,1.1913043E1,2.088889E1,8E0,3.1666667E0,1.3166667E1,4.9E1,3.6E1,8.8631386E-1,1.53125E0,1.7384615E1,6.95639E-1,1.2222222E0,7.9567283E-1,2.7272727E0,2.3E1,2.2533333E-5,2.17E0,3.228E1,5.302824E-1,1.0085471E-1,7.479224E0,4.7928995E-1,-1.381646E-1,1.3230769E1,1.7E2,8.661206E1,2.1538463E0,6.531216E-1,1.1666667E1,2.406212E1,1.4166667E1,4.8E1,1.2333333E1,2.2533333E-5,1.661729E-1,1.3142858E1,1.3163036E0,3.9765283E-1,2.85E0,8.24376E2,-1.5131667E-1,3.3714287E1,-2.4482189E-1,1.13354616E-1,2.3351233E-1,-1.7238712E-1,2.3145631E-1,2.6826287E-2,-2.1470454E-1,-1.0468613E-1,3.5982808E-1,-6.578944E-3,-3.1037886E-2,2.4265718E-1,2.377954E-1,-9.2510976E-2,5.7000434E-1,2.06968E-1,-1.4540598E-1,1.993054E-1,2.3609233E-1,-2.3186333E-2,-5.4854155E-3,-1.2958895E-1,2.6012242E-1,5.5953022E-2,-4.6534922E-2,2.1228647E-2,1.879478E-1,3.9425265E-2,8.743312E-2,-4.4729438E-2,3.8413644E-2,1.6267538E-3],"split_indices":[93,3,27,10,44,22,21,21,8,111,5,3,10,104,33,3,1,2,0,94,3,0,88,0,33,1,122,44,10,0,0,28,46,0,3,37,14,87,0,4,111,27,2,3,122,0,3,0,0,57,22,0,3,0,0,0,0,0,0,0,0,0,0,0,0,0,0,0,0,0,0,0,0,0,0,0,0,0,0,0,0,0,0,0,0],"split_type":[0,0,0,0,0,0,0,0,0,0,0,0,0,0,0,0,0,0,0,0,0,0,0,0,0,0,0,0,0,0,0,0,0,0,0,0,0,0,0,0,0,0,0,0,0,0,0,0,0,0,0,0,0,0,0,0,0,0,0,0,0,0,0,0,0,0,0,0,0,0,0,0,0,0,0,0,0,0,0,0,0,0,0,0,0],"sum_hessian":[4.08E2,3.32E2,7.6E1,2.12E2,1.2E2,4.5E1,3.1E1,1.31E2,8.1E1,7.8E1,4.2E1,2.4E1,2.1E1,2.8E1,3E0,1.24E2,7E0,8E1,1E0,5.3E1,2.5E1,1E0,4.1E1,2E0,2.2E1,4E0,1.7E1,1.9E1,9E0,2E0,1E0,9.4E1,3E1,4E0,3E0,6.7E1,1.3E1,5.1E1,2E0,6E0,1.9E1,3.7E1,4E0,2E0,2E1,1E0,3E0,1.5E1,2E0,9E0,1E1,5E0,4E0,9.3E1,1E0,2E0,2.8E1,2E0,1E0,3.1E1,3.6E1,3E0,1E1,3.4E1,1.7E1,3E0,3E0,1.2E1,7E0,3.6E1,1E0,2E0,2E0,1E0,1E0,1.3E1,7E0,2E0,1E0,7E0,2E0,7E0,3E0,3E0,1E0],"tree_param":{"num_deleted":"0","num_feature":"132","num_nodes":"85","size_leaf_vector":"1"}},{"base_weights":[1.4771514E-1,-1.6820105E0,7.8584867E0,-3.1724577E0,1.0249487E0,4.5903277E0,1.7937393E1,-1.0015616E0,-3.6328673E0,2.4431658E0,-1.3615227E0,9.169107E0,1.3724947E0,2.1465883E1,6.7146797E0,-1.9375564E0,8.6415595E-1,-4.803736E0,-3.0797725E0,1.9911833E0,6.313508E-1,-2.1889076E0,1.0951501E1,3.2756128E0,1.5280758E1,-1.9418014E-2,2.6921709E0,3.8462192E-1,2.3120422E1,4.409217E-1,8.357237E-2,-3.4456313E0,3.304644E0,-4.974561E0,1.1052074E-1,8.380451E-1,-3.252884E0,6.4296305E-1,5.789127E0,-2.7300403E0,2.4697096E0,6.7824805E-1,1.4311455E-1,4.7935134E-1,2.052656E0,3.4042659E0,1.8861336E1,-1.5331883E0,1.2208866E0,1.1845763E0,3.9305482E0,5.401653E-1,1.301288E0,-1.9733699E-1,-7.871205E-2,-9.79448E-2,2.5441775E-1,-2.549466E-1,4.042647E-2,-1.0495243E-1,2.2374108E-1,-2.0014082E-1,-1.2040388E-1,-4.9515855E-2,2.748439E-1,1.8033129E-1,4.5076624E-1,1.9432275E-1,-1.5032169E-1,-2.2413446E-2,2.282226E-1,-5.967344E-2,1.8139929E-1,-4.347024E-2,2.5593123E-1,1.0600737E0,3.5060884E-3,-1.2209709E-1,5.491495E-2,1.319382E-1,3.0630335E-2,9.88788E-2,1.6315682E-2,3.028126E-1,1.07717685E-1],"categories":[],"categories_nodes":[],"categories_segments":[],"categories_sizes":[],"default_left":[0,0,0,0,0,0,0,0,0,0,0,0,0,0,0,0,0,0,0,0,0,0,0,0,0,0,0,0,0,0,0,0,0,0,0,0,0,0,0,0,0,0,0,0,0,0,0,0,0,0,0,0,0,0,0,0,0,0,0,0,0,0,0,0,0,0,0,0,0,0,0,0,0,0,0,0,0,0,0,0,0,0,0,0,0],"id":5,"left_children":[1,3,5,7,9,11,13,15,17,19,21,23,25,27,29,31,-1,33,35,37,-1,39,41,43,45,47,49,-1,51,-1,-1,53,55,57,-1,59,61,63,65,67,69,-1,-1,-1,71,73,75,77,79,81,83,-1,-1,-1,-1,-1,-1,-1,-1,-1,-1,-1,-1,-1,-1,-1,-1,-1,-1,-1,-1,-1,-1,-1,-1,-1,-1,-1,-1,-1,-1,-1,-1,-1,-1],"loss_changes":[5.8118516E3,1.3467668E3,2.5198794E3,2.1125415E2,4.0608603E2,8.861742E2,6.0824854E2,7.0094727E2,9.9831055E1,3.2007642E2,4.824142E2,8.5042017E2,6.801662E1,1.4118994E2,4.8918793E1,3.1180054E2,0E0,7.689661E1,8.614685E1,3.700717E2,0E0,1.1514241E2,2.4595581E1,8.838135E1,4.460879E2,3.7545036E1,3.0816422E1,0E0,1.4826025E2,0E0,0E0,2.1919922E1,9.446526E1,4.2961792E1,0E0,7.3482185E1,6.511951E1,4.4147278E2,1.0126752E2,8.300586E1,3.2608166E1,0E0,0E0,0E0,7.080822E1,3.3756565E1,3.942793E2,2.4204338E1,7.8706055E0,6.1607103E0,2.4709335E1,0E0,0E0,0E0,0E0,0E0,0E0,0E0,0E0,0E0,0E0,0E0,0E0,0E0,0E0,0E0,0E0,0E0,0E0,0E0,0E0,0E0,0E0,0E0,0E0,0E0,0E0,0E0,0E0,0E0,0E0,0E0,0E0,0E0,0E0],"parents":[2147483647,0,0,1,1,2,2,3,3,4,4,5,5,6,6,7,7,8,8,9,9,10,10,11,11,12,12,13,13,14,14,15,15,17,17,18,18,19,19,21,21,22,22,23,23,24,24,25,25,26,26,28,28,31,31,32,32,33,33,35,35,36,36,37,37,38,38,39,39,40,40,44,44,45,45,46,46,47,47,48,48,49,49,50,50],"right_children":[2,4,6,8,10,12,14,16,18,20,22,24,26,28,30,32,-1,34,36,38,-1,40,42,44,46,48,50,-1,52,-1,-1,54,56,58,-1,60,62,64,66,68,70,-1,-1,-1,72,74,76,78,80,82,84,-1,-1,-1,-1,-1,-1,-1,-1,-1,-1,-1,-1,-1,-1,-1,-1,-1,-1,-1,-1,-1,-1,-1,-1,-1,-1,-1,-1,-1,-1,-1,-1,-1,-1],"split_conditions":[1.6177778E0,3.4655243E1,1.56E0,2E0,2.62E0,1.1310345E1,1E0,9.3E1,2.3672923E2,1.53125E0,1.7333333E0,9.5E-1,2E0,1.06E0,5.195803E1,3.5E1,8.6415595E-1,7.4444447E0,1.53E0,2.0111547E1,6.313508E-1,1.2222222E0,3E0,3.012E1,2.5E1,8.954167E-1,3.84E1,3.8462192E-1,5.864E1,4.409217E-1,8.357237E-2,1.0696296E2,1.7672626E1,3.804E1,1.1052074E-1,3.5E1,6.875E-1,4.75E0,2.581E0,1.424E1,6E0,6.7824805E-1,1.4311455E-1,4.7935134E-1,3.5333332E1,3E0,3.625E1,5.6E1,1.7066667E0,1.2273809E1,2.44975E1,5.401653E-1,1.301288E0,-1.9733699E-1,-7.871205E-2,-9.79448E-2,2.5441775E-1,-2.549466E-1,4.042647E-2,-1.0495243E-1,2.2374108E-1,-2.0014082E-1,-1.2040388E-1,-4.9515855E-2,2.748439E-1,1.8033129E-1,4.5076624E-1,1.9432275E-1,-1.5032169E-1,-2.2413446E-2,2.282226E-1,-5.967344E-2,1.8139929E-1,-4.347024E-2,2.5593123E-1,1.0600737E0,3.5060884E-3,-1.2209709E-1,5.491495E-2,1.319382E-1,3.0630335E-2,9.88788E-2,1.6315682E-2,3.028126E-1,1.07717685E-1],"split_indices":[94,15,34,6,44,27,102,7,21,94,34,42,102,46,16,1,0,28,44,111,0,88,0,10,1,46,40,0,40,0,0,130,16,10,0,1,34,76,45,10,0,0,0,0,10,0,10,1,94,111,109,0,0,0,0,0,0,0,0,0,0,0,0,0,0,0,0,0,0,0,0,0,0,0,0,0,0,0,0,0,0,0,0,0,0],"split_type":[0,0,0,0,0,0,0,0,0,0,0,0,0,0,0,0,0,0,0,0,0,0,0,0,0,0,0,0,0,0,0,0,0,0,0,0,0,0,0,0,0,0,0,0,0,0,0,0,0,0,0,0,0,0,0,0,0,0,0,0,0,0,0,0,0,0,0,0,0,0,0,0,0,0,0,0,0,0,0,0,0,0,0,0,0],"sum_hessian":[4.1E2,3.32E2,7.8E1,2.14E2,1.18E2,6E1,1.8E1,3.8E1,1.76E2,7.4E1,4.4E1,2.4E1,3.6E1,1.3E1,5E0,3.7E1,1E0,5.4E1,1.22E2,7.2E1,2E0,4.2E1,2E0,1.3E1,1.1E1,1.8E1,1.8E1,2E0,1.1E1,3E0,2E0,2.9E1,8E0,5.3E1,1E0,5E0,1.17E2,5.4E1,1.8E1,3.8E1,4E0,1E0,1E0,1E0,1.2E1,3E0,8E0,8E0,1E1,9E0,9E0,3E0,8E0,2.2E1,7E0,2E0,6E0,5.2E1,1E0,3E0,2E0,6E1,5.7E1,4.1E1,1.3E1,1.2E1,6E0,1E0,3.7E1,2E0,2E0,4E0,8E0,1E0,2E0,7E0,1E0,6E0,2E0,2E0,8E0,4E0,5E0,3E0,6E0],"tree_param":{"num_deleted":"0","num_feature":"132","num_nodes":"85","size_leaf_vector":"1"}},{"base_weights":[1.1281293E-1,-1.1865005E0,8.190129E0,-2.485192E0,2.1672843E0,1.334915E1,3.1044846E0,-3.4743276E0,-8.382555E-1,-1.6103927E0,3.7464805E0,3.1524346E0,1.676038E1,-3.470826E-2,5.657248E0,-3.6654797E0,1.8516698E0,3.1702563E-1,-1.0632343E0,-2.6882067E0,2.161052E0,5.6958265E0,1.657724E-1,4.1180873E0,-9.017833E-2,1.829166E1,9.9294685E-2,3.0713704E0,-2.1015708E0,-1.2727875E-1,7.0109067E0,-4.8051214E0,-2.886311E0,8.42552E-1,-2.259206E-1,-2.248887E0,4.018021E-1,-3.2012548E0,5.4908633E-1,2.1272643E-1,-4.7268772E-1,6.958474E0,1.23660825E-2,-1.4447418E0,7.503949E-1,3.3199336E-2,4.583106E0,1.9186646E1,7.692313E-2,1.8419695E-1,2.131939E-4,-3.8463097E0,1.0409298E0,-2.7762795E-2,7.635631E0,-2.4811421E-1,1.0775774E-1,-1.5484904E-1,2.1628304E-1,6.163801E-2,-1.2460863E-1,4.6233335E-1,-1.3580389E-2,-1.7079979E-1,2.1970559E-2,1.9794225E-3,3.528614E-2,6.0504437E-3,-5.634444E-2,4.7528577E-1,8.603036E-2,1.0357864E-1,-1.02465704E-1,-9.453527E-2,-3.187964E-2,5.4555036E-2,-4.0001344E-2,2.5728366E-1,4.4256806E-2,6.422288E-1,1.2357951E0,-2.0881815E-1,-5.4901052E-2,6.3307956E-2,9.131051E-3,5.195723E-1,2.307158E-1],"categories":[],"categories_nodes":[],"categories_segments":[],"categories_sizes":[],"default_left":[0,0,0,0,0,0,0,0,0,0,0,0,0,0,0,0,0,0,0,0,0,0,0,0,0,0,0,0,0,0,0,0,0,0,0,0,0,0,0,0,0,0,0,0,0,0,0,0,0,0,0,0,0,0,0,0,0,0,0,0,0,0,0,0,0,0,0,0,0,0,0,0,0,0,0,0,0,0,0,0,0,0,0,0,0,0,0],"id":6,"left_children":[1,3,5,7,9,11,13,15,17,19,21,23,25,27,29,31,33,-1,35,37,39,41,43,45,-1,47,-1,49,51,-1,53,55,57,-1,-1,59,61,63,65,-1,67,69,71,73,75,-1,77,79,-1,-1,-1,81,83,-1,85,-1,-1,-1,-1,-1,-1,-1,-1,-1,-1,-1,-1,-1,-1,-1,-1,-1,-1,-1,-1,-1,-1,-1,-1,-1,-1,-1,-1,-1,-1,-1,-1],"loss_changes":[4.165724E3,1.4949781E3,1.4015901E3,3.9946118E2,5.7873987E2,8.8631396E2,2.3259125E2,1.6357092E2,1.5855809E2,1.236919E2,4.7369843E2,4.5713455E1,4.1615283E2,9.6332436E1,1.9550793E2,1.18438965E2,6.494233E2,0E0,1.6070987E2,3.9958176E1,4.0606773E1,3.15667E2,2.4622698E1,8.200432E0,0E0,2.4037158E2,0E0,1.1257172E1,5.334932E1,0E0,7.041449E1,7.523425E1,1.5165686E2,0E0,0E0,4.6270996E1,2.5267268E2,1.7137024E1,2.912854E-1,0E0,1.6899512E0,4.6396057E2,4.2454132E1,1.3142128E0,1.0909424E1,0E0,7.927498E0,2.7867285E2,0E0,0E0,0E0,8.567505E-1,5.4203796E-1,0E0,6.0290955E1,0E0,0E0,0E0,0E0,0E0,0E0,0E0,0E0,0E0,0E0,0E0,0E0,0E0,0E0,0E0,0E0,0E0,0E0,0E0,0E0,0E0,0E0,0E0,0E0,0E0,0E0,0E0,0E0,0E0,0E0,0E0,0E0],"parents":[2147483647,0,0,1,1,2,2,3,3,4,4,5,5,6,6,7,7,8,8,9,9,10,10,11,11,12,12,13,13,14,14,15,15,16,16,18,18,19,19,20,20,21,21,22,22,23,23,25,25,27,27,28,28,30,30,31,31,32,32,35,35,36,36,37,37,38,38,40,40,41,41,42,42,43,43,44,44,46,46,47,47,51,51,52,52,54,54],"right_children":[2,4,6,8,10,12,14,16,18,20,22,24,26,28,30,32,34,-1,36,38,40,42,44,46,-1,48,-1,50,52,-1,54,56,58,-1,-1,60,62,64,66,-1,68,70,72,74,76,-1,78,80,-1,-1,-1,82,84,-1,86,-1,-1,-1,-1,-1,-1,-1,-1,-1,-1,-1,-1,-1,-1,-1,-1,-1,-1,-1,-1,-1,-1,-1,-1,-1,-1,-1,-1,-1,-1,-1,-1],"split_conditions":[1.8366863E1,6E0,2.6153846E0,8.52071E-1,4.8762E2,5.9E1,3E0,9.3E1,2.4E1,1.37327E2,6.383333E-2,5.7714287E1,1.7E1,2.7483332E0,1.37327E2,4.0078E1,4E0,3.1702563E-1,2.3834711E1,1.24E0,3E0,1.8384E2,2.8402367E-1,1.95E1,-9.017833E-2,1.0146512E3,9.9294685E-2,8.1246315E1,3E0,-1.2727875E-1,1E1,4.9586776E-1,3.1111112E0,8.42552E-1,-2.259206E-1,5E0,7.9183674E-1,4.847351E1,4.5E0,2.1272643E-1,6.5066666E1,1.159E2,3.9928993E1,8E0,9E0,3.3199336E-2,7E0,5.864E1,7.692313E-2,1.8419695E-1,2.131939E-4,9E0,2.398347E1,-2.7762795E-2,7.9012346E-1,-2.4811421E-1,1.0775774E-1,-1.5484904E-1,2.1628304E-1,6.163801E-2,-1.2460863E-1,4.6233335E-1,-1.3580389E-2,-1.7079979E-1,2.1970559E-2,1.9794225E-3,3.528614E-2,6.0504437E-3,-5.634444E-2,4.7528577E-1,8.603036E-2,1.0357864E-1,-1.02465704E-1,-9.453527E-2,-3.187964E-2,5.4555036E-2,-4.0001344E-2,2.5728366E-1,4.4256806E-2,6.422288E-1,1.2357951E0,-2.0881815E-1,-5.4901052E-2,6.3307956E-2,9.131051E-3,5.195723E-1,2.307158E-1],"split_indices":[4,91,57,34,22,9,85,8,40,13,117,9,6,45,13,13,0,0,10,42,61,13,64,4,0,22,0,15,24,0,74,52,105,0,0,8,46,15,4,0,9,39,40,6,5,0,6,40,0,0,0,5,4,0,106,0,0,0,0,0,0,0,0,0,0,0,0,0,0,0,0,0,0,0,0,0,0,0,0,0,0,0,0,0,0,0,0],"split_type":[0,0,0,0,0,0,0,0,0,0,0,0,0,0,0,0,0,0,0,0,0,0,0,0,0,0,0,0,0,0,0,0,0,0,0,0,0,0,0,0,0,0,0,0,0,0,0,0,0,0,0,0,0,0,0,0,0,0,0,0,0,0,0,0,0,0,0,0,0,0,0,0,0,0,0,0,0,0,0,0,0,0,0,0,0,0,0],"sum_hessian":[3.95E2,3.41E2,5.4E1,2.46E2,9.5E1,2.6E1,2.8E1,1.53E2,9.3E1,2.8E1,6.7E1,7E0,1.9E1,1.3E1,1.5E1,1.48E2,5E0,2E0,9.1E1,2.2E1,6E0,4.3E1,2.4E1,6E0,1E0,1.7E1,2E0,5E0,8E0,2E0,1.3E1,5.8E1,9E1,1E0,4E0,5E1,4.1E1,1.9E1,3E0,3E0,3E0,3.5E1,8E0,6E0,1.8E1,1E0,5E0,1.6E1,1E0,4E0,1E0,5E0,3E0,1E0,1.2E1,5.7E1,1E0,8.8E1,2E0,3E0,4.7E1,2E0,3.9E1,1.8E1,1E0,1E0,2E0,2E0,1E0,2.3E1,1.2E1,4E0,4E0,3E0,3E0,1.5E1,3E0,4E0,1E0,9E0,7E0,4E0,1E0,2E0,1E0,5E0,7E0],"tree_param":{"num_deleted":"0","num_feature":"132","num_nodes":"87","size_leaf_vector":"1"}},{"base_weights":[2.810055E-1,-1.3718133E0,7.2535396E0,-3.1128154E0,1.1973246E0,4.243624E0,1.6218353E1,-2.6496866E0,-4.82962E0,3.104095E0,-1.3660413E0,1.7149837E1,2.1764445E0,2.1055914E1,6.9347196E0,-3.0121286E0,8.826004E0,-5.061214E0,1.05063796E-1,8.416523E-1,6.026622E0,3.6298127E0,-2.1380572E0,1.1328305E0,5.9789133E0,1.5863977E-1,4.9207854E0,4.8419753E-1,1.1885288E0,6.297262E-1,2.9490306E0,2.0907362E-1,-3.1367507E0,8.1244797E-1,-7.694756E-2,-5.366877E0,1.978512E-2,-9.661087E-1,5.226783E0,3.297566E0,1.0527672E1,6.2319236E0,-5.302789E-1,-2.552472E0,1.3263973E0,1.4153198E0,4.9174237E-1,-8.4343076E-1,2.347331E0,1.873935E0,8.389612E0,5.034649E-2,1.8341744E-1,-8.204435E-2,-1.7579131E-1,-2.79379E-1,-1.0745895E-1,-7.3618375E-2,3.681978E-1,3.7217718E-1,9.562874E-3,2.0286722E-1,-5.678872E-2,8.370089E-3,5.7271487E-1,3.9755322E-2,3.6961755E-1,-1.2530643E-1,1.3493176E-1,-2.1286212E-2,-1.5004018E-1,2.2106783E-1,-6.632107E-2,9.537692E-2,1.07720615E-2,1.9300587E-2,-1.5216033E-1,4.5548543E-1,2.9188288E-2,1.6968243E-1,4.325812E-3,6.253936E-1,1.77973E-1],"categories":[],"categories_nodes":[],"categories_segments":[],"categories_sizes":[],"default_left":[0,0,0,0,0,0,0,0,0,0,0,0,0,0,0,0,0,0,0,0,0,0,0,0,0,0,0,0,0,0,0,0,0,0,0,0,0,0,0,0,0,0,0,0,0,0,0,0,0,0,0,0,0,0,0,0,0,0,0,0,0,0,0,0,0,0,0,0,0,0,0,0,0,0,0,0,0,0,0,0,0,0,0],"id":7,"left_children":[1,3,5,7,9,11,13,15,17,19,21,23,25,27,29,31,33,35,-1,37,39,41,43,-1,45,47,49,-1,-1,-1,51,-1,53,-1,-1,55,-1,57,59,61,63,65,67,69,71,73,-1,75,77,79,81,-1,-1,-1,-1,-1,-1,-1,-1,-1,-1,-1,-1,-1,-1,-1,-1,-1,-1,-1,-1,-1,-1,-1,-1,-1,-1,-1,-1,-1,-1,-1,-1],"loss_changes":[4.631209E3,1.4574114E3,2.0088918E3,1.4145276E2,6.4942334E2,1.5367626E3,7.072759E2,6.7127246E2,7.484119E1,4.9744342E2,2.2760281E2,3.5666406E2,2.871717E2,1.4025879E2,1.433241E2,1.4848474E2,4.0969928E2,6.7174805E1,0E0,3.5384943E2,3.7064368E2,8.9904816E1,7.5171646E1,0E0,5.6468216E1,6.996972E1,2.1679633E2,0E0,0E0,0E0,4.68816E0,0E0,7.87207E1,0E0,0E0,1.426709E1,0E0,1.4579184E2,1.4368958E2,7.871211E1,1.1328357E2,2.5667465E1,3.2282524E1,4.1629425E1,5.5126774E1,1.3608456E0,0E0,6.0673668E1,1.1394101E2,3.5019142E1,1.5439703E2,0E0,0E0,0E0,0E0,0E0,0E0,0E0,0E0,0E0,0E0,0E0,0E0,0E0,0E0,0E0,0E0,0E0,0E0,0E0,0E0,0E0,0E0,0E0,0E0,0E0,0E0,0E0,0E0,0E0,0E0,0E0,0E0],"parents":[2147483647,0,0,1,1,2,2,3,3,4,4,5,5,6,6,7,7,8,8,9,9,10,10,11,11,12,12,13,13,14,14,15,15,16,16,17,17,19,19,20,20,21,21,22,22,24,24,25,25,26,26,30,30,32,32,35,35,37,37,38,38,39,39,40,40,41,41,42,42,43,43,44,44,45,45,47,47,48,48,49,49,50,50],"right_children":[2,4,6,8,10,12,14,16,18,20,22,24,26,28,30,32,34,36,-1,38,40,42,44,-1,46,48,50,-1,-1,-1,52,-1,54,-1,-1,56,-1,58,60,62,64,66,68,70,72,74,-1,76,78,80,82,-1,-1,-1,-1,-1,-1,-1,-1,-1,-1,-1,-1,-1,-1,-1,-1,-1,-1,-1,-1,-1,-1,-1,-1,-1,-1,-1,-1,-1,-1,-1,-1],"split_conditions":[9.3333334E-1,9.375E-1,1.56E0,8.38E1,5.57E1,9.012182E0,1E0,2.9777777E0,7.479224E0,9.1E-1,4.4946492E-1,3.9E1,1.6E0,5.84E1,1.6530613E0,1.3827161E0,3.1E1,5E0,1.05063796E-1,4.75E0,1.0666667E0,4.5E1,1.3611112E0,1.1328305E0,6.3428E2,1.056E0,6.0568E2,4.8419753E-1,1.1885288E0,6.297262E-1,1.8875E3,2.0907362E-1,7.73E-1,8.1244797E-1,-7.694756E-2,1.3862987E1,1.978512E-2,1.02333336E2,3.1875E0,7.038461E1,2.7146667E2,1.9E1,2.6E1,1E0,4.8E1,7E1,4.9174237E-1,1.4698833E1,1.0644E0,2E0,1.2E1,5.034649E-2,1.8341744E-1,-8.204435E-2,-1.7579131E-1,-2.79379E-1,-1.0745895E-1,-7.3618375E-2,3.681978E-1,3.7217718E-1,9.562874E-3,2.0286722E-1,-5.678872E-2,8.370089E-3,5.7271487E-1,3.9755322E-2,3.6961755E-1,-1.2530643E-1,1.3493176E-1,-2.1286212E-2,-1.5004018E-1,2.2106783E-1,-6.632107E-2,9.537692E-2,1.07720615E-2,1.9300587E-2,-1.5216033E-1,4.5548543E-1,2.9188288E-2,1.6968243E-1,4.325812E-3,6.253936E-1,1.77973E-1],"split_indices":[93,34,34,9,110,12,102,45,28,46,106,2,93,40,34,28,2,86,0,76,63,2,88,0,21,46,21,0,0,0,20,0,115,0,0,111,0,39,28,9,21,2,3,102,2,2,0,111,46,62,6,0,0,0,0,0,0,0,0,0,0,0,0,0,0,0,0,0,0,0,0,0,0,0,0,0,0,0,0,0,0,0,0],"split_type":[0,0,0,0,0,0,0,0,0,0,0,0,0,0,0,0,0,0,0,0,0,0,0,0,0,0,0,0,0,0,0,0,0,0,0,0,0,0,0,0,0,0,0,0,0,0,0,0,0,0,0,0,0,0,0,0,0,0,0,0,0,0,0,0,0,0,0,0,0,0,0,0,0,0,0,0,0,0,0,0,0,0,0],"sum_hessian":[4E2,3.24E2,7.6E1,1.93E2,1.31E2,5.8E1,1.8E1,1.54E2,3.9E1,7.5E1,5.6E1,7E0,5.1E1,1.1E1,7E0,1.5E2,4E0,3.8E1,1E0,4.3E1,3.2E1,7E0,4.9E1,4E0,3E0,3E1,2.1E1,3E0,8E0,2E0,5E0,2E0,1.48E2,2E0,2E0,3.6E1,2E0,3.1E1,1.2E1,2.1E1,1.1E1,4E0,3E0,4.4E1,5E0,2E0,1E0,2.1E1,9E0,1.2E1,9E0,2E0,3E0,3.1E1,1.17E2,3.3E1,3E0,3E1,1E0,8E0,4E0,1.8E1,3E0,1E0,1E1,1E0,3E0,2E0,1E0,8E0,3.6E1,2E0,3E0,1E0,1E0,1.4E1,7E0,1E0,8E0,6E0,6E0,4E0,5E0],"tree_param":{"num_deleted":"0","num_feature":"132","num_nodes":"83","size_leaf_vector":"1"}},{"base_weights":[-2.4924098E-2,-1.2391979E0,6.7435675E0,-2.275165E0,1.6204835E0,2.8159046E0,1.19225025E1,-3.249608E0,-1.005423E0,-1.2533015E0,3.6127677E0,5.7215995E-1,1.6848416E0,1.8224539E1,5.2190037E0,-4.7346697E0,-2.5496864E0,4.4481997E0,-1.2531842E0,-2.8733256E0,-3.950856E-1,1.0834908E1,2.484273E0,2.8032823E0,-2.1606956E0,1.925131E-1,1.910154E1,2.0460656E0,7.342949E0,-4.9400687E0,1.0243721E-1,-3.093659E0,7.8536636E-1,1.0271954E-2,2.728765E-1,2.6165977E-1,-2.2912786E0,-1.8116191E-1,-1.3945547E0,-1.9934065E0,2.9868564E-1,2.485893E-1,6.9946516E-1,-2.8845677E-1,4.475096E0,-1.4522009E0,3.885645E0,-2.0510362E-1,8.061991E-1,5.0186807E-1,1.118948E0,1.8005995E-1,7.0377254E-1,6.07033E-1,1.8601342E-1,-2.6568797E-1,-1.5877578E-1,-1.6093864E-1,9.288988E-2,-7.239911E-2,1.8317498E-1,-6.9357954E-2,-1.6517238E-1,-8.3229564E-2,-1.109314E-3,-9.915304E-3,-1.2793612E-1,4.1139644E-2,-9.362073E-2,6.3150324E-2,-6.701788E-2,1.5131028E-2,3.578566E-1,-1.3975544E-1,1.3155846E-1,4.5481858E-1,1.4291956E-1,6.0554344E-2,-1.0211611E-2,4.3935932E-2,9.970665E-5],"categories":[],"categories_nodes":[],"categories_segments":[],"categories_sizes":[],"default_left":[0,0,0,0,0,0,0,0,0,0,0,0,0,0,0,0,0,0,0,0,0,0,0,0,0,0,0,0,0,0,0,0,0,0,0,0,0,0,0,0,0,0,0,0,0,0,0,0,0,0,0,0,0,0,0,0,0,0,0,0,0,0,0,0,0,0,0,0,0,0,0,0,0,0,0,0,0,0,0,0,0],"id":8,"left_children":[1,3,5,7,9,11,13,15,17,19,21,-1,23,25,27,29,31,33,35,37,39,41,43,45,47,-1,49,51,53,55,-1,57,-1,-1,-1,59,61,-1,63,65,67,-1,-1,69,71,73,75,-1,77,-1,-1,-1,79,-1,-1,-1,-1,-1,-1,-1,-1,-1,-1,-1,-1,-1,-1,-1,-1,-1,-1,-1,-1,-1,-1,-1,-1,-1,-1,-1,-1],"loss_changes":[3.295877E3,1.0109492E3,1.2072351E3,3.0605566E2,5.2553906E2,3.320085E2,1.0032744E3,1.344873E2,1.54206E2,5.1697353E1,4.131911E2,0E0,1.479902E2,9.033545E1,7.932388E1,7.142633E1,1.0218617E3,2.0290543E1,1.6728993E2,9.363525E0,2.9425997E1,5.99104E1,2.6625162E2,1.2539812E2,4.9385963E1,0E0,1.3185938E2,1.2077686E1,9.387808E1,1.1480103E1,0E0,6.545148E1,0E0,0E0,0E0,2.6120554E2,5.3070282E1,0E0,2.1866055E0,7.610979E0,2.3160505E1,0E0,0E0,3.5964577E1,3.111745E2,4.0255943E1,8.6406555E1,0E0,1.8837886E0,0E0,0E0,0E0,6.121144E-1,0E0,0E0,0E0,0E0,0E0,0E0,0E0,0E0,0E0,0E0,0E0,0E0,0E0,0E0,0E0,0E0,0E0,0E0,0E0,0E0,0E0,0E0,0E0,0E0,0E0,0E0,0E0,0E0],"parents":[2147483647,0,0,1,1,2,2,3,3,4,4,5,5,6,6,7,7,8,8,9,9,10,10,12,12,13,13,14,14,15,15,16,16,17,17,18,18,19,19,20,20,21,21,22,22,23,23,24,24,26,26,27,27,28,28,29,29,31,31,35,35,36,36,38,38,39,39,40,40,43,43,44,44,45,45,46,46,48,48,52,52],"right_children":[2,4,6,8,10,12,14,16,18,20,22,-1,24,26,28,30,32,34,36,38,40,42,44,46,48,-1,50,52,54,56,-1,58,-1,-1,-1,60,62,-1,64,66,68,-1,-1,70,72,74,76,-1,78,-1,-1,-1,80,-1,-1,-1,-1,-1,-1,-1,-1,-1,-1,-1,-1,-1,-1,-1,-1,-1,-1,-1,-1,-1,-1,-1,-1,-1,-1,-1,-1],"split_conditions":[1.8366863E1,6E0,7E0,8.181818E0,5.198786E2,1.6238667E2,1E0,8.2166664E1,2.4E1,7E0,4E0,5.7215995E-1,8.181818E-1,1.1492E3,1.8875E3,7.479224E0,2.975E0,3.4E1,1.0352E3,3.8E1,3.441816E2,5E1,2.7692308E0,5.6E1,3E0,1.925131E-1,1.1478571E2,5E0,2.28E1,2.96E1,1.0243721E-1,5.2875E1,7.8536636E-1,1.0271954E-2,2.728765E-1,2.7763313E1,1E0,-1.8116191E-1,6.7E1,2.7824463E2,3.1818182E0,2.485893E-1,6.9946516E-1,6.390059E0,1.8E0,2.6444445E1,1.872E1,-2.0510362E-1,7.5E1,5.0186807E-1,1.118948E0,1.8005995E-1,2.9333334E1,6.07033E-1,1.8601342E-1,-2.6568797E-1,-1.5877578E-1,-1.6093864E-1,9.288988E-2,-7.239911E-2,1.8317498E-1,-6.9357954E-2,-1.6517238E-1,-8.3229564E-2,-1.109314E-3,-9.915304E-3,-1.2793612E-1,4.1139644E-2,-9.362073E-2,6.3150324E-2,-6.701788E-2,1.5131028E-2,3.578566E-1,-1.3975544E-1,1.3155846E-1,4.5481858E-1,1.4291956E-1,6.0554344E-2,-1.0211611E-2,4.3935932E-2,9.970665E-5],"split_indices":[4,92,92,4,21,21,102,39,40,104,0,0,93,20,20,28,45,1,20,1,22,9,33,1,24,0,39,6,3,40,0,40,0,0,0,10,102,0,2,21,57,0,0,112,51,3,4,0,1,0,0,0,3,0,0,0,0,0,0,0,0,0,0,0,0,0,0,0,0,0,0,0,0,0,0,0,0,0,0,0,0],"split_type":[0,0,0,0,0,0,0,0,0,0,0,0,0,0,0,0,0,0,0,0,0,0,0,0,0,0,0,0,0,0,0,0,0,0,0,0,0,0,0,0,0,0,0,0,0,0,0,0,0,0,0,0,0,0,0,0,0,0,0,0,0,0,0,0,0,0,0,0,0,0,0,0,0,0,0,0,0,0,0,0,0],"sum_hessian":[3.99E2,3.39E2,6E1,2.49E2,9E1,3.5E1,2.5E1,1.4E2,1.09E2,3.7E1,5.3E1,3E0,3.2E1,1.2E1,1.3E1,4.3E1,9.7E1,4E0,1.05E2,1.2E1,2.5E1,6E0,4.7E1,2.5E1,7E0,1E0,1.1E1,6E0,7E0,4.2E1,1E0,9.5E1,2E0,1E0,3E0,4.3E1,6.2E1,7E0,5E0,7E0,1.8E1,3E0,3E0,2E1,2.7E1,5E0,2E1,4E0,3E0,4E0,7E0,2E0,4E0,2E0,5E0,3.3E1,9E0,9.3E1,2E0,2.9E1,1.4E1,3.4E1,2.8E1,4E0,1E0,2E0,5E0,1.5E1,3E0,8E0,1.2E1,1.1E1,1.6E1,4E0,1E0,2E0,1.8E1,2E0,1E0,3E0,1E0],"tree_param":{"num_deleted":"0","num_feature":"132","num_nodes":"81","size_leaf_vector":"1"}},{"base_weights":[1.6304284E-1,-1.3876748E0,6.5405135E0,-2.1438463E0,3.1306133E0,3.9032373E0,1.46633215E1,-3.174257E0,-9.2108786E-1,9.98921E0,2.260297E0,1.2417865E1,2.1907465E0,4.582562E0,1.7936266E1,-3.3660939E0,3.100598E0,3.5580807E0,-1.2866762E0,2.0894597E-1,6.2348825E-1,4.1264267E0,-1.9000022E0,1.5875349E1,-9.4137985E-1,3.7956646E-1,4.287975E0,5.258976E0,3.0012298E-2,9.5568144E-1,6.5764286E-2,-3.4634314E0,2.711297E-1,7.8154284E-1,-1.9698404E-1,-1.3558664E0,2.4780254E-1,-2.0839775E0,1.2870618E0,1.3680421E0,7.181149E0,6.1680436E-1,-2.6424773E0,1.0431927E0,6.065572E-1,-6.3619636E-2,-6.9838525E-3,-3.5545766E-1,3.9787738E0,8.844298E0,2.623453E0,3.0828935E-1,4.0793326E-2,-2.0282924E-1,-1.3309309E-1,-9.91385E-3,-9.177613E-2,1.3229577E-1,-1.22236826E-1,2.4602786E-1,6.2628128E-3,1.7994452E-1,-8.797797E-3,4.3168473E-1,6.9568075E-2,-1.3778281E-2,5.0305814E-2,-1.6423653E-1,-7.799054E-2,-4.2999197E-2,8.8490985E-2,5.8537927E-2,-1.0532109E-1,3.5835728E-1,-2.6792798E-2,2.4816696E-1,7.0622736E-1,2.5335923E-1,3.878388E-2],"categories":[],"categories_nodes":[],"categories_segments":[],"categories_sizes":[],"default_left":[0,0,0,0,0,0,0,0,0,0,0,0,0,0,0,0,0,0,0,0,0,0,0,0,0,0,0,0,0,0,0,0,0,0,0,0,0,0,0,0,0,0,0,0,0,0,0,0,0,0,0,0,0,0,0,0,0,0,0,0,0,0,0,0,0,0,0,0,0,0,0,0,0,0,0,0,0,0,0],"id":9,"left_children":[1,3,5,7,9,11,13,15,17,19,21,23,25,27,29,31,33,35,37,-1,-1,39,41,43,45,47,49,51,-1,-1,-1,53,-1,-1,-1,55,-1,57,59,61,63,65,67,-1,69,-1,-1,71,73,75,77,-1,-1,-1,-1,-1,-1,-1,-1,-1,-1,-1,-1,-1,-1,-1,-1,-1,-1,-1,-1,-1,-1,-1,-1,-1,-1,-1,-1],"loss_changes":[3.9946077E3,1.1171069E3,1.6351106E3,3.4860046E2,2.579714E2,8.6225E2,5.4468726E2,1.9220276E2,2.158197E2,1.9953552E1,3.4167755E2,4.7683838E2,1.9589224E2,1.3005493E1,2.488247E2,1.4453479E2,5.0266315E2,7.541525E1,2.4892755E2,0E0,0E0,2.429589E2,2.7791206E1,5.9669226E2,6.183977E-1,7.813392E1,1.588158E2,1.5114838E1,0E0,0E0,0E0,5.8618164E1,0E0,0E0,0E0,1.3017931E0,0E0,1.6345297E2,1.2180471E2,5.9188477E1,1.0572632E2,1.666892E0,2.5252533E0,0E0,6.6399336E0,0E0,0E0,6.927485E1,7.581213E1,5.284961E1,8.186336E1,0E0,0E0,0E0,0E0,0E0,0E0,0E0,0E0,0E0,0E0,0E0,0E0,0E0,0E0,0E0,0E0,0E0,0E0,0E0,0E0,0E0,0E0,0E0,0E0,0E0,0E0,0E0,0E0],"parents":[2147483647,0,0,1,1,2,2,3,3,4,4,5,5,6,6,7,7,8,8,9,9,10,10,11,11,12,12,13,13,14,14,15,15,16,16,17,17,18,18,21,21,22,22,23,23,24,24,25,25,26,26,27,27,31,31,35,35,37,37,38,38,39,39,40,40,41,41,42,42,44,44,47,47,48,48,49,49,50,50],"right_children":[2,4,6,8,10,12,14,16,18,20,22,24,26,28,30,32,34,36,38,-1,-1,40,42,44,46,48,50,52,-1,-1,-1,54,-1,-1,-1,56,-1,58,60,62,64,66,68,-1,70,-1,-1,72,74,76,78,-1,-1,-1,-1,-1,-1,-1,-1,-1,-1,-1,-1,-1,-1,-1,-1,-1,-1,-1,-1,-1,-1,-1,-1,-1,-1,-1,-1],"split_conditions":[9.3333334E-1,4.0979504E1,1.56E0,3.8E1,4.4946492E-1,4E0,5.99E1,9.3E1,7.4E1,4.8E1,2.62E0,6.9565216E1,1.6E0,4.5949444E1,8.1E1,1.35296E1,4E0,2.0041124E2,6E0,2.0894597E-1,6.2348825E-1,2.15E2,3E0,1.4333E1,3E0,1.79713E1,1.13E2,2.112E1,3.0012298E-2,9.5568144E-1,6.5764286E-2,6.4E-1,2.711297E-1,7.8154284E-1,-1.9698404E-1,4E0,2.4780254E-1,3.1E1,1.5537727E1,2.8461537E0,8.8E1,6E0,1.037551E0,1.0431927E0,4E1,-6.3619636E-2,-6.9838525E-3,1.1E2,2.4E1,1.1E2,5.7166668E1,3.0828935E-1,4.0793326E-2,-2.0282924E-1,-1.3309309E-1,-9.91385E-3,-9.177613E-2,1.3229577E-1,-1.22236826E-1,2.4602786E-1,6.2628128E-3,1.7994452E-1,-8.797797E-3,4.3168473E-1,6.9568075E-2,-1.3778281E-2,5.0305814E-2,-1.6423653E-1,-7.799054E-2,-4.2999197E-2,8.8490985E-2,5.8537927E-2,-1.0532109E-1,3.5835728E-1,-2.6792798E-2,2.4816696E-1,7.0622736E-1,2.5335923E-1,3.878388E-2],"split_indices":[93,16,34,1,106,0,9,8,38,2,44,9,93,112,8,4,0,22,91,0,0,128,62,111,0,112,38,4,0,0,0,34,0,0,0,0,0,2,111,33,7,0,46,0,1,0,0,38,1,38,9,0,0,0,0,0,0,0,0,0,0,0,0,0,0,0,0,0,0,0,0,0,0,0,0,0,0,0,0],"split_type":[0,0,0,0,0,0,0,0,0,0,0,0,0,0,0,0,0,0,0,0,0,0,0,0,0,0,0,0,0,0,0,0,0,0,0,0,0,0,0,0,0,0,0,0,0,0,0,0,0,0,0,0,0,0,0,0,0,0,0,0,0,0,0,0,0,0,0,0,0,0,0,0,0,0,0,0,0,0,0],"sum_hessian":[4.02E2,3.24E2,7.8E1,2.78E2,4.6E1,6E1,1.8E1,1.5E2,1.28E2,4E0,4.2E1,9E0,5.1E1,5E0,1.3E1,1.46E2,4E0,9E0,1.19E2,2E0,2E0,2.9E1,1.3E1,7E0,2E0,2.8E1,2.3E1,4E0,1E0,1.2E1,1E0,1.45E2,1E0,1E0,3E0,2E0,7E0,9.1E1,2.8E1,1.6E1,1.3E1,3E0,1E1,5E0,2E0,1E0,1E0,2.4E1,4E0,5E0,1.8E1,3E0,1E0,8.1E1,6.4E1,1E0,1E0,6E0,8.5E1,6E0,2.2E1,6E0,1E1,1E1,3E0,1E0,2E0,5E0,5E0,1E0,1E0,1.3E1,1.1E1,2E0,2E0,4E0,1E0,7E0,1.1E1],"tree_param":{"num_deleted":"0","num_feature":"132","num_nodes":"79","size_leaf_vector":"1"}},{"base_weights":[2.8512132E-1,-1.2307414E0,6.4744983E0,-1.9921134E0,2.857919E0,9.806503E0,1.229808E0,-3.1724148E0,-8.3076394E-1,-5.7099693E-2,4.358703E0,3.6726115E0,1.684748E1,3.610869E0,-4.9842516E-1,-3.7556238E0,-2.1740518E0,-1.5313069E0,1.572011E0,6.036384E-1,-1.4016906E0,1.3245653E-1,6.557942E0,6.2212217E-1,2.5194535E0,2.9153774E0,1.8791527E1,1.5654105E0,4.1665813E-1,-1.4027075E0,7.626652E-1,-3.8481066E0,1.0494702E-1,7.6200426E-1,-2.790169E0,3.3287833E0,-1.9882932E0,4.2975993E0,-6.625066E-1,-3.6583352E-1,-2.977204E0,1.1144782E0,-1.7562209E-1,5.5386353E-2,7.923986E0,-6.015862E-1,3.1142602E0,-2.014823E-2,2.0779064E-1,1.9645565E1,6.412017E-2,8.219942E-2,9.429399E-2,-2.22902E0,8.071728E-1,1.0408872E-1,8.838054E-2,-2.3465286E-1,-1.588109E-1,-1.7028971E-1,-7.019549E-2,2.0848416E-1,-1.0598283E-1,1.9776075E-1,-1.1030753E-1,4.0612277E-2,3.2654595E-1,2.3004115E-1,-9.684662E-2,3.0079916E-2,-7.167659E-2,-1.5911995E-1,-4.3650866E-2,1.59747E-1,-3.2531263E-3,7.553811E-2,-3.430741E-2,4.5596585E-1,5.8083203E-2,-1.13700844E-1,6.356866E-2,2.0961802E-1,1.0256843E-2,3.9975023E-1,1.0272963E0,-1.0445118E-3,7.209468E-3,-1.268436E-1,-3.8384628E-2,7.5006984E-2,3.8068611E-3,1.7057598E-2,-9.3243E-3],"categories":[],"categories_nodes":[],"categories_segments":[],"categories_sizes":[],"default_left":[0,0,0,0,0,0,0,0,0,0,0,0,0,0,0,0,0,0,0,0,0,0,0,0,0,0,0,0,0,0,0,0,0,0,0,0,0,0,0,0,0,0,0,0,0,0,0,0,0,0,0,0,0,0,0,0,0,0,0,0,0,0,0,0,0,0,0,0,0,0,0,0,0,0,0,0,0,0,0,0,0,0,0,0,0,0,0,0,0,0,0,0,0],"id":10,"left_children":[1,3,5,7,9,11,13,15,17,19,21,23,25,27,29,31,33,35,37,-1,39,41,43,-1,45,47,49,51,-1,53,55,57,-1,-1,59,61,63,65,67,69,71,73,-1,75,77,79,81,-1,-1,83,-1,85,-1,87,89,-1,91,-1,-1,-1,-1,-1,-1,-1,-1,-1,-1,-1,-1,-1,-1,-1,-1,-1,-1,-1,-1,-1,-1,-1,-1,-1,-1,-1,-1,-1,-1,-1,-1,-1,-1,-1,-1],"loss_changes":[3.9109824E3,1.0485454E3,1.4209175E3,3.8528467E2,2.3211398E2,2.0975557E3,1.3759569E2,7.335071E1,2.4479478E2,3.268068E2,3.2443982E2,2.5181592E2,5.681631E2,1.2218474E2,2.3877434E1,5.518274E1,6.218966E2,2.5537003E2,2.0382957E2,0E0,2.828696E1,5.044634E1,2.0386505E2,0E0,5.014029E1,1.8139404E1,2.73875E2,5.0735416E0,0E0,2.371183E1,7.821108E0,3.3917236E1,0E0,0E0,4.0449646E1,5.4654205E1,1.4209406E2,1.1145389E2,1.3635822E2,1.3257513E1,2.4409103E-1,2.720176E1,0E0,6.432664E0,1.4298743E2,1.8553097E1,6.813913E1,0E0,0E0,3.503955E1,0E0,2.2183718E-2,0E0,2.1013145E0,1.9121175E0,0E0,5.499689E-1,0E0,0E0,0E0,0E0,0E0,0E0,0E0,0E0,0E0,0E0,0E0,0E0,0E0,0E0,0E0,0E0,0E0,0E0,0E0,0E0,0E0,0E0,0E0,0E0,0E0,0E0,0E0,0E0,0E0,0E0,0E0,0E0,0E0,0E0,0E0,0E0],"parents":[2147483647,0,0,1,1,2,2,3,3,4,4,5,5,6,6,7,7,8,8,9,9,10,10,11,11,12,12,13,13,14,14,15,15,16,16,17,17,18,18,20,20,21,21,22,22,24,24,25,25,26,26,27,27,29,29,30,30,31,31,34,34,35,35,36,36,37,37,38,38,39,39,40,40,41,41,43,43,44,44,45,45,46,46,49,49,51,51,53,53,54,54,56,56],"right_children":[2,4,6,8,10,12,14,16,18,20,22,24,26,28,30,32,34,36,38,-1,40,42,44,-1,46,48,50,52,-1,54,56,58,-1,-1,60,62,64,66,68,70,72,74,-1,76,78,80,82,-1,-1,84,-1,86,-1,88,90,-1,92,-1,-1,-1,-1,-1,-1,-1,-1,-1,-1,-1,-1,-1,-1,-1,-1,-1,-1,-1,-1,-1,-1,-1,-1,-1,-1,-1,-1,-1,-1,-1,-1,-1,-1,-1,-1],"split_conditions":[9.3333334E-1,4.091633E1,1.15E1,3.7E1,1.8666667E0,6.5917377E2,2.13E0,2.4277779E1,6E0,3E0,2.17E2,1.1913043E1,1.3142858E1,4.0555553E0,1.6E0,7.479224E0,1.18748886E2,7.4E1,1E0,6.036384E-1,2.225E1,1.4E1,1E1,6.2212217E-1,4.938843E1,5E0,1.0146512E3,9.183673E-1,4.1665813E-1,1.78125E0,2.5E-1,7.040625E-1,1.0494702E-1,7.6200426E-1,1.5555556E0,1.7666666E1,6.75E0,1.785124E0,9.3075E0,2.18E3,3.2941177E0,2.8461537E0,-1.7562209E-1,5.7E1,2.425E1,4E1,2.2533333E-5,-2.014823E-2,2.0779064E-1,5.99E1,6.412017E-2,2.2E1,9.429399E-2,5.6E1,4.2E1,1.0408872E-1,6.5066666E1,-2.3465286E-1,-1.588109E-1,-1.7028971E-1,-7.019549E-2,2.0848416E-1,-1.0598283E-1,1.9776075E-1,-1.1030753E-1,4.0612277E-2,3.2654595E-1,2.3004115E-1,-9.684662E-2,3.0079916E-2,-7.167659E-2,-1.5911995E-1,-4.3650866E-2,1.59747E-1,-3.2531263E-3,7.553811E-2,-3.430741E-2,4.5596585E-1,5.8083203E-2,-1.13700844E-1,6.356866E-2,2.0961802E-1,1.0256843E-2,3.9975023E-1,1.0272963E0,-1.0445118E-3,7.209468E-3,-1.268436E-1,-3.8384628E-2,7.5006984E-2,3.8068611E-3,1.7057598E-2,-9.3243E-3],"split_indices":[93,16,27,1,51,22,44,10,92,5,127,3,3,28,93,28,22,38,102,0,3,26,74,0,40,0,22,76,0,58,63,46,0,0,87,3,27,76,110,19,33,33,0,1,4,1,121,0,0,9,0,1,0,1,1,0,9,0,0,0,0,0,0,0,0,0,0,0,0,0,0,0,0,0,0,0,0,0,0,0,0,0,0,0,0,0,0,0,0,0,0,0,0],"split_type":[0,0,0,0,0,0,0,0,0,0,0,0,0,0,0,0,0,0,0,0,0,0,0,0,0,0,0,0,0,0,0,0,0,0,0,0,0,0,0,0,0,0,0,0,0,0,0,0,0,0,0,0,0,0,0,0,0,0,0,0,0,0,0,0,0,0,0,0,0,0,0,0,0,0,0,0,0,0,0,0,0,0,0,0,0,0,0,0,0,0,0,0,0],"sum_hessian":[4.15E2,3.34E2,8.1E1,2.82E2,5.2E1,4.9E1,3.2E1,1.39E2,1.43E2,1.8E1,3.4E1,2.7E1,2.2E1,1.3E1,1.9E1,8.6E1,5.3E1,1.11E2,3.2E1,1E0,1.7E1,1.2E1,2.2E1,2E0,2.5E1,3E0,1.9E1,1E1,3E0,1.1E1,8E0,8.5E1,1E0,1E0,5.2E1,9E0,1.02E2,1.4E1,1.8E1,1.1E1,6E0,1E1,2E0,4E0,1.8E1,4E0,2.1E1,1E0,2E0,1.8E1,1E0,2E0,8E0,8E0,3E0,2E0,6E0,3.5E1,5E1,3.5E1,1.7E1,8E0,1E0,3E0,9.9E1,6E0,8E0,3E0,1.5E1,6E0,5E0,5E0,1E0,3E0,7E0,1E0,3E0,1.5E1,3E0,2E0,2E0,1.5E1,6E0,2E0,1.6E1,1E0,1E0,6E0,2E0,1E0,2E0,3E0,3E0],"tree_param":{"num_deleted":"0","num_feature":"132","num_nodes":"93","size_leaf_vector":"1"}},{"base_weights":[2.776406E-1,-5.204877E-1,1.03298435E1,-1.3668041E0,4.1909084E0,4.255478E-1,1.3011672E1,-2.430855E0,2.4952929E-1,1.3081706E0,6.4534936E0,-1.01092234E-1,9.044369E-2,1.5745507E1,6.25927E0,-2.620076E0,4.5234707E-1,1.4289633E0,-1.895712E0,3.0944805E0,2.8552583E-1,3.70731E0,1.6820343E1,8.807379E0,1.0357724E0,5.8854747E-1,1.8951617E-1,-2.7900999E0,7.3147076E-1,-3.8557546E0,7.3309517E-1,4.9205554E-1,5.331172E0,-2.2628605E0,3.7538881E0,1.7493127E-1,-3.4669877E-3,7.267497E-1,-1.3301392E0,7.468095E0,-3.3865267E-1,1.0001802E0,2.2600818E-2,4.853223E-1,6.284767E-2,2.0570798E-1,-1.4292686E-1,1.9661699E-1,-1.3078463E-1,-2.0786332E-1,-2.8553724E-2,3.172393E-1,-1.1139612E-2,8.174389E-2,4.6609774E-1,-1.3331974E-1,2.677435E-2,2.5940743E-1,2.2134185E-2,-3.5876308E-2,5.136281E-2,-8.111527E-2,-1.1341023E-2,6.770789E-1,2.145946E-1,-6.911587E-2,3.766955E-2],"categories":[],"categories_nodes":[],"categories_segments":[],"categories_sizes":[],"default_left":[0,0,0,0,0,0,0,0,0,0,0,0,0,0,0,0,0,0,0,0,0,0,0,0,0,0,0,0,0,0,0,0,0,0,0,0,0,0,0,0,0,0,0,0,0,0,0,0,0,0,0,0,0,0,0,0,0,0,0,0,0,0,0,0,0,0,0],"id":11,"left_children":[1,3,5,7,9,11,13,15,17,19,21,-1,-1,23,25,27,29,31,33,35,37,39,41,43,-1,-1,-1,45,47,49,-1,51,53,55,57,-1,-1,59,61,63,65,-1,-1,-1,-1,-1,-1,-1,-1,-1,-1,-1,-1,-1,-1,-1,-1,-1,-1,-1,-1,-1,-1,-1,-1,-1,-1],"loss_changes":[3.054097E3,1.4132563E3,7.381885E2,5.165649E2,3.4376947E2,2.735605E1,3.0756348E2,9.993201E1,3.0632938E2,4.4785454E1,7.9171985E2,0E0,0E0,3.3478247E2,6.424866E1,9.891406E1,7.911272E2,2.8254547E2,9.7686935E1,1.1750366E1,1.3085466E1,3.82929E2,3.0358606E2,4.21062E1,0E0,0E0,0E0,8.830713E1,1.0671027E2,7.529587E0,0E0,2.6917752E2,2.060264E2,4.7726196E1,1.195068E1,0E0,0E0,6.8132825E0,9.2143726E-1,1.9265906E2,1.5857883E1,0E0,0E0,0E0,0E0,0E0,0E0,0E0,0E0,0E0,0E0,0E0,0E0,0E0,0E0,0E0,0E0,0E0,0E0,0E0,0E0,0E0,0E0,0E0,0E0,0E0,0E0],"parents":[2147483647,0,0,1,1,2,2,3,3,4,4,5,5,6,6,7,7,8,8,9,9,10,10,13,13,14,14,15,15,16,16,17,17,18,18,19,19,20,20,21,21,22,22,23,23,27,27,28,28,29,29,31,31,32,32,33,33,34,34,37,37,38,38,39,39,40,40],"right_children":[2,4,6,8,10,12,14,16,18,20,22,-1,-1,24,26,28,30,32,34,36,38,40,42,44,-1,-1,-1,46,48,50,-1,52,54,56,58,-1,-1,60,62,64,66,-1,-1,-1,-1,-1,-1,-1,-1,-1,-1,-1,-1,-1,-1,-1,-1,-1,-1,-1,-1,-1,-1,-1,-1,-1,-1],"split_conditions":[1.6666666E0,1.625E0,8.857143E1,9.965974E0,6.57112E2,4.8E1,8.1E1,2.9777777E0,2.62E0,2.2683334E0,5.0698223E1,-1.01092234E-1,9.044369E-2,5.864E1,2.14E1,9.876543E-1,8.6E1,7E0,6.95E1,5.1833332E1,7.390909E1,3.83E-1,9.3E1,2.64625E0,1.0357724E0,5.8854747E-1,1.8951617E-1,1.464E1,3E0,4.5E1,7.3309517E-1,5.866E2,5.7196497E2,1.882353E0,3.7E1,1.7493127E-1,-3.4669877E-3,2.2727273E0,3.2E1,1.88575E1,3.2E0,1.0001802E0,2.2600818E-2,4.853223E-1,6.284767E-2,2.0570798E-1,-1.4292686E-1,1.9661699E-1,-1.3078463E-1,-2.0786332E-1,-2.8553724E-2,3.172393E-1,-1.1139612E-2,8.174389E-2,4.6609774E-1,-1.3331974E-1,2.677435E-2,2.5940743E-1,2.2134185E-2,-3.5876308E-2,5.136281E-2,-8.111527E-2,-1.1341023E-2,6.770789E-1,2.145946E-1,-6.911587E-2,3.766955E-2],"split_indices":[34,106,130,4,22,2,8,45,44,45,40,0,0,40,3,34,8,103,40,9,9,115,7,45,0,0,0,40,103,2,0,20,22,51,2,0,0,45,2,109,105,0,0,0,0,0,0,0,0,0,0,0,0,0,0,0,0,0,0,0,0,0,0,0,0,0,0],"split_type":[0,0,0,0,0,0,0,0,0,0,0,0,0,0,0,0,0,0,0,0,0,0,0,0,0,0,0,0,0,0,0,0,0,0,0,0,0,0,0,0,0,0,0,0,0,0,0,0,0,0,0,0,0,0,0,0,0,0,0,0,0,0,0,0,0,0,0],"sum_hessian":[3.79E2,3.52E2,2.7E1,2.99E2,5.3E1,6E0,2.1E1,1.8E2,1.19E2,2.4E1,2.9E1,2E0,4E0,1.4E1,7E0,1.69E2,1.1E1,7.7E1,4.2E1,8E0,1.6E1,2.4E1,5E0,7E0,7E0,1E0,6E0,1.61E2,8E0,9E0,2E0,6.3E1,1.4E1,4E1,2E0,7E0,1E0,1.3E1,3E0,1.2E1,1.2E1,4E0,1E0,6E0,1E0,1E0,1.6E2,4E0,4E0,8E0,1E0,6E0,5.7E1,8E0,6E0,3.5E1,5E0,1E0,1E0,2E0,1.1E1,2E0,1E0,3E0,9E0,6E0,6E0],"tree_param":{"num_deleted":"0","num_feature":"132","num_nodes":"67","size_leaf_vector":"1"}},{"base_weights":[2.2291496E-1,-9.294362E-1,5.421404E0,-2.091244E0,1.1538739E0,8.5832205E0,7.08754E-1,-2.8073902E0,-9.921291E-1,-1.5378197E0,2.418005E0,2.8983028E0,1.497596E1,1.8230499E0,-1.1146107E0,-2.9873435E0,2.203384E-1,7.246267E-1,-1.3533001E0,-1.9811774E0,4.2950797E0,1.2117107E0,5.976302E0,5.020353E0,1.023956E0,2.0845723E0,1.8068521E1,4.075707E-1,1.8591939E-1,-2.4620948E0,1.9960581E-1,-3.969505E0,-2.458921E0,1.9501285E-1,-8.281719E-2,-2.2006633E0,2.634791E0,-2.2296195E0,1.6785729E-1,2.6949272E-1,5.263827E-2,-5.146112E-1,4.776401E0,4.0184712E0,9.874829E0,8.229523E0,-4.7655565E-1,2.1380844E0,-8.178961E-1,1.9371115E-1,-1.999677E-2,3.5308594E-1,1.9136513E1,-5.411482E-2,8.1377375E-1,-1.330374E-1,-3.6720704E-2,3.234066E-1,-3.6632062E-3,-2.0899497E-1,1.05896525E-1,1.7450032E-1,-1.3680111E-1,-1.8632124E-1,-7.731729E-2,1.92199E-1,-2.7619153E-2,-1.437274E-1,-2.3549132E-3,1.4317122E-1,-1.0638209E-1,3.30318E-2,4.0418935E-1,2.9106724E-1,1.4168338E-1,5.795968E-1,3.223238E-2,5.6005055E-1,2.400363E-1,-4.1918565E-2,2.4267673E-2,-3.8184788E-2,1.2981346E-1,3.385992E-3,-1.311494E-1,2.4268804E-1,9.9309105E-1,6.631604E-2,1.7981243E-3,-1.07574466E-4,2.02667E-2],"categories":[],"categories_nodes":[],"categories_segments":[],"categories_sizes":[],"default_left":[0,0,0,0,0,0,0,0,0,0,0,0,0,0,0,0,0,0,0,0,0,0,0,0,0,0,0,0,0,0,0,0,0,0,0,0,0,0,0,0,0,0,0,0,0,0,0,0,0,0,0,0,0,0,0,0,0,0,0,0,0,0,0,0,0,0,0,0,0,0,0,0,0,0,0,0,0,0,0,0,0,0,0,0,0,0,0,0,0,0,0],"id":12,"left_children":[1,3,5,7,9,11,13,15,17,19,21,23,25,27,29,31,33,-1,35,37,39,41,43,45,47,49,51,53,-1,55,57,59,61,-1,-1,63,65,67,-1,-1,-1,69,71,73,75,77,79,81,83,-1,-1,-1,85,-1,87,-1,-1,89,-1,-1,-1,-1,-1,-1,-1,-1,-1,-1,-1,-1,-1,-1,-1,-1,-1,-1,-1,-1,-1,-1,-1,-1,-1,-1,-1,-1,-1,-1,-1,-1,-1],"loss_changes":[2.3772708E3,7.89045E2,1.0667551E3,1.6172424E2,4.0182892E2,1.5193096E3,6.2985027E1,6.9309326E1,4.8939218E2,1.0677965E2,3.3614676E2,9.031836E1,7.596831E2,4.9457905E1,2.1742077E1,5.1999878E1,6.170846E1,0E0,2.8628537E2,5.523065E1,4.974556E0,3.7783997E2,1.12971375E2,1.979675E2,3.0477573E1,2.3781437E1,5.294629E1,8.143007E0,0E0,1.0516739E-1,2.6016468E-1,6.008313E1,1.4142511E2,0E0,0E0,6.312259E1,5.9931793E1,4.9129562E1,0E0,0E0,0E0,2.3494508E2,2.6690805E2,1.5545013E1,8.76225E1,1.7547394E1,2.147075E0,1.3948715E1,9.769338E0,0E0,0E0,0E0,4.8626953E1,0E0,3.9389505E0,0E0,0E0,1.342327E-1,0E0,0E0,0E0,0E0,0E0,0E0,0E0,0E0,0E0,0E0,0E0,0E0,0E0,0E0,0E0,0E0,0E0,0E0,0E0,0E0,0E0,0E0,0E0,0E0,0E0,0E0,0E0,0E0,0E0,0E0,0E0,0E0,0E0],"parents":[2147483647,0,0,1,1,2,2,3,3,4,4,5,5,6,6,7,7,8,8,9,9,10,10,11,11,12,12,13,13,14,14,15,15,16,16,18,18,19,19,20,20,21,21,22,22,23,23,24,24,25,25,26,26,27,27,29,29,30,30,31,31,32,32,35,35,36,36,37,37,41,41,42,42,43,43,44,44,45,45,46,46,47,47,48,48,52,52,54,54,57,57],"right_children":[2,4,6,8,10,12,14,16,18,20,22,24,26,28,30,32,34,-1,36,38,40,42,44,46,48,50,52,54,-1,56,58,60,62,-1,-1,64,66,68,-1,-1,-1,70,72,74,76,78,80,82,84,-1,-1,-1,86,-1,88,-1,-1,90,-1,-1,-1,-1,-1,-1,-1,-1,-1,-1,-1,-1,-1,-1,-1,-1,-1,-1,-1,-1,-1,-1,-1,-1,-1,-1,-1,-1,-1,-1,-1,-1,-1],"split_conditions":[9.3333334E-1,1.5833333E1,1.15E1,2.38125E1,8.9E-1,6.5917377E2,7.8E1,9.194642E2,2.224E1,1.2222222E0,1.9914667E1,5.3862714E2,3.6E1,9.5083336E1,8.2666665E-1,2.4222221E1,1.7E1,7.246267E-1,3.6E1,1.3714286E1,3.8E1,2.4347825E0,1.25E0,6.35E-6,5.418182E1,2.3E1,5.99E1,1.1555555E1,1.8591939E-1,5.6E1,1.6938776E1,7.479224E0,6.443787E-1,1.9501285E-1,-8.281719E-2,3.2484616E2,2.396E0,3.557078E1,1.6785729E-1,2.6949272E-1,5.263827E-2,8.715385E1,6.5E1,1.4578512E1,7.5E1,4.1E1,3.8E1,6.0528326E2,6.5317554E2,1.9371115E-1,-1.999677E-2,3.5308594E-1,1.2781065E0,-5.411482E-2,2.2570238E1,-1.330374E-1,-3.6720704E-2,2.2E1,-3.6632062E-3,-2.0899497E-1,1.05896525E-1,1.7450032E-1,-1.3680111E-1,-1.8632124E-1,-7.731729E-2,1.92199E-1,-2.7619153E-2,-1.437274E-1,-2.3549132E-3,1.4317122E-1,-1.0638209E-1,3.30318E-2,4.0418935E-1,2.9106724E-1,1.4168338E-1,5.795968E-1,3.223238E-2,5.6005055E-1,2.400363E-1,-4.1918565E-2,2.4267673E-2,-3.8184788E-2,1.2981346E-1,3.385992E-3,-1.311494E-1,2.4268804E-1,9.9309105E-1,6.631604E-2,1.7981243E-3,-1.07574466E-4,2.02667E-2],"split_indices":[93,3,27,10,42,22,8,22,40,88,111,21,2,39,46,40,8,0,2,27,1,105,63,121,9,1,9,10,0,1,4,28,46,0,0,21,45,112,0,0,0,39,1,4,1,1,1,22,22,0,0,0,106,0,109,0,0,1,0,0,0,0,0,0,0,0,0,0,0,0,0,0,0,0,0,0,0,0,0,0,0,0,0,0,0,0,0,0,0,0,0],"split_type":[0,0,0,0,0,0,0,0,0,0,0,0,0,0,0,0,0,0,0,0,0,0,0,0,0,0,0,0,0,0,0,0,0,0,0,0,0,0,0,0,0,0,0,0,0,0,0,0,0,0,0,0,0,0,0,0,0,0,0,0,0,0,0,0,0,0,0,0,0,0,0,0,0,0,0,0,0,0,0,0,0,0,0,0,0,0,0,0,0,0,0],"sum_hessian":[3.95E2,3.24E2,7.1E1,2.08E2,1.16E2,4.2E1,2.9E1,1.25E2,8.3E1,3.7E1,7.9E1,2.3E1,1.9E1,1.8E1,1.1E1,1.18E2,7E0,1E0,8.2E1,3.5E1,2E0,6E1,1.9E1,1E1,1.3E1,4E0,1.5E1,1.1E1,7E0,5E0,6E0,3.9E1,7.9E1,2E0,5E0,6.8E1,1.4E1,3.4E1,1E0,1E0,1E0,4.1E1,1.9E1,1.4E1,5E0,6E0,4E0,8E0,5E0,2E0,2E0,2E0,1.3E1,2E0,9E0,4E0,1E0,4E0,2E0,3.8E1,1E0,3E0,7.6E1,1.9E1,4.9E1,1E1,4E0,2.6E1,8E0,1.3E1,2.8E1,9E0,1E1,4E0,1E1,4E0,1E0,2E0,4E0,3E0,1E0,1E0,7E0,4E0,1E0,1E0,1.2E1,5E0,4E0,1E0,3E0],"tree_param":{"num_deleted":"0","num_feature":"132","num_nodes":"91","size_leaf_vector":"1"}},{"base_weights":[1.4964026E-1,-1.0870072E0,5.2426324E0,-2.589726E0,3.8434926E-1,8.183992E0,8.037991E-1,-3.1405451E0,-1.5217323E0,1.7717698E-1,5.4800665E-1,3.4376795E0,1.4498017E1,-1.4244059E-1,5.752733E0,-3.2924957E0,1.4350115E-1,-1.9616814E0,4.468051E0,1.2150018E0,-1.6792455E0,5.917361E-1,2.2925274E0,8.806329E-1,1.6996237E1,-1.7493962E0,6.262458E-1,1.0770036E-1,3.716941E-1,-3.4419293E0,-4.2752495E-1,-2.560828E-1,-2.4799147E0,3.531258E-1,-8.288363E-2,3.8494414E-1,5.5487456E0,5.7340026E-1,-2.5173695E0,-1.2758309E0,2.837114E0,-5.11429E-2,1.6477764E-1,1.910367E1,5.8980207E0,-1.2580116E-1,-1.6210675E-1,-4.8292673E-1,1.313507E0,-1.7494766E-1,4.5107126E-2,5.528591E-2,-1.1646704E-1,-5.7353187E-2,4.872862E-2,-1.4935417E-1,-6.804465E-2,-3.7023876E-2,1.4149709E-1,9.255146E-2,4.5075417E-1,2.135504E-1,-5.0752647E-2,-1.508586E-1,-7.2495036E-2,-1.2787066E-1,1.9172033E-4,1.1223485E-1,3.8194677E-1,3.413164E-1,1.035767E0,3.712334E-1,3.2951977E-2,9.874105E-3,-1.7389854E-2,4.7932942E-3,-7.397682E-2,1.2070179E-1,2.3074407E-2],"categories":[],"categories_nodes":[],"categories_segments":[],"categories_sizes":[],"default_left":[0,0,0,0,0,0,0,0,0,0,0,0,0,0,0,0,0,0,0,0,0,0,0,0,0,0,0,0,0,0,0,0,0,0,0,0,0,0,0,0,0,0,0,0,0,0,0,0,0,0,0,0,0,0,0,0,0,0,0,0,0,0,0,0,0,0,0,0,0,0,0,0,0,0,0,0,0,0,0],"id":13,"left_children":[1,3,5,7,9,11,13,15,17,19,-1,21,23,25,27,29,-1,31,33,35,37,-1,39,41,43,45,47,-1,-1,49,51,53,55,-1,-1,57,59,61,63,65,67,-1,-1,69,71,-1,73,75,77,-1,-1,-1,-1,-1,-1,-1,-1,-1,-1,-1,-1,-1,-1,-1,-1,-1,-1,-1,-1,-1,-1,-1,-1,-1,-1,-1,-1,-1,-1],"loss_changes":[2.4179233E3,6.842052E2,9.726372E2,8.522644E1,3.4204654E2,1.2987356E3,1.4598863E2,1.00780396E2,1.5106564E2,3.0066968E2,0E0,2.3249759E2,6.313977E2,3.4447163E1,1.423732E1,4.048462E1,0E0,4.444374E1,7.527925E1,3.5758972E2,1.07171265E2,0E0,5.2201675E1,2.1757996E1,2.615459E2,1.0543865E1,1.5117861E1,0E0,0E0,2.6194092E1,2.0071268E1,1.5372272E1,1.8068695E1,0E0,0E0,2.3598602E2,1.8839334E2,9.831093E1,1.7499878E1,6.569792E0,4.5435867E1,0E0,0E0,1.1582178E2,2.7099167E1,0E0,3.357724E-1,4.7564793E0,1.0138006E1,0E0,0E0,0E0,0E0,0E0,0E0,0E0,0E0,0E0,0E0,0E0,0E0,0E0,0E0,0E0,0E0,0E0,0E0,0E0,0E0,0E0,0E0,0E0,0E0,0E0,0E0,0E0,0E0,0E0,0E0],"parents":[2147483647,0,0,1,1,2,2,3,3,4,4,5,5,6,6,7,7,8,8,9,9,11,11,12,12,13,13,14,14,15,15,17,17,18,18,19,19,20,20,22,22,23,23,24,24,25,25,26,26,29,29,30,30,31,31,32,32,35,35,36,36,37,37,38,38,39,39,40,40,43,43,44,44,46,46,47,47,48,48],"right_children":[2,4,6,8,10,12,14,16,18,20,-1,22,24,26,28,30,-1,32,34,36,38,-1,40,42,44,46,48,-1,-1,50,52,54,56,-1,-1,58,60,62,64,66,68,-1,-1,70,72,-1,74,76,78,-1,-1,-1,-1,-1,-1,-1,-1,-1,-1,-1,-1,-1,-1,-1,-1,-1,-1,-1,-1,-1,-1,-1,-1,-1,-1,-1,-1,-1,-1],"split_conditions":[1.6177778E0,8.181818E0,1.15E1,2.367E1,6.95E1,6.5917377E2,2.1E1,4.9586776E-1,1.4444445E1,5.57E1,5.4800665E-1,1.1913043E1,1.3142858E1,2E0,7.2888885E1,1.076033E2,1.4350115E-1,3.1155E1,5.1E1,2.0111547E1,4.4444447E0,5.917361E-1,1.0853846E2,5E0,2.3636363E0,8E0,1.2591716E1,1.0770036E-1,3.716941E-1,1.37E2,1.728E3,1.0036364E0,2.48E1,3.531258E-1,-8.288363E-2,2.4347825E0,2.5646155E0,3.8E1,1.2589653E2,5.4124713E2,5.8142857E1,-5.11429E-2,1.6477764E-1,5.99E1,7.3E1,-1.2580116E-1,6.68E1,1.44E1,3E0,-1.7494766E-1,4.5107126E-2,5.528591E-2,-1.1646704E-1,-5.7353187E-2,4.872862E-2,-1.4935417E-1,-6.804465E-2,-3.7023876E-2,1.4149709E-1,9.255146E-2,4.5075417E-1,2.135504E-1,-5.0752647E-2,-1.508586E-1,-7.2495036E-2,-1.2787066E-1,1.9172033E-4,1.1223485E-1,3.8194677E-1,3.413164E-1,1.035767E0,3.712334E-1,3.2951977E-2,9.874105E-3,-1.7389854E-2,4.7932942E-3,-7.397682E-2,1.2070179E-1,2.3074407E-2],"split_indices":[94,4,27,110,40,22,4,52,27,110,0,3,3,48,129,130,0,110,1,111,75,0,39,0,69,73,4,0,0,38,19,46,10,0,0,105,45,1,14,21,9,0,0,9,1,0,9,3,61,0,0,0,0,0,0,0,0,0,0,0,0,0,0,0,0,0,0,0,0,0,0,0,0,0,0,0,0,0,0],"split_type":[0,0,0,0,0,0,0,0,0,0,0,0,0,0,0,0,0,0,0,0,0,0,0,0,0,0,0,0,0,0,0,0,0,0,0,0,0,0,0,0,0,0,0,0,0,0,0,0,0,0,0,0,0,0,0,0,0,0,0,0,0,0,0,0,0,0,0,0,0,0,0,0,0,0,0,0,0,0,0],"sum_hessian":[3.82E2,3.08E2,7.4E1,1.52E2,1.56E2,4.4E1,3E1,9.9E1,5.3E1,1.54E2,2E0,2.6E1,1.8E1,2.6E1,4E0,9.7E1,2E0,5E1,3E0,9.9E1,5.5E1,2E0,2.4E1,3E0,1.5E1,8E0,1.8E1,2E0,2E0,9.2E1,5E0,1.2E1,3.8E1,2E0,1E0,8.4E1,1.5E1,1.5E1,4E1,3E0,2.1E1,2E0,1E0,1.2E1,3E0,5E0,3E0,7E0,1.1E1,9.1E1,1E0,3E0,2E0,7E0,5E0,2.5E1,1.3E1,5.8E1,2.6E1,8E0,7E0,4E0,1.1E1,2.6E1,1.4E1,1E0,2E0,2E1,1E0,2E0,1E1,2E0,1E0,1E0,2E0,5E0,2E0,4E0,7E0],"tree_param":{"num_deleted":"0","num_feature":"132","num_nodes":"79","size_leaf_vector":"1"}},{"base_weights":[9.0632014E-2,-1.0081087E0,4.6773925E0,-2.1432185E0,5.923795E-1,3.2135944E0,1.48921995E1,-2.2677584E0,1.867152E0,-1.8667734E-1,3.0612264E0,1.0949903E1,2.1101358E0,1.6419313E1,6.688237E-2,-2.8422272E0,-1.2430156E0,7.1088475E-1,-1.7232479E-1,-8.080357E-1,2.4720964E0,5.4825246E-1,1.4841768E0,9.300627E-1,2.6388404E0,1.1298072E0,5.1804914E0,1.9761424E-1,8.817852E-1,-3.9548779E0,-2.3675723E0,3.1021943E0,-1.6568197E0,1.0030733E0,-1.893062E0,4.3315463E0,-6.260903E-1,9.728783E-2,3.2096808E0,-1.0110021E0,4.3095526E-1,2.7915568E0,5.2778435E-1,5.717963E0,6.5188676E-2,-2.0136313E-1,-4.2773712E-2,-1.383651E-1,-7.560545E-2,-4.872045E-2,3.7518004E-1,1.5389419E-1,-9.365762E-2,-5.6931593E-2,2.0280492E-1,-2.3714954E-2,-1.2942468E-1,2.524857E-1,-8.9207366E-2,-1.1892082E-1,8.604199E-2,1.2004224E-1,-2.0164033E-2,-4.286015E-2,2.3302768E-1,-6.537007E-2,-3.045106E-3,6.088215E-2,3.5537088E-1,-3.116551E-2,8.2477875E-2,1.7049065E-1,4.133706E-1],"categories":[],"categories_nodes":[],"categories_segments":[],"categories_sizes":[],"default_left":[0,0,0,0,0,0,0,0,0,0,0,0,0,0,0,0,0,0,0,0,0,0,0,0,0,0,0,0,0,0,0,0,0,0,0,0,0,0,0,0,0,0,0,0,0,0,0,0,0,0,0,0,0,0,0,0,0,0,0,0,0,0,0,0,0,0,0,0,0,0,0,0,0],"id":14,"left_children":[1,3,5,7,9,11,13,15,17,19,21,23,25,27,-1,29,31,-1,-1,33,35,-1,37,-1,39,41,43,-1,-1,45,47,49,51,53,55,57,59,61,63,65,-1,67,69,71,-1,-1,-1,-1,-1,-1,-1,-1,-1,-1,-1,-1,-1,-1,-1,-1,-1,-1,-1,-1,-1,-1,-1,-1,-1,-1,-1,-1,-1],"loss_changes":[1.9298656E3,5.6263904E2,1.0586211E3,9.463489E1,2.4868645E2,5.403161E2,1.6433081E2,1.0007526E2,4.4275983E2,1.6555061E2,3.7013223E2,4.596411E2,1.7173453E2,5.1616943E1,0E0,4.978656E1,1.2201403E2,0E0,0E0,1.6107207E2,1.1216948E2,0E0,6.430096E1,0E0,1.1784906E2,4.454559E1,2.1715881E1,0E0,0E0,3.7339783E0,2.3513824E1,1.1496831E2,6.722159E1,2.0731747E2,4.9091553E1,6.1714508E1,3.6993565E1,1.9417624E1,7.480141E1,1.0468125E0,0E0,7.28592E1,4.622253E1,4.2423798E1,0E0,0E0,0E0,0E0,0E0,0E0,0E0,0E0,0E0,0E0,0E0,0E0,0E0,0E0,0E0,0E0,0E0,0E0,0E0,0E0,0E0,0E0,0E0,0E0,0E0,0E0,0E0,0E0,0E0],"parents":[2147483647,0,0,1,1,2,2,3,3,4,4,5,5,6,6,7,7,8,8,9,9,10,10,11,11,12,12,13,13,15,15,16,16,19,19,20,20,22,22,24,24,25,25,26,26,29,29,30,30,31,31,32,32,33,33,34,34,35,35,36,36,37,37,38,38,39,39,41,41,42,42,43,43],"right_children":[2,4,6,8,10,12,14,16,18,20,22,24,26,28,-1,30,32,-1,-1,34,36,-1,38,-1,40,42,44,-1,-1,46,48,50,52,54,56,58,60,62,64,66,-1,68,70,72,-1,-1,-1,-1,-1,-1,-1,-1,-1,-1,-1,-1,-1,-1,-1,-1,-1,-1,-1,-1,-1,-1,-1,-1,-1,-1,-1,-1,-1],"split_conditions":[9.3333334E-1,9.965974E0,6.0145924E1,9.3E1,6E0,4E0,8.1E1,6.570248E0,4E0,1.47E1,7.785E0,5.650325E2,1.3491124E0,6.2882774E1,6.688237E-2,2.28385E2,1.5789474E0,7.1088475E-1,-1.7232479E-1,6.9E1,2.8333333E0,5.4825246E-1,9.171875E1,9.300627E-1,6.248225E2,1.6E1,6.5888885E1,1.9761424E-1,8.817852E-1,9.5E1,2.367E1,7.32E1,6.5935726E0,5.95E1,2.51E0,9.5E1,3.90625E0,3.5117023E1,4.3510126E2,4E1,4.3095526E-1,6.24E0,3.2E0,5.780725E2,6.5188676E-2,-2.0136313E-1,-4.2773712E-2,-1.383651E-1,-7.560545E-2,-4.872045E-2,3.7518004E-1,1.5389419E-1,-9.365762E-2,-5.6931593E-2,2.0280492E-1,-2.3714954E-2,-1.2942468E-1,2.524857E-1,-8.9207366E-2,-1.1892082E-1,8.604199E-2,1.2004224E-1,-2.0164033E-2,-4.286015E-2,2.3302768E-1,-6.537007E-2,-3.045106E-3,6.088215E-2,3.5537088E-1,-3.116551E-2,8.2477875E-2,1.7049065E-1,4.133706E-1],"split_indices":[93,4,16,8,104,0,8,4,0,27,112,21,34,15,0,21,105,0,0,9,63,0,130,0,21,2,9,0,0,7,110,9,4,9,44,7,10,15,21,1,0,4,105,21,0,0,0,0,0,0,0,0,0,0,0,0,0,0,0,0,0,0,0,0,0,0,0,0,0,0,0,0,0],"split_type":[0,0,0,0,0,0,0,0,0,0,0,0,0,0,0,0,0,0,0,0,0,0,0,0,0,0,0,0,0,0,0,0,0,0,0,0,0,0,0,0,0,0,0,0,0,0,0,0,0,0,0,0,0,0,0,0,0,0,0,0,0,0,0,0,0,0,0,0,0,0,0,0,0],"sum_hessian":[3.81E2,3.08E2,7.3E1,1.8E2,1.28E2,6.5E1,8E0,1.75E2,5E0,9.8E1,3E1,7E0,5.8E1,7E0,1E0,1.11E2,6.4E1,1E0,4E0,8E1,1.8E1,4E0,2.6E1,3E0,4E0,4.5E1,1.3E1,1E0,6E0,3.1E1,8E1,5E0,5.9E1,3E1,5E1,1.1E1,7E0,1.5E1,1.1E1,3E0,1E0,1.1E1,3.4E1,1.1E1,2E0,3E1,1E0,5.3E1,2.7E1,3E0,2E0,2E0,5.7E1,1.8E1,1.2E1,1.7E1,3.3E1,1E1,1E0,4E0,3E0,2E0,1.3E1,3E0,8E0,2E0,1E0,9E0,2E0,1.7E1,1.7E1,7E0,4E0],"tree_param":{"num_deleted":"0","num_feature":"132","num_nodes":"73","size_leaf_vector":"1"}},{"base_weights":[9.6771754E-2,-1.2398756E0,3.414091E0,-2.3592093E0,-4.666822E-2,6.9990797E0,1.2256383E0,-2.5221694E0,1.8635547E0,-2.7808082E-1,5.229796E-1,2.6159952E0,1.2941364E1,1.377204E-1,6.152518E0,-2.6495802E0,7.8616935E-1,6.931127E-1,-1.6543178E-1,-3.9673108E-1,3.934926E-1,1.3551228E-1,5.086054E0,2.33116E0,1.580634E1,-7.383442E-1,3.7035074E0,2.489371E0,8.936733E0,-2.7652106E0,9.329788E-1,-1.7386318E0,2.483228E0,-6.8151593E-1,2.8755274E0,7.418339E-2,-5.521167E-1,4.3316087E-1,3.146583E0,-7.2118795E-1,3.635138E-1,1.6955154E1,2.1793937E-2,-1.0917498E0,1.9763545E0,5.9737086E0,4.3768802E-1,6.532304E-1,1.8515846E-1,5.222991E-1,-2.9689788E-3,-1.8196623E-1,-1.1509973E-1,1.0268446E-1,-2.493623E-2,-1.1495941E-1,-1.5437985E-2,1.4363478E-1,3.2870628E-2,-4.7824588E-2,1.4844464E-1,3.343946E-1,-1.2918989E-2,7.0140675E-2,-4.6259966E-2,1.9401668E-1,7.052708E-3,1.10462E-1,-1.2172053E-1,1.9267388E-1,8.862919E-1,-3.4766357E-2,-1.5438971E-1,-1.1150158E-2,2.1250232E-1,1.2816767E-1,3.9453182E-1,-8.308053E-3,5.484621E-2,-6.5778256E-3,4.7933914E-2],"categories":[],"categories_nodes":[],"categories_segments":[],"categories_sizes":[],"default_left":[0,0,0,0,0,0,0,0,0,0,0,0,0,0,0,0,0,0,0,0,0,0,0,0,0,0,0,0,0,0,0,0,0,0,0,0,0,0,0,0,0,0,0,0,0,0,0,0,0,0,0,0,0,0,0,0,0,0,0,0,0,0,0,0,0,0,0,0,0,0,0,0,0,0,0,0,0,0,0,0,0],"id":15,"left_children":[1,3,5,7,9,11,13,15,17,19,-1,21,23,25,27,29,31,-1,-1,33,-1,35,37,39,41,43,45,47,49,51,53,55,57,59,61,-1,63,-1,65,67,-1,69,-1,71,73,75,77,79,-1,-1,-1,-1,-1,-1,-1,-1,-1,-1,-1,-1,-1,-1,-1,-1,-1,-1,-1,-1,-1,-1,-1,-1,-1,-1,-1,-1,-1,-1,-1,-1,-1],"loss_changes":[1.760131E3,3.7786392E2,8.8581775E2,1.05168945E2,3.3842535E2,1.0861035E3,3.8507556E2,6.151703E1,4.1822247E2,1.346008E2,0E0,1.5861115E2,5.1031665E2,1.9016603E2,1.1034006E2,5.8918213E1,3.0025833E1,0E0,0E0,1.2776483E2,0E0,1.3797587E1,6.2931946E1,8.062274E1,2.398186E2,4.916778E1,8.635419E1,1.3181908E1,9.5661865E1,4.506958E1,9.046851E0,1.6946754E0,9.5583916E-1,1.2831146E2,1.3315157E2,0E0,8.591387E0,0E0,2.1505753E1,2.5460098E1,0E0,6.2958008E1,0E0,3.2669167E1,3.0951746E1,2.553534E1,2.5707407E0,1.0849663E0,0E0,0E0,0E0,0E0,0E0,0E0,0E0,0E0,0E0,0E0,0E0,0E0,0E0,0E0,0E0,0E0,0E0,0E0,0E0,0E0,0E0,0E0,0E0,0E0,0E0,0E0,0E0,0E0,0E0,0E0,0E0,0E0,0E0],"parents":[2147483647,0,0,1,1,2,2,3,3,4,4,5,5,6,6,7,7,8,8,9,9,11,11,12,12,13,13,14,14,15,15,16,16,19,19,21,21,22,22,23,23,24,24,25,25,26,26,27,27,28,28,29,29,30,30,31,31,32,32,33,33,34,34,36,36,38,38,39,39,41,41,43,43,44,44,45,45,46,46,47,47],"right_children":[2,4,6,8,10,12,14,16,18,20,-1,22,24,26,28,30,32,-1,-1,34,-1,36,38,40,42,44,46,48,50,52,54,56,58,60,62,-1,64,-1,66,68,-1,70,-1,72,74,76,78,80,-1,-1,-1,-1,-1,-1,-1,-1,-1,-1,-1,-1,-1,-1,-1,-1,-1,-1,-1,-1,-1,-1,-1,-1,-1,-1,-1,-1,-1,-1,-1,-1,-1],"split_conditions":[1.2930057E0,8.181818E0,1.1052631E1,9.3E1,1.45E2,5.99E1,7.3E1,4.977778E-1,1.9E1,9.4E1,5.229796E-1,3.7E1,2.5E1,4.539905E1,1.904E1,5.311111E1,8E0,6.931127E-1,-1.6543178E-1,1.0641322E2,3.934926E-1,2.265E0,1.156E2,1.2434783E1,1.0146512E3,9.2142224E2,6.5E0,2.0857143E1,6.6E1,2.12124E2,2.1E1,3.5E1,4.2E1,2E0,1.186E2,7.418339E-2,2.2E1,4.3316087E-1,6.35E-6,2.3E1,3.635138E-1,2.6977777E1,2.1793937E-2,2.8412E3,1.3E1,6.4933334E1,2.1E1,6.6E1,1.8515846E-1,5.222991E-1,-2.9689788E-3,-1.8196623E-1,-1.1509973E-1,1.0268446E-1,-2.493623E-2,-1.1495941E-1,-1.5437985E-2,1.4363478E-1,3.2870628E-2,-4.7824588E-2,1.4844464E-1,3.343946E-1,-1.2918989E-2,7.0140675E-2,-4.6259966E-2,1.9401668E-1,7.052708E-3,1.10462E-1,-1.2172053E-1,1.9267388E-1,8.862919E-1,-3.4766357E-2,-1.5438971E-1,-1.1150158E-2,2.1250232E-1,1.2816767E-1,3.9453182E-1,-8.308053E-3,5.484621E-2,-6.5778256E-3,4.7933914E-2],"split_indices":[106,4,27,8,129,9,1,82,1,8,0,2,1,15,10,40,27,0,0,130,0,45,39,3,22,22,75,3,2,21,1,1,1,84,39,0,1,0,121,1,0,10,0,20,6,9,4,2,0,0,0,0,0,0,0,0,0,0,0,0,0,0,0,0,0,0,0,0,0,0,0,0,0,0,0,0,0,0,0,0,0],"split_type":[0,0,0,0,0,0,0,0,0,0,0,0,0,0,0,0,0,0,0,0,0,0,0,0,0,0,0,0,0,0,0,0,0,0,0,0,0,0,0,0,0,0,0,0,0,0,0,0,0,0,0,0,0,0,0,0,0,0,0,0,0,0,0,0,0,0,0,0,0,0,0,0,0,0,0,0,0,0,0,0,0],"sum_hessian":[3.95E2,2.82E2,1.13E2,1.45E2,1.37E2,4.2E1,7.1E1,1.4E2,5E0,1.35E2,2E0,2.5E1,1.7E1,5.9E1,1.2E1,1.35E2,5E0,1E0,4E0,1.34E2,1E0,1.3E1,1.2E1,4E0,1.3E1,4.8E1,1.1E1,6E0,6E0,1.31E2,4E0,2E0,3E0,1.24E2,1E1,4E0,9E0,3E0,9E0,3E0,1E0,1.2E1,1E0,4.3E1,5E0,6E0,5E0,3E0,3E0,5E0,1E0,4.3E1,8.8E1,2E0,2E0,1E0,1E0,2E0,1E0,1.16E2,8E0,4E0,6E0,1E0,8E0,7E0,2E0,1E0,2E0,1E0,1.1E1,3.7E1,6E0,3E0,2E0,3E0,3E0,3E0,2E0,1E0,2E0],"tree_param":{"num_deleted":"0","num_feature":"132","num_nodes":"81","size_leaf_vector":"1"}},{"base_weights":[1.1506435E-1,-6.3440317E-1,8.097981E0,-1.610204E0,1.9467992E0,4.1741487E-1,9.854365E0,-1.879704E0,3.8466046E0,9.566992E-1,1.5562489E0,-8.628076E-2,1.0621891E0,1.2472851E1,2.403669E0,-2.7332869E0,-1.1681539E0,2.2628498E-1,5.628479E0,5.0522265E0,-2.743727E-2,6.4804755E-2,-2.6835203E-3,1.5127731E1,5.760522E0,-6.1432123E-1,1.7560264E-1,-3.0001678E0,-1.0278909E0,-1.325645E0,2.0818E-1,4.0581718E-2,-2.1724638E-2,3.2692644E-1,9.661095E-2,7.423804E-2,7.6683135E0,-1.0733854E0,2.379615E0,4.1814986E-1,8.6025286E-1,8.300614E-2,3.5343286E-1,1.6416525E-2,-6.249062E-2,-1.5387891E-1,1.0110479E-1,-9.417641E-2,3.5604637E-2,-9.9563085E-2,6.7664348E-3,-8.7475315E-2,9.428047E-2,5.618032E-1,6.790742E-2,-6.801384E-2,7.7559024E-2,1.8408479E-1,-6.360946E-2],"categories":[],"categories_nodes":[],"categories_segments":[],"categories_sizes":[],"default_left":[0,0,0,0,0,0,0,0,0,0,0,0,0,0,0,0,0,0,0,0,0,0,0,0,0,0,0,0,0,0,0,0,0,0,0,0,0,0,0,0,0,0,0,0,0,0,0,0,0,0,0,0,0,0,0,0,0,0,0],"id":16,"left_children":[1,3,5,7,9,11,13,15,17,-1,19,-1,21,23,25,27,29,31,33,35,37,-1,-1,39,41,43,-1,45,47,49,-1,-1,-1,-1,-1,51,53,55,57,-1,-1,-1,-1,-1,-1,-1,-1,-1,-1,-1,-1,-1,-1,-1,-1,-1,-1,-1,-1],"loss_changes":[2.23079E3,8.620249E2,4.2756738E2,3.719417E2,6.011938E2,1.1505323E1,4.7726733E2,1.4075311E2,7.613782E1,0E0,5.150361E2,0E0,1.6356001E0,2.5144458E2,2.8918255E1,4.5615906E1,1.15520645E2,2.2865787E0,1.4276398E1,3.7709344E2,1.6620161E2,0E0,0E0,3.8797363E1,2.5812317E1,2.2074919E0,0E0,4.199054E1,2.5161968E1,1.2474289E2,0E0,0E0,0E0,0E0,0E0,3.9637146E1,4.1248865E2,3.674646E1,9.978268E1,0E0,0E0,0E0,0E0,0E0,0E0,0E0,0E0,0E0,0E0,0E0,0E0,0E0,0E0,0E0,0E0,0E0,0E0,0E0,0E0],"parents":[2147483647,0,0,1,1,2,2,3,3,4,4,5,5,6,6,7,7,8,8,10,10,12,12,13,13,14,14,15,15,16,16,17,17,18,18,19,19,20,20,23,23,24,24,25,25,27,27,28,28,29,29,35,35,36,36,37,37,38,38],"right_children":[2,4,6,8,10,12,14,16,18,-1,20,-1,22,24,26,28,30,32,34,36,38,-1,-1,40,42,44,-1,46,48,50,-1,-1,-1,-1,-1,52,54,56,58,-1,-1,-1,-1,-1,-1,-1,-1,-1,-1,-1,-1,-1,-1,-1,-1,-1,-1,-1,-1],"split_conditions":[1.6198347E0,7E0,8.1055885E1,8.2E1,3E0,5.6E1,1.217E2,2.978E1,1.3454545E1,9.566992E-1,1.89E2,-8.628076E-2,8.9E1,1.7312723E0,2.64E1,1.1111112E0,2E0,3E0,4.42558E2,2.5217392E0,1.2592592E0,6.4804755E-2,-2.6835203E-3,5.864E1,8.518519E-1,5.6E1,1.7560264E-1,7.4444447E0,1.16E1,2.7763313E1,2.0818E-1,4.0581718E-2,-2.1724638E-2,3.2692644E-1,9.661095E-2,6E0,9E0,2.419753E0,2.65E0,4.1814986E-1,8.6025286E-1,8.300614E-2,3.5343286E-1,1.6416525E-2,-6.249062E-2,-1.5387891E-1,1.0110479E-1,-9.417641E-2,3.5604637E-2,-9.9563085E-2,6.7664348E-3,-8.7475315E-2,9.428047E-2,5.618032E-1,6.790742E-2,-6.801384E-2,7.7559024E-2,1.8408479E-1,-6.360946E-2],"split_indices":[34,103,130,1,0,1,39,109,27,0,37,0,7,64,3,106,84,0,21,105,34,0,0,40,106,1,0,28,3,10,0,0,0,0,0,74,92,106,44,0,0,0,0,0,0,0,0,0,0,0,0,0,0,0,0,0,0,0,0],"split_type":[0,0,0,0,0,0,0,0,0,0,0,0,0,0,0,0,0,0,0,0,0,0,0,0,0,0,0,0,0,0,0,0,0,0,0,0,0,0,0,0,0,0,0,0,0,0,0,0,0,0,0,0,0,0,0,0,0,0,0],"sum_hessian":[3.71E2,3.4E2,3.1E1,2.47E2,9.3E1,6E0,2.5E1,2.36E2,1.1E1,1E0,9.2E1,1E0,5E0,1.8E1,7E0,1.06E2,1.3E2,4E0,7E0,2.8E1,6.4E1,4E0,1E0,1.2E1,6E0,2E0,5E0,9.1E1,1.5E1,1.27E2,3E0,2E0,2E0,5E0,2E0,1E1,1.8E1,4.5E1,1.9E1,4E0,8E0,2E0,4E0,1E0,1E0,9E1,1E0,1E1,5E0,8.7E1,4E1,5E0,5E0,1.1E1,7E0,4.1E1,4E0,1.4E1,5E0],"tree_param":{"num_deleted":"0","num_feature":"132","num_nodes":"59","size_leaf_vector":"1"}},{"base_weights":[3.4930602E-1,-6.792232E-1,4.5684752E0,-1.4896612E0,1.4645103E0,6.644344E0,1.2331936E0,-1.6738372E0,2.2288225E0,5.205416E-1,1.234068E0,1.9670684E0,1.1236094E1,7.74986E-2,4.4016676E0,-1.7879115E0,3.4520516E0,1.0078483E0,3.6096412E-1,2.2669768E0,-1.6039497E0,3.8323027E-1,1.3861058E0,-5.674103E-2,1.2468316E1,7.626743E-1,-1.5975707E0,3.705561E-1,2.1633294E0,-1.7786169E-1,-1.5724988E0,-5.92875E-2,2.45397E-1,2.3725548E0,-2.9738188E-1,5.97056E-1,6.0148473E0,-1.8541172E0,9.7493365E-2,-1.6464912E0,1.9233199E0,1.3092246E1,-2.5720597E-4,2.0185323E0,2.2098468E-1,2.1778297E-1,-1.1836344E-1,1.1794046E-1,2.9648257E-2,-4.0711224E-2,-1.0668327E-1,3.474922E-2,1.6296367E-1,1.3455427E-2,-4.7678757E-2,-3.9106023E-2,1.80415E-1,6.42594E-2,3.806106E-1,-1.0326235E-2,-1.1632774E-1,-4.012227E-3,-1.0709126E-1,6.374039E-2,3.561263E-1,7.1886915E-1,2.1786754E-1,2.0536376E-2,1.15890086E-1,7.462276E-2,-7.2934753E-3,-2.5753023E-3,1.8909026E-2],"categories":[],"categories_nodes":[],"categories_segments":[],"categories_sizes":[],"default_left":[0,0,0,0,0,0,0,0,0,0,0,0,0,0,0,0,0,0,0,0,0,0,0,0,0,0,0,0,0,0,0,0,0,0,0,0,0,0,0,0,0,0,0,0,0,0,0,0,0,0,0,0,0,0,0,0,0,0,0,0,0,0,0,0,0,0,0,0,0,0,0,0,0],"id":17,"left_children":[1,3,5,7,9,11,13,15,17,-1,19,21,23,25,27,29,31,33,-1,35,37,-1,39,-1,41,43,45,-1,47,-1,49,-1,-1,51,53,55,57,59,-1,61,63,65,-1,67,69,71,-1,-1,-1,-1,-1,-1,-1,-1,-1,-1,-1,-1,-1,-1,-1,-1,-1,-1,-1,-1,-1,-1,-1,-1,-1,-1,-1],"loss_changes":[1.6608066E3,5.372895E2,5.1107666E2,1.5713834E2,1.6238927E2,9.6583435E2,1.09512566E2,1.3130469E2,5.9749504E1,0E0,2.4987482E2,6.8817406E1,3.6475464E2,2.7615913E1,3.7856705E1,7.444452E1,3.9580185E1,1.8518116E1,0E0,3.8444492E2,2.4063416E1,0E0,4.063727E1,0E0,1.6350122E2,1.1118785E1,1.0296469E1,0E0,4.431553E-1,0E0,7.868564E1,0E0,0E0,5.1725197E0,2.4869785E0,1.8555574E2,1.3376172E2,1.6643967E1,0E0,2.9313908E0,5.8355125E1,1.6186353E2,0E0,1.4538498E0,6.28148E0,1.4905846E-1,0E0,0E0,0E0,0E0,0E0,0E0,0E0,0E0,0E0,0E0,0E0,0E0,0E0,0E0,0E0,0E0,0E0,0E0,0E0,0E0,0E0,0E0,0E0,0E0,0E0,0E0,0E0],"parents":[2147483647,0,0,1,1,2,2,3,3,4,4,5,5,6,6,7,7,8,8,10,10,11,11,12,12,13,13,14,14,15,15,16,16,17,17,19,19,20,20,22,22,24,24,25,25,26,26,28,28,30,30,33,33,34,34,35,35,36,36,37,37,39,39,40,40,41,41,43,43,44,44,45,45],"right_children":[2,4,6,8,10,12,14,16,18,-1,20,22,24,26,28,30,32,34,-1,36,38,-1,40,-1,42,44,46,-1,48,-1,50,-1,-1,52,54,56,58,60,-1,62,64,66,-1,68,70,72,-1,-1,-1,-1,-1,-1,-1,-1,-1,-1,-1,-1,-1,-1,-1,-1,-1,-1,-1,-1,-1,-1,-1,-1,-1,-1,-1],"split_conditions":[1.6177778E0,3.9578487E1,1.15E1,6.2E1,3E0,6.5917377E2,4.809705E1,2.9285715E0,1.1428572E0,5.205416E-1,2.7328472E1,1.1913043E1,3.528E1,8E0,3.1666667E0,1.21E2,4E0,2.375E0,3.6096412E-1,1.9814615E1,4.455352E1,3.8323027E-1,2.7692308E0,-5.674103E-2,1.0146512E3,7.2888885E1,1.3E1,3.705561E-1,2.7066668E1,-1.7786169E-1,2.51E0,-5.92875E-2,2.45397E-1,3E0,1.625E1,4.75E0,4E0,4.827586E0,9.7493365E-2,1.2333333E1,6.57112E2,2.2533333E-5,-2.5720597E-4,3.4E1,1.8367347E0,2.2E1,-1.1836344E-1,1.1794046E-1,2.9648257E-2,-4.0711224E-2,-1.0668327E-1,3.474922E-2,1.6296367E-1,1.3455427E-2,-4.7678757E-2,-3.9106023E-2,1.80415E-1,6.42594E-2,3.806106E-1,-1.0326235E-2,-1.1632774E-1,-4.012227E-3,-1.0709126E-1,6.374039E-2,3.561263E-1,7.1886915E-1,2.1786754E-1,2.0536376E-2,1.15890086E-1,7.462276E-2,-7.2934753E-3,-2.5753023E-3,1.8909026E-2],"split_indices":[94,15,27,1,5,22,15,33,63,0,111,3,40,104,33,37,0,33,0,111,112,0,33,0,22,129,11,0,3,0,44,0,0,0,3,76,61,75,0,3,22,121,0,1,51,1,0,0,0,0,0,0,0,0,0,0,0,0,0,0,0,0,0,0,0,0,0,0,0,0,0,0,0],"split_type":[0,0,0,0,0,0,0,0,0,0,0,0,0,0,0,0,0,0,0,0,0,0,0,0,0,0,0,0,0,0,0,0,0,0,0,0,0,0,0,0,0,0,0,0,0,0,0,0,0,0,0,0,0,0,0,0,0,0,0,0,0,0,0,0,0,0,0,0,0,0,0,0,0],"sum_hessian":[3.81E2,3.07E2,7.4E1,2.23E2,8.4E1,4.5E1,2.9E1,2.13E2,1E1,1E0,8.3E1,2.3E1,2.2E1,2.2E1,7E0,2.09E2,4E0,9E0,1E0,6.1E1,2.2E1,1E0,2.2E1,2E0,2E1,1.6E1,6E0,2E0,5E0,2.1E1,1.88E2,1E0,3E0,4E0,5E0,4.3E1,1.8E1,2.1E1,1E0,3E0,1.9E1,1.9E1,1E0,4E0,1.2E1,2E0,4E0,4E0,1E0,8.1E1,1.07E2,2E0,2E0,3E0,2E0,3E1,1.3E1,5E0,1.3E1,5E0,1.6E1,1E0,2E0,1.8E1,1E0,1.6E1,3E0,1E0,3E0,2E0,1E1,1E0,1E0],"tree_param":{"num_deleted":"0","num_feature":"132","num_nodes":"73","size_leaf_vector":"1"}},{"base_weights":[1.6776954E-1,-3.9724222E-1,8.07172E0,-8.2060415E-1,5.6134524E0,1.0270924E1,3.3059833E0,-1.7361069E0,4.654071E-1,8.58973E-1,3.8607798E0,1.6039093E-1,1.2059824E1,9.265125E-2,2.334945E-1,-2.7587328E0,-1.3385851E0,1.2540199E0,-1.4270872E0,1.6544755E0,7.108978E0,5.501002E0,1.5092391E1,-8.121556E-2,6.0320456E-2,-2.927918E0,6.312874E-2,6.806496E-1,-1.5290157E0,4.3229866E0,7.733726E-1,6.5964335E-1,-2.8971179E0,3.417898E0,9.909407E-2,1.0796419E1,3.4658542E0,3.024502E-2,3.1796214E-1,8.7219536E-1,3.8960096E-1,-1.5292263E-1,1.0302372E-1,1.3130853E-1,-8.30422E-2,5.9895705E-2,4.1450486E-1,2.3400986E-3,1.21621706E-1,3.148362E-1,-1.8696906E-2,-1.4834313E-1,-2.8837537E-2,8.744385E-2,2.1162222E-1,6.9349386E-2,-1.17633045E-2,1.5476146E-1,6.16587E-1,2.1525212E-1,5.95826E-2],"categories":[],"categories_nodes":[],"categories_segments":[],"categories_sizes":[],"default_left":[0,0,0,0,0,0,0,0,0,0,0,0,0,0,0,0,0,0,0,0,0,0,0,0,0,0,0,0,0,0,0,0,0,0,0,0,0,0,0,0,0,0,0,0,0,0,0,0,0,0,0,0,0,0,0,0,0,0,0,0,0],"id":18,"left_children":[1,3,5,7,9,11,13,15,17,-1,19,-1,21,23,-1,25,27,29,31,33,35,37,39,-1,-1,41,-1,-1,43,45,47,49,51,53,55,57,59,-1,-1,-1,-1,-1,-1,-1,-1,-1,-1,-1,-1,-1,-1,-1,-1,-1,-1,-1,-1,-1,-1,-1,-1],"loss_changes":[1.8073999E3,9.665028E2,2.4902686E2,4.175888E2,4.404596E2,1.8874756E2,4.3394157E1,8.045599E1,2.226715E2,0E0,1.5306815E2,0E0,1.9543787E2,9.608706E0,0E0,4.247641E1,4.5074707E2,1.5154123E2,1.368836E2,4.0803223E1,8.348544E1,2.1365463E1,1.8579102E1,0E0,0E0,4.211554E1,0E0,0E0,8.652725E1,1.6363428E2,1.1078528E2,1.1305584E2,2.4965363E0,2.114441E0,4.2018943E0,9.12558E0,6.3207855E0,0E0,0E0,0E0,0E0,0E0,0E0,0E0,0E0,0E0,0E0,0E0,0E0,0E0,0E0,0E0,0E0,0E0,0E0,0E0,0E0,0E0,0E0,0E0,0E0],"parents":[2147483647,0,0,1,1,2,2,3,3,4,4,5,5,6,6,7,7,8,8,10,10,12,12,13,13,15,15,16,16,17,17,18,18,19,19,20,20,21,21,22,22,25,25,28,28,29,29,30,30,31,31,32,32,33,33,34,34,35,35,36,36],"right_children":[2,4,6,8,10,12,14,16,18,-1,20,-1,22,24,-1,26,28,30,32,34,36,38,40,-1,-1,42,-1,-1,44,46,48,50,52,54,56,58,60,-1,-1,-1,-1,-1,-1,-1,-1,-1,-1,-1,-1,-1,-1,-1,-1,-1,-1,-1,-1,-1,-1,-1,-1],"split_conditions":[1.68E0,2.56E0,1.2631578E0,9.2561984E-1,2.5833333E0,5.45E1,8.1055885E1,1.7E1,2.2E2,8.58973E-1,6.45288E2,1.6039093E-1,5.864E1,5.6E1,2.334945E-1,1.076033E2,2.8402367E-1,3E0,2.43125E0,5.7166668E1,2.88E0,2.64E1,2.24E0,-8.121556E-2,6.0320456E-2,8.968421E1,6.312874E-2,6.806496E-1,4.925E-1,3.8888888E0,1.9814615E1,1.0204082E0,1.8998404E1,4E1,3.475757E2,5.99E1,1.76E2,3.024502E-2,3.1796214E-1,8.7219536E-1,3.8960096E-1,-1.5292263E-1,1.0302372E-1,1.3130853E-1,-8.30422E-2,5.9895705E-2,4.1450486E-1,2.3400986E-3,1.21621706E-1,3.148362E-1,-1.8696906E-2,-1.4834313E-1,-2.8837537E-2,8.744385E-2,2.1162222E-1,6.9349386E-2,-1.17633045E-2,1.5476146E-1,6.16587E-1,2.1525212E-1,5.95826E-2],"split_indices":[34,94,87,34,33,9,130,1,37,0,21,0,40,1,0,130,34,6,45,9,94,3,94,0,0,9,0,0,46,76,111,34,17,1,21,9,37,0,0,0,0,0,0,0,0,0,0,0,0,0,0,0,0,0,0,0,0,0,0,0,0],"split_type":[0,0,0,0,0,0,0,0,0,0,0,0,0,0,0,0,0,0,0,0,0,0,0,0,0,0,0,0,0,0,0,0,0,0,0,0,0,0,0,0,0,0,0,0,0,0,0,0,0,0,0,0,0,0,0,0,0,0,0,0,0],"sum_hessian":[4.03E2,3.77E2,2.6E1,3.53E2,2.4E1,1.7E1,9E0,2.06E2,1.47E2,2E0,2.2E1,4E0,1.3E1,3E0,6E0,5.6E1,1.5E2,1.04E2,4.3E1,1.4E1,8E0,5E0,8E0,1E0,2E0,5.4E1,2E0,1E0,1.49E2,1.3E1,9.1E1,1.8E1,2.5E1,6E0,8E0,3E0,5E0,1E0,4E0,5E0,3E0,5.3E1,1E0,4E0,1.45E2,8E0,5E0,6.4E1,2.7E1,2E0,1.6E1,2.4E1,1E0,3E0,3E0,1E0,7E0,1E0,2E0,3E0,2E0],"tree_param":{"num_deleted":"0","num_feature":"132","num_nodes":"61","size_leaf_vector":"1"}},{"base_weights":[1.6528432E-1,-7.4462825E-1,4.1142845E0,-1.8716022E0,8.285657E-1,6.374725E0,8.4611547E-1,-1.9854286E0,1.8551244E0,4.69974E-1,6.2596035E-1,1.3304288E0,1.0703225E1,1.4437488E-1,5.5467706E0,-2.968777E0,-1.5404319E0,6.6363335E-1,-1.5414588E-1,1.8018668E0,-1.2539294E0,2.3357124E0,-2.6947296E-1,1.2644192E1,1.1869059E0,1.0237734E0,-9.4906765E-1,3.4434023E-1,3.8166713E-2,-3.0981603E0,1.0044813E-1,-1.8046461E0,-2.7874836E-1,3.6421394E0,6.324439E-3,2.4973872E0,-1.4580115E0,3.456813E0,1.4533552E0,6.4603664E-2,-6.261754E-1,1.3368849E1,-9.990788E-3,-5.3504642E-2,1.5241347E-1,1.9633347E0,2.6370335E-1,-1.9403654E0,5.308407E-1,-1.6334522E-1,-8.6066965E-3,-4.7750976E-3,-9.7304E-2,9.489005E-2,-4.9438942E-2,3.7067598E-1,7.758575E-2,-8.4980555E-2,1.7697982E-1,-4.2507626E-2,2.2981167E-1,-8.514393E-2,8.612313E-2,1.9086754E-1,5.0366547E-2,9.9653386E-2,1.4022387E-2,-5.5409014E-2,6.6437246E-3,7.980544E-1,4.5015773E-1,4.484724E-2,1.2694454E-1,6.959546E-2,-9.61684E-3,-1.0641457E-1,-1.5622116E-2,6.505032E-2,-8.9746835E-3],"categories":[],"categories_nodes":[],"categories_segments":[],"categories_sizes":[],"default_left":[0,0,0,0,0,0,0,0,0,0,0,0,0,0,0,0,0,0,0,0,0,0,0,0,0,0,0,0,0,0,0,0,0,0,0,0,0,0,0,0,0,0,0,0,0,0,0,0,0,0,0,0,0,0,0,0,0,0,0,0,0,0,0,0,0,0,0,0,0,0,0,0,0,0,0,0,0,0,0],"id":19,"left_children":[1,3,5,7,9,11,13,15,17,-1,19,21,23,25,27,29,31,-1,-1,33,35,37,39,41,43,45,47,-1,-1,49,-1,51,53,55,57,59,61,63,65,-1,67,69,-1,-1,-1,71,73,75,77,-1,-1,-1,-1,-1,-1,-1,-1,-1,-1,-1,-1,-1,-1,-1,-1,-1,-1,-1,-1,-1,-1,-1,-1,-1,-1,-1,-1,-1,-1],"loss_changes":[1.4008358E3,5.6357544E2,5.338938E2,8.216022E1,2.2507263E2,9.246322E2,1.0145704E2,7.419238E1,3.7920035E2,0E0,2.9184467E2,3.4404873E1,4.0982227E2,2.7895641E1,2.0382927E1,4.164612E1,4.1499695E1,0E0,0E0,2.6762427E2,4.2685608E1,7.835762E0,5.8221307E0,1.7951392E2,2.4267406E1,1.0908379E1,2.0101414E1,0E0,0E0,2.6100098E1,0E0,2.4954163E1,3.7421085E1,3.0384772E2,2.5917233E2,2.498541E1,4.1094017E1,5.703163E-1,5.138344E0,0E0,3.0741744E0,6.0004395E1,0E0,0E0,0E0,2.0191288E0,5.4127874E0,1.7824631E0,3.515973E0,0E0,0E0,0E0,0E0,0E0,0E0,0E0,0E0,0E0,0E0,0E0,0E0,0E0,0E0,0E0,0E0,0E0,0E0,0E0,0E0,0E0,0E0,0E0,0E0,0E0,0E0,0E0,0E0,0E0,0E0],"parents":[2147483647,0,0,1,1,2,2,3,3,4,4,5,5,6,6,7,7,8,8,10,10,11,11,12,12,13,13,14,14,15,15,16,16,19,19,20,20,21,21,22,22,23,23,24,24,25,25,26,26,29,29,31,31,32,32,33,33,34,34,35,35,36,36,37,37,38,38,40,40,41,41,45,45,46,46,47,47,48,48],"right_children":[2,4,6,8,10,12,14,16,18,-1,20,22,24,26,28,30,32,-1,-1,34,36,38,40,42,44,46,48,-1,-1,50,-1,52,54,56,58,60,62,64,66,-1,68,70,-1,-1,-1,72,74,76,78,-1,-1,-1,-1,-1,-1,-1,-1,-1,-1,-1,-1,-1,-1,-1,-1,-1,-1,-1,-1,-1,-1,-1,-1,-1,-1,-1,-1,-1,-1],"split_conditions":[1.6177778E0,9.965974E0,1.15E1,9.3E1,6.75E0,6.57112E2,8.847E2,2.12124E2,4E0,4.69974E-1,5.57E1,2.2683334E0,2.6314285E0,8E1,3.1666667E0,7.479224E0,8.181818E0,6.6363335E-1,-1.5414588E-1,7.2521736E1,1.032E1,2.23E0,1.4E1,1.0146512E3,5E0,7.2888885E1,5.6E0,3.4434023E-1,3.8166713E-2,5E0,1.0044813E-1,1.5172414E0,8.48E0,5.0833335E0,1.883839E2,4E0,2.8821428E0,5E1,3.2E1,6.4603664E-2,1.0111111E1,7.1845E2,-9.990788E-3,-5.3504642E-2,1.5241347E-1,2.2570238E1,2.6944444E0,1.8571428E0,3.4E1,-1.6334522E-1,-8.6066965E-3,-4.7750976E-3,-9.7304E-2,9.489005E-2,-4.9438942E-2,3.7067598E-1,7.758575E-2,-8.4980555E-2,1.7697982E-1,-4.2507626E-2,2.2981167E-1,-8.514393E-2,8.612313E-2,1.9086754E-1,5.0366547E-2,9.9653386E-2,1.4022387E-2,-5.5409014E-2,6.6437246E-3,7.980544E-1,4.5015773E-1,4.484724E-2,1.2694454E-1,6.959546E-2,-9.61684E-3,-1.0641457E-1,-1.5622116E-2,6.505032E-2,-8.9746835E-3],"split_indices":[94,4,27,8,27,22,21,21,0,0,110,45,45,8,33,28,4,0,0,9,4,45,2,22,0,129,28,0,0,86,0,105,4,28,14,0,45,2,2,0,27,21,0,0,0,109,45,63,2,0,0,0,0,0,0,0,0,0,0,0,0,0,0,0,0,0,0,0,0,0,0,0,0,0,0,0,0,0,0],"split_type":[0,0,0,0,0,0,0,0,0,0,0,0,0,0,0,0,0,0,0,0,0,0,0,0,0,0,0,0,0,0,0,0,0,0,0,0,0,0,0,0,0,0,0,0,0,0,0,0,0,0,0,0,0,0,0,0,0,0,0,0,0,0,0,0,0,0,0,0,0,0,0,0,0,0,0,0,0,0,0],"sum_hessian":[3.88E2,3.16E2,7.2E1,1.84E2,1.32E2,4.2E1,3E1,1.79E2,5E0,2E0,1.3E2,2E1,2.2E1,2.7E1,3E0,5.4E1,1.25E2,1E0,4E0,8E1,5E1,1.2E1,8E0,1.8E1,4E0,1.5E1,1.2E1,2E0,1E0,5.3E1,1E0,1.03E2,2.2E1,3.9E1,4.1E1,2E0,4.8E1,4E0,8E0,1E0,7E0,1.7E1,1E0,2E0,2E0,6E0,9E0,7E0,5E0,5E1,3E0,8E0,9.5E1,5E0,1.7E1,1.3E1,2.6E1,2.8E1,1.3E1,1E0,1E0,4.5E1,3E0,3E0,1E0,5E0,3E0,4E0,3E0,9E0,8E0,3E0,3E0,2E0,7E0,6E0,1E0,2E0,3E0],"tree_param":{"num_deleted":"0","num_feature":"132","num_nodes":"79","size_leaf_vector":"1"}},{"base_weights":[1.0070167E-1,-5.4965854E-1,3.7133477E0,-1.2556329E0,1.2504187E0,7.198526E0,1.8376868E0,-1.9194895E0,-5.6494E-1,2.9600227E0,-2.3584476E-2,2.957728E0,9.58073E0,-1.8525666E0,2.788432E0,1.339503E0,-2.1259208E0,-8.3583206E-1,3.365889E0,7.8457026E0,9.070832E-1,-1.4844012E0,4.9869734E-1,3.2916985E0,7.1490766E-3,6.7979044E-1,5.37183E0,-1.270437E-1,9.134727E-2,2.1512713E-1,3.8979068E0,-2.1665251E0,6.470425E-1,-1.8077068E0,-1.7472658E-1,1.237475E0,-1.4321259E0,2.2158468E-1,-1.02368526E-1,1.9663779E0,5.882155E-1,-6.7527376E-2,3.5957031E0,-2.5183488E-2,-2.0127366E0,1.1318768E0,-1.0008475E0,3.6789157E0,1.4529443E-2,-9.74102E-3,6.194897E0,-1.812691E0,1.6328362E0,6.2004943E0,1.6497248E0,-1.4390843E-1,5.2583385E-2,-9.336721E-2,9.793692E-2,2.6261458E-1,-2.5905205E-2,-1.5454833E-2,-9.581008E-2,-7.222854E-2,2.0164977E-1,-3.180901E-2,4.4386517E-2,3.7977794E-1,4.982458E-2,-2.63947E-2,2.4296077E-2,-1.243976E-1,-2.7956057E-2,-5.2870322E-2,9.880219E-2,-1.3141295E-1,7.2376995E-4,2.081358E-1,8.231386E-2,3.5260972E-1,2.6277876E-2,-1.538921E-1,2.8345108E-3,-7.240534E-3,1.1864286E-1,1.3488191E-1,4.334967E-1,-1.1115188E-2,1.9354044E-1],"categories":[],"categories_nodes":[],"categories_segments":[],"categories_sizes":[],"default_left":[0,0,0,0,0,0,0,0,0,0,0,0,0,0,0,0,0,0,0,0,0,0,0,0,0,0,0,0,0,0,0,0,0,0,0,0,0,0,0,0,0,0,0,0,0,0,0,0,0,0,0,0,0,0,0,0,0,0,0,0,0,0,0,0,0,0,0,0,0,0,0,0,0,0,0,0,0,0,0,0,0,0,0,0,0,0,0,0,0],"id":20,"left_children":[1,3,5,7,9,11,13,15,17,19,21,23,25,27,29,31,33,35,37,39,41,43,45,47,-1,-1,49,-1,-1,51,53,55,-1,57,-1,59,61,-1,-1,63,-1,65,67,69,71,73,75,77,-1,-1,79,81,83,85,87,-1,-1,-1,-1,-1,-1,-1,-1,-1,-1,-1,-1,-1,-1,-1,-1,-1,-1,-1,-1,-1,-1,-1,-1,-1,-1,-1,-1,-1,-1,-1,-1,-1,-1],"loss_changes":[9.395E2,4.3237418E2,3.8552917E2,1.1079468E2,2.0916173E2,1.8381421E2,1.4901387E2,8.626962E1,1.3165779E2,4.0411353E2,4.3465916E1,7.989731E0,1.4665344E2,2.743575E1,9.3377014E1,3.5343387E2,4.4637695E1,1.4271045E2,5.5229126E1,2.5333203E2,7.885354E1,1.1513657E1,4.1011036E1,8.2276E0,0E0,0E0,3.7860703E1,0E0,0E0,3.458325E1,1.0883353E2,1.9058315E1,0E0,2.5445831E1,0E0,1.8597774E2,4.779088E1,0E0,0E0,4.8120697E1,0E0,1.3058585E1,7.560285E1,1.5412043E0,6.2075195E0,5.75331E1,2.151857E1,3.075409E-2,0E0,0E0,3.0315826E1,1.1999731E1,9.552086E0,7.1762665E1,5.4913624E1,0E0,0E0,0E0,0E0,0E0,0E0,0E0,0E0,0E0,0E0,0E0,0E0,0E0,0E0,0E0,0E0,0E0,0E0,0E0,0E0,0E0,0E0,0E0,0E0,0E0,0E0,0E0,0E0,0E0,0E0,0E0,0E0,0E0,0E0],"parents":[2147483647,0,0,1,1,2,2,3,3,4,4,5,5,6,6,7,7,8,8,9,9,10,10,11,11,12,12,13,13,14,14,15,15,16,16,17,17,18,18,19,19,20,20,21,21,22,22,23,23,26,26,29,29,30,30,31,31,33,33,35,35,36,36,39,39,41,41,42,42,43,43,44,44,45,45,46,46,47,47,50,50,51,51,52,52,53,53,54,54],"right_children":[2,4,6,8,10,12,14,16,18,20,22,24,26,28,30,32,34,36,38,40,42,44,46,48,-1,-1,50,-1,-1,52,54,56,-1,58,-1,60,62,-1,-1,64,-1,66,68,70,72,74,76,78,-1,-1,80,82,84,86,88,-1,-1,-1,-1,-1,-1,-1,-1,-1,-1,-1,-1,-1,-1,-1,-1,-1,-1,-1,-1,-1,-1,-1,-1,-1,-1,-1,-1,-1,-1,-1,-1,-1,-1],"split_conditions":[1.8366863E1,6E0,4E0,3.7E1,2.51E0,5.99E1,1.8571428E0,2.8402367E-1,2E0,6.446667E1,2.3076923E0,9E0,6.225E1,2.6444445E1,2.17E2,1.7E1,2.8911111E0,3E0,1.8E1,5E1,3.29E3,1.4693878E0,2.2E2,4.5949444E1,7.1490766E-3,6.7979044E-1,5E0,-1.270437E-1,9.134727E-2,5.1105167E1,3.4285715E0,1.075E2,6.470425E-1,7.479224E0,-1.7472658E-1,3.7E1,6.853846E1,2.2158468E-1,-1.02368526E-1,4E1,5.882155E-1,1.3E1,1.1020408E0,1.08333336E2,1.7222222E0,1.3E1,1.3761815E0,2.112E1,1.4529443E-2,-9.74102E-3,2.7504131E1,2.24E1,3E0,6.6E1,2.1538463E0,-1.4390843E-1,5.2583385E-2,-9.336721E-2,9.793692E-2,2.6261458E-1,-2.5905205E-2,-1.5454833E-2,-9.581008E-2,-7.222854E-2,2.0164977E-1,-3.180901E-2,4.4386517E-2,3.7977794E-1,4.982458E-2,-2.63947E-2,2.4296077E-2,-1.243976E-1,-2.7956057E-2,-5.2870322E-2,9.880219E-2,-1.3141295E-1,7.2376995E-4,2.081358E-1,8.231386E-2,3.5260972E-1,2.6277876E-2,-1.538921E-1,2.8345108E-3,-7.240534E-3,1.1864286E-1,1.3488191E-1,4.334967E-1,-1.1115188E-2,1.9354044E-1],"split_indices":[4,91,61,1,44,9,51,34,84,9,105,6,9,3,127,1,45,103,3,9,19,94,37,112,0,0,6,0,0,16,70,130,0,28,0,2,9,0,0,1,0,6,34,39,51,3,76,4,0,0,4,3,85,9,87,0,0,0,0,0,0,0,0,0,0,0,0,0,0,0,0,0,0,0,0,0,0,0,0,0,0,0,0,0,0,0,0,0,0],"split_type":[0,0,0,0,0,0,0,0,0,0,0,0,0,0,0,0,0,0,0,0,0,0,0,0,0,0,0,0,0,0,0,0,0,0,0,0,0,0,0,0,0,0,0,0,0,0,0,0,0,0,0,0,0,0,0,0,0,0,0,0,0,0,0,0,0,0,0,0,0,0,0,0,0,0,0,0,0,0,0,0,0,0,0,0,0,0,0,0,0],"sum_hessian":[3.98E2,3.38E2,6E1,2.43E2,9.5E1,2E1,4E1,1.23E2,1.2E2,4E1,5.5E1,8E0,1.2E1,8E0,3.2E1,7E0,1.16E2,1.13E2,7E0,1.1E1,2.9E1,1.4E1,4.1E1,7E0,1E0,5E0,7E0,7E0,1E0,1E1,2.2E1,6E0,1E0,9.6E1,2E1,2.5E1,8.8E1,6E0,1E0,5E0,6E0,2.2E1,7E0,4E0,1E1,2.9E1,1.2E1,6E0,1E0,1E0,6E0,4E0,6E0,1E1,1.2E1,5E0,1E0,9.5E1,1E0,7E0,1.8E1,2.7E1,6.1E1,2E0,3E0,1.4E1,8E0,2E0,5E0,2E0,2E0,7E0,3E0,8E0,2.1E1,4E0,8E0,4E0,2E0,5E0,1E0,2E0,2E0,2E0,4E0,5E0,5E0,7E0,5E0],"tree_param":{"num_deleted":"0","num_feature":"132","num_nodes":"89","size_leaf_vector":"1"}},{"base_weights":[3.3875796E-1,-1.3691463E-1,7.4793234E0,-9.538771E-1,1.9807111E0,4.2868915E0,9.681457E0,-1.2009164E0,3.3587906E0,1.6635336E0,8.7417966E-1,4.4561037E-1,2.4706075E0,2.616644E0,1.1370347E1,-1.3309604E0,3.0293274E0,4.3424335E0,-4.3183517E-1,3.8521895E0,3.4503174E-1,6.970358E-3,1.35707E-1,2.4698468E-1,1.9572957E-1,2.484587E-1,1.3149639E1,-1.9891752E0,-6.621823E-1,6.3086647E-1,-1.4286259E-1,3.4699464E-1,2.7055142E0,-3.8616993E-2,1.4741969E-2,-1.7636997E-1,5.649193E0,-1.3751376E0,8.7792736E-1,-9.4975E-3,2.4177218E-2,7.860841E-1,3.323589E-1,-8.237117E-2,-1.6519782E-1,4.29034E-2,-5.9442133E-2,-1.2666331E-1,3.5498902E-1,2.1034208E-1,3.315422E-2,2.3645122E-2,-6.5489314E-2,3.1689584E-2,4.2810732E-1,-5.062328E-3,-1.06467366E-1,2.4246025E-1,2.6434869E-2],"categories":[],"categories_nodes":[],"categories_segments":[],"categories_sizes":[],"default_left":[0,0,0,0,0,0,0,0,0,0,0,0,0,0,0,0,0,0,0,0,0,0,0,0,0,0,0,0,0,0,0,0,0,0,0,0,0,0,0,0,0,0,0,0,0,0,0,0,0,0,0,0,0,0,0,0,0,0,0],"id":21,"left_children":[1,3,5,7,9,11,13,15,17,19,-1,-1,21,23,25,27,29,31,33,35,37,-1,-1,-1,39,-1,41,43,45,-1,47,-1,49,-1,-1,51,53,55,57,-1,-1,-1,-1,-1,-1,-1,-1,-1,-1,-1,-1,-1,-1,-1,-1,-1,-1,-1,-1],"loss_changes":[1.3596526E3,6.523772E2,1.3425061E2,2.9382205E2,4.87218E2,7.879207E1,1.3729163E2,1.4596225E2,5.780452E1,2.9878854E2,0E0,0E0,5.2988625E0,2.1528772E1,5.994226E1,1.0917288E2,2.4512221E2,3.2246017E1,1.2174605E0,2.8333038E2,6.1707535E1,0E0,0E0,0E0,4.2486203E-1,0E0,2.9291992E1,5.1172485E1,1.01902695E2,0E0,1.3917552E2,0E0,2.4807701E1,0E0,0E0,1.0186047E1,3.890334E2,1.515691E1,6.816759E1,0E0,0E0,0E0,0E0,0E0,0E0,0E0,0E0,0E0,0E0,0E0,0E0,0E0,0E0,0E0,0E0,0E0,0E0,0E0,0E0],"parents":[2147483647,0,0,1,1,2,2,3,3,4,4,5,5,6,6,7,7,8,8,9,9,12,12,13,13,14,14,15,15,16,16,17,17,18,18,19,19,20,20,24,24,26,26,27,27,28,28,30,30,32,32,35,35,36,36,37,37,38,38],"right_children":[2,4,6,8,10,12,14,16,18,20,-1,-1,22,24,26,28,30,32,34,36,38,-1,-1,-1,40,-1,42,44,46,-1,48,-1,50,-1,-1,52,54,56,58,-1,-1,-1,-1,-1,-1,-1,-1,-1,-1,-1,-1,-1,-1,-1,-1,-1,-1,-1,-1],"split_conditions":[1.68E0,6E0,