{"learner":{"attributes":{"scikit_learn":"{\"_estimator_type\": \"regressor\"}"},"feature_names":["MagpieData minimum Number","MagpieData maximum Number","MagpieData range Number","MagpieData mean Number","MagpieData avg_dev Number","MagpieData mode Number","MagpieData minimum MendeleevNumber","MagpieData maximum MendeleevNumber","MagpieData range MendeleevNumber","MagpieData mean MendeleevNumber","MagpieData avg_dev MendeleevNumber","MagpieData mode MendeleevNumber","MagpieData minimum AtomicWeight","MagpieData maximum AtomicWeight","MagpieData range AtomicWeight","MagpieData mean AtomicWeight","MagpieData avg_dev AtomicWeight","MagpieData mode AtomicWeight","MagpieData minimum MeltingT","MagpieData maximum MeltingT","MagpieData range MeltingT","MagpieData mean MeltingT","MagpieData avg_dev MeltingT","MagpieData mode MeltingT","MagpieData minimum Column","MagpieData maximum Column","MagpieData range Column","MagpieData mean Column","MagpieData avg_dev Column","MagpieData mode Column","MagpieData minimum Row","MagpieData maximum Row","MagpieData range Row","MagpieData mean Row","MagpieData avg_dev Row","MagpieData mode Row","MagpieData minimum CovalentRadius","MagpieData maximum CovalentRadius","MagpieData range CovalentRadius","MagpieData mean CovalentRadius","MagpieData avg_dev CovalentRadius","MagpieData mode CovalentRadius","MagpieData minimum Electronegativity","MagpieData maximum Electronegativity","MagpieData range Electronegativity","MagpieData mean Electronegativity","MagpieData avg_dev Electronegativity","MagpieData mode Electronegativity","MagpieData minimum NsValence","MagpieData maximum NsValence","MagpieData range NsValence","MagpieData mean NsValence","MagpieData avg_dev NsValence","MagpieData mode NsValence","MagpieData minimum NpValence","MagpieData maximum NpValence","MagpieData range NpValence","MagpieData mean NpValence","MagpieData avg_dev NpValence","MagpieData mode NpValence","MagpieData minimum NdValence","MagpieData maximum NdValence","MagpieData range NdValence","MagpieData mean NdValence","MagpieData avg_dev NdValence","MagpieData mode NdValence","MagpieData minimum NfValence","MagpieData maximum NfValence","MagpieData range NfValence","MagpieData mean NfValence","MagpieData avg_dev NfValence","MagpieData mode NfValence","MagpieData minimum NValence","MagpieData maximum NValence","MagpieData range NValence","MagpieData mean NValence","MagpieData avg_dev NValence","MagpieData mode NValence","MagpieData minimum NsUnfilled","MagpieData maximum NsUnfilled","MagpieData range NsUnfilled","MagpieData mean NsUnfilled","MagpieData avg_dev NsUnfilled","MagpieData mode NsUnfilled","MagpieData minimum NpUnfilled","MagpieData maximum NpUnfilled","MagpieData range NpUnfilled","MagpieData mean NpUnfilled","MagpieData avg_dev NpUnfilled","MagpieData mode NpUnfilled","MagpieData minimum NdUnfilled","MagpieData maximum NdUnfilled","MagpieData range NdUnfilled","MagpieData mean NdUnfilled","MagpieData avg_dev NdUnfilled","MagpieData mode NdUnfilled","MagpieData minimum NfUnfilled","MagpieData maximum NfUnfilled","MagpieData range NfUnfilled","MagpieData mean NfUnfilled","MagpieData avg_dev NfUnfilled","MagpieData mode NfUnfilled","MagpieData minimum NUnfilled","MagpieData maximum NUnfilled","MagpieData range NUnfilled","MagpieData mean NUnfilled","MagpieData avg_dev NUnfilled","MagpieData mode NUnfilled","MagpieData minimum GSvolume_pa","MagpieData maximum GSvolume_pa","MagpieData range GSvolume_pa","MagpieData mean GSvolume_pa","MagpieData avg_dev GSvolume_pa","MagpieData mode GSvolume_pa","MagpieData minimum GSbandgap","MagpieData maximum GSbandgap","MagpieData range GSbandgap","MagpieData mean GSbandgap","MagpieData avg_dev GSbandgap","MagpieData mode GSbandgap","MagpieData minimum GSmagmom","MagpieData maximum GSmagmom","MagpieData range GSmagmom","MagpieData mean GSmagmom","MagpieData avg_dev GSmagmom","MagpieData mode GSmagmom","MagpieData minimum SpaceGroupNumber","MagpieData maximum SpaceGroupNumber","MagpieData range SpaceGroupNumber","MagpieData mean SpaceGroupNumber","MagpieData avg_dev SpaceGroupNumber","MagpieData mode SpaceGroupNumber"],"feature_types":["float","float","float","float","float","float","float","float","float","float","float","float","float","float","float","float","float","float","float","float","float","float","float","float","float","float","float","float","float","float","float","float","float","float","float","float","float","float","float","float","float","float","float","float","float","float","float","float","float","float","float","float","float","float","float","float","float","float","float","float","float","float","float","float","float","float","float","float","float","float","float","float","float","float","float","float","float","float","float","float","float","float","float","float","float","float","float","float","float","float","float","float","float","float","float","float","float","float","float","float","float","float","float","float","float","float","float","float","float","float","float","float","float","float","float","float","float","float","float","float","float","float","float","float","float","float","float","float","float","float","float","float"],"gradient_booster":{"model":{"cats":{"enc":[],"feature_segments":[],"sorted_idx":[]},"gbtree_model_param":{"num_parallel_tree":"1","num_trees":"500"},"iteration_indptr":[0,1,2,3,4,5,6,7,8,9,10,11,12,13,14,15,16,17,18,19,20,21,22,23,24,25,26,27,28,29,30,31,32,33,34,35,36,37,38,39,40,41,42,43,44,45,46,47,48,49,50,51,52,53,54,55,56,57,58,59,60,61,62,63,64,65,66,67,68,69,70,71,72,73,74,75,76,77,78,79,80,81,82,83,84,85,86,87,88,89,90,91,92,93,94,95,96,97,98,99,100,101,102,103,104,105,106,107,108,109,110,111,112,113,114,115,116,117,118,119,120,121,122,123,124,125,126,127,128,129,130,131,132,133,134,135,136,137,138,139,140,141,142,143,144,145,146,147,148,149,150,151,152,153,154,155,156,157,158,159,160,161,162,163,164,165,166,167,168,169,170,171,172,173,174,175,176,177,178,179,180,181,182,183,184,185,186,187,188,189,190,191,192,193,194,195,196,197,198,199,200,201,202,203,204,205,206,207,208,209,210,211,212,213,214,215,216,217,218,219,220,221,222,223,224,225,226,227,228,229,230,231,232,233,234,235,236,237,238,239,240,241,242,243,244,245,246,247,248,249,250,251,252,253,254,255,256,257,258,259,260,261,262,263,264,265,266,267,268,269,270,271,272,273,274,275,276,277,278,279,280,281,282,283,284,285,286,287,288,289,290,291,292,293,294,295,296,297,298,299,300,301,302,303,304,305,306,307,308,309,310,311,312,313,314,315,316,317,318,319,320,321,322,323,324,325,326,327,328,329,330,331,332,333,334,335,336,337,338,339,340,341,342,343,344,345,346,347,348,349,350,351,352,353,354,355,356,357,358,359,360,361,362,363,364,365,366,367,368,369,370,371,372,373,374,375,376,377,378,379,380,381,382,383,384,385,386,387,388,389,390,391,392,393,394,395,396,397,398,399,400,401,402,403,404,405,406,407,408,409,410,411,412,413,414,415,416,417,418,419,420,421,422,423,424,425,426,427,428,429,430,431,432,433,434,435,436,437,438,439,440,441,442,443,444,445,446,447,448,449,450,451,452,453,454,455,456,457,458,459,460,461,462,463,464,465,466,467,468,469,470,471,472,473,474,475,476,477,478,479,480,481,482,483,484,485,486,487,488,489,490,491,492,493,494,495,496,497,498,499,500],"tree_info":[0,0,0,0,0,0,0,0,0,0,0,0,0,0,0,0,0,0,0,0,0,0,0,0,0,0,0,0,0,0,0,0,0,0,0,0,0,0,0,0,0,0,0,0,0,0,0,0,0,0,0,0,0,0,0,0,0,0,0,0,0,0,0,0,0,0,0,0,0,0,0,0,0,0,0,0,0,0,0,0,0,0,0,0,0,0,0,0,0,0,0,0,0,0,0,0,0,0,0,0,0,0,0,0,0,0,0,0,0,0,0,0,0,0,0,0,0,0,0,0,0,0,0,0,0,0,0,0,0,0,0,0,0,0,0,0,0,0,0,0,0,0,0,0,0,0,0,0,0,0,0,0,0,0,0,0,0,0,0,0,0,0,0,0,0,0,0,0,0,0,0,0,0,0,0,0,0,0,0,0,0,0,0,0,0,0,0,0,0,0,0,0,0,0,0,0,0,0,0,0,0,0,0,0,0,0,0,0,0,0,0,0,0,0,0,0,0,0,0,0,0,0,0,0,0,0,0,0,0,0,0,0,0,0,0,0,0,0,0,0,0,0,0,0,0,0,0,0,0,0,0,0,0,0,0,0,0,0,0,0,0,0,0,0,0,0,0,0,0,0,0,0,0,0,0,0,0,0,0,0,0,0,0,0,0,0,0,0,0,0,0,0,0,0,0,0,0,0,0,0,0,0,0,0,0,0,0,0,0,0,0,0,0,0,0,0,0,0,0,0,0,0,0,0,0,0,0,0,0,0,0,0,0,0,0,0,0,0,0,0,0,0,0,0,0,0,0,0,0,0,0,0,0,0,0,0,0,0,0,0,0,0,0,0,0,0,0,0,0,0,0,0,0,0,0,0,0,0,0,0,0,0,0,0,0,0,0,0,0,0,0,0,0,0,0,0,0,0,0,0,0,0,0,0,0,0,0,0,0,0,0,0,0,0,0,0,0,0,0,0,0,0,0,0,0,0,0,0,0,0,0,0,0,0,0,0,0,0,0,0,0,0,0,0,0,0,0,0,0,0,0,0,0,0,0,0,0,0,0,0,0,0,0,0,0,0,0,0,0,0,0,0,0,0,0,0,0,0,0,0,0,0,0,0,0,0,0,0,0,0,0,0,0,0,0,0,0,0,0,0],"trees":[{"base_weights":[1.3382845E-2,6.2849873E-1,-3.7438148E-1,1.2815276E-1,8.353259E-1,-5.045694E-1,-1.5021034E-1,2.5478056E-1,-4.4170168E-1,9.9784416E-1,3.011962E-1,-4.6819115E-1,-7.3196954E-1,-2.9784324E-2,-3.5059053E-1,6.27585E-1,1.8120225E-1,-3.2355142E-1,-6.8731785E-1,1.285597E0,8.689721E-1,-2.6134306E-1,4.0165082E-1,-9.722475E-2,-4.7946504E-1,-4.5505068E-1,-7.509379E-1,1.6746284E-1,-2.5165668E-1,5.0504524E-1,-3.7369788E-1,6.724134E-1,-2.5776643E-2,5.1065725E-1,7.385297E-2,-3.8007957E-1,1.1891288E-2,-4.1933473E-2,-2.1556625E-2,-5.2699327E-2,1.3115052E0,9.434143E-1,-3.953864E-1,1.9864255E-1,-4.5126206E-1,4.8425543E-1,-4.991685E-1,3.7820384E-1,-4.1800535E-1,-4.964502E-1,-2.2621675E-1,-3.548963E-2,-2.0808496E-1,-4.65914E-3,-3.778019E-2,3.0261928E-1,-7.5498804E-2,1.5008831E-1,-3.7116364E-1,5.776143E-3,3.3546288E-2,-2.2629079E-1,-4.629078E-1,-8.089143E-3,3.5003975E-2,3.4640368E-2,1.3194884E-2,-1.1039018E-2,6.751767E-3,-2.7755482E-2,-7.4238195E-3,2.735336E-2,-2.1748861E-2,7.082288E-2,5.1786732E-2,5.387288E-2,3.0675638E-2,-2.9506272E-2,4.8487816E-2,-1.6186286E-3,2.188754E-2,-4.047366E-3,-3.6970954E-2,-1.7264357E-2,2.6797682E-2,1.2906146E-2,-3.382195E-2,2.339454E-2,-1.2966645E-2,-3.97353E-3,-3.0658958E-2,-2.4149066E-2,-4.295738E-2,-1.4825587E-2,1.8692298E-2,-1.0787189E-3,-1.7128715E-2,1.2339841E-2,3.7369534E-2,4.759556E-3,-1.9619832E-2,-1.4351532E-2,2.692149E-2,-1.9668732E-2,3.4641147E-2,6.7102176E-4,-1.5320911E-2,-2.7122587E-2,-3.809382E-3],"categories":[],"categories_nodes":[],"categories_segments":[],"categories_sizes":[],"default_left":[0,0,0,0,0,0,0,0,0,0,0,0,0,0,0,0,0,0,0,0,0,0,0,0,0,0,0,0,0,0,0,0,0,0,0,0,0,0,0,0,0,0,0,0,0,0,0,0,0,0,0,0,0,0,0,0,0,0,0,0,0,0,0,0,0,0,0,0,0,0,0,0,0,0,0,0,0,0,0,0,0,0,0,0,0,0,0,0,0,0,0,0,0,0,0,0,0,0,0,0,0,0,0,0,0,0,0,0,0],"id":0,"left_children":[1,3,5,7,9,11,13,15,17,19,21,23,25,27,29,31,33,35,37,39,41,43,45,47,49,51,53,55,57,59,61,63,-1,65,67,69,-1,-1,-1,71,73,75,77,79,81,83,85,87,89,91,93,-1,95,-1,-1,97,99,101,103,-1,-1,105,107,-1,-1,-1,-1,-1,-1,-1,-1,-1,-1,-1,-1,-1,-1,-1,-1,-1,-1,-1,-1,-1,-1,-1,-1,-1,-1,-1,-1,-1,-1,-1,-1,-1,-1,-1,-1,-1,-1,-1,-1,-1,-1,-1,-1,-1,-1],"loss_changes":[5.965353E2,9.996307E1,4.4693054E1,2.0605812E1,5.9074615E1,7.681549E0,1.3623565E1,6.277545E0,1.2866364E0,1.8314514E1,9.203027E0,3.462265E0,3.5164642E-1,1.553449E1,4.380289E0,2.2939272E0,6.8941703E0,1.2645369E0,2.5880766E-1,5.616791E0,3.4727356E1,2.27364E0,1.0436144E1,4.123306E0,3.3890839E0,5.443404E-1,3.0400848E-1,6.1963587E0,8.073601E0,3.1017768E-1,2.6173325E0,9.6718216E-1,0E0,1.9746389E0,2.7157412E0,1.2958546E0,0E0,0E0,0E0,1.1550716E0,3.0769348E0,1.4595245E1,6.155056E0,4.560721E-1,1.8609047E0,5.5886745E0,1.7855501E0,7.503058E-1,1.00844E0,3.3075256E0,2.3464637E0,0E0,1.6819498E-1,0E0,0E0,2.8197622E0,3.715559E0,6.774852E0,3.3210888E0,0E0,0E0,1.5407076E0,3.8961105E0,0E0,0E0,0E0,0E0,0E0,0E0,0E0,0E0,0E0,0E0,0E0,0E0,0E0,0E0,0E0,0E0,0E0,0E0,0E0,0E0,0E0,0E0,0E0,0E0,0E0,0E0,0E0,0E0,0E0,0E0,0E0,0E0,0E0,0E0,0E0,0E0,0E0,0E0,0E0,0E0,0E0,0E0,0E0,0E0,0E0,0E0],"parents":[2147483647,0,0,1,1,2,2,3,3,4,4,5,5,6,6,7,7,8,8,9,9,10,10,11,11,12,12,13,13,14,14,15,15,16,16,17,17,18,18,19,19,20,20,21,21,22,22,23,23,24,24,25,25,26,26,27,27,28,28,29,29,30,30,31,31,33,33,34,34,35,35,39,39,40,40,41,41,42,42,43,43,44,44,45,45,46,46,47,47,48,48,49,49,50,50,52,52,55,55,56,56,57,57,58,58,61,61,62,62],"right_children":[2,4,6,8,10,12,14,16,18,20,22,24,26,28,30,32,34,36,38,40,42,44,46,48,50,52,54,56,58,60,62,64,-1,66,68,70,-1,-1,-1,72,74,76,78,80,82,84,86,88,90,92,94,-1,96,-1,-1,98,100,102,104,-1,-1,106,108,-1,-1,-1,-1,-1,-1,-1,-1,-1,-1,-1,-1,-1,-1,-1,-1,-1,-1,-1,-1,-1,-1,-1,-1,-1,-1,-1,-1,-1,-1,-1,-1,-1,-1,-1,-1,-1,-1,-1,-1,-1,-1,-1,-1,-1,-1],"split_conditions":[3.305785E-1,2.5906668E0,4.2333335E-1,1.1775E2,1E0,2.2857144E0,9.5238096E-1,8.3375E1,3.7142856E0,6.2E1,8.2051283E-1,3.8666666E-1,2.7866667E1,3E0,1.3571428E0,1.6E1,2E0,6.28E1,1.96875E0,8.9E-1,2.9833333E0,2.17E2,1.6E1,8E0,2.2608695E0,2.6322863E1,1.2549538E2,3.1020409E1,3E0,4.6E1,6.0727272E1,2.4448485E0,-2.5776643E-2,3.6389576E1,6.2E1,5.2E1,1.1891288E-2,-4.1933473E-2,-2.1556625E-2,3.0171428E0,8.2666665E-1,2.5833333E0,2.909294E1,5.6666665E0,1.3692307E1,8E0,1.92E2,7.0416664E1,1.92E2,1.5484712E0,3.3846154E0,-3.548963E-2,3.5099774E2,-4.65914E-3,-3.778019E-2,5E0,8.48E1,7.34E1,2.2469137E0,5.776143E-3,3.3546288E-2,4.2E1,6.6666665E0,-8.089143E-3,3.5003975E-2,3.4640368E-2,1.3194884E-2,-1.1039018E-2,6.751767E-3,-2.7755482E-2,-7.4238195E-3,2.735336E-2,-2.1748861E-2,7.082288E-2,5.1786732E-2,5.387288E-2,3.0675638E-2,-2.9506272E-2,4.8487816E-2,-1.6186286E-3,2.188754E-2,-4.047366E-3,-3.6970954E-2,-1.7264357E-2,2.6797682E-2,1.2906146E-2,-3.382195E-2,2.339454E-2,-1.2966645E-2,-3.97353E-3,-3.0658958E-2,-2.4149066E-2,-4.295738E-2,-1.4825587E-2,1.8692298E-2,-1.0787189E-3,-1.7128715E-2,1.2339841E-2,3.7369534E-2,4.759556E-3,-1.9619832E-2,-1.4351532E-2,2.692149E-2,-1.9668732E-2,3.4641147E-2,6.7102176E-4,-1.5320911E-2,-2.7122587E-2,-3.809382E-3],"split_indices":[64,45,118,39,61,63,63,129,33,129,106,64,40,92,105,103,6,9,58,44,45,128,103,104,87,40,22,40,61,2,129,45,0,40,9,2,0,0,0,4,46,33,15,75,27,92,128,9,37,121,105,0,22,0,0,32,129,9,58,0,0,1,28,0,0,0,0,0,0,0,0,0,0,0,0,0,0,0,0,0,0,0,0,0,0,0,0,0,0,0,0,0,0,0,0,0,0,0,0,0,0,0,0,0,0,0,0,0,0],"split_type":[0,0,0,0,0,0,0,0,0,0,0,0,0,0,0,0,0,0,0,0,0,0,0,0,0,0,0,0,0,0,0,0,0,0,0,0,0,0,0,0,0,0,0,0,0,0,0,0,0,0,0,0,0,0,0,0,0,0,0,0,0,0,0,0,0,0,0,0,0,0,0,0,0,0,0,0,0,0,0,0,0,0,0,0,0,0,0,0,0,0,0,0,0,0,0,0,0,0,0,0,0,0,0,0,0,0,0,0,0],"sum_hessian":[2.499E3,9.66E2,1.533E3,2.83E2,6.83E2,9.69E2,5.64E2,2.32E2,5.1E1,5.23E2,1.6E2,8.38E2,1.31E2,3.53E2,2.11E2,3.7E1,1.95E2,3.6E1,1.5E1,1.59E2,3.64E2,2.4E1,1.36E2,2.5E1,8.13E2,1E1,1.21E2,1.87E2,1.66E2,5E0,2.06E2,3.6E1,1E0,4.7E1,1.48E2,3.3E1,3E0,8E0,7E0,3E0,1.56E2,3.44E2,2E1,7E0,1.7E1,1.25E2,1.1E1,1E1,1.5E1,7.61E2,5.2E1,4E0,6E0,1E0,1.2E2,1.2E2,6.7E1,3.8E1,1.28E2,2E0,3E0,7.9E1,1.27E2,1E0,3.5E1,2.6E1,2.1E1,2.5E1,1.23E2,1.8E1,1.5E1,1E0,2E0,1.1E2,4.6E1,2.43E2,1.01E2,1.8E1,2E0,4E0,3E0,8E0,9E0,7E0,1.18E2,2E0,9E0,9E0,1E0,6E0,9E0,7.36E2,2.5E1,4.7E1,5E0,3E0,3E0,1.08E2,1.2E1,4.4E1,2.3E1,1.8E1,2E1,1.26E2,2E0,2E1,5.9E1,1.05E2,2.2E1],"tree_param":{"num_deleted":"0","num_feature":"132","num_nodes":"109","size_leaf_vector":"1"}},{"base_weights":[7.755047E-3,5.928187E-1,-3.5065368E-1,7.943308E-1,1.21719E-1,-4.783473E-1,-1.4738384E-1,9.214404E-1,3.3965346E-1,-1.5464395E-1,4.5029238E-1,-3.9104924E-1,-5.594773E-1,-5.745778E-2,-3.1362274E-1,1.1919758E0,6.525572E-1,-1.296566E-1,4.5708635E-1,7.5541865E-3,-5.1636803E-1,4.7990206E-1,-3.0119363E-2,-4.958104E-1,-2.9422873E-1,-5.2066696E-1,-6.866022E-1,1.3718069E-1,-2.7624503E-1,1.01006396E-1,-4.0340346E-1,1.256496E0,5.4555005E-1,7.1796495E-1,-2.7033463E-1,2.1773434E-1,-4.4723207E-1,5.435817E-1,-5.227721E-1,3.5272995E-1,-1.1185909E-1,-1.1660763E-1,-5.6014E-1,6.275472E-1,2.9343545E-1,-1.4215848E-1,-5.345829E-1,1.21343315E-1,-3.494276E-1,-5.7328105E-1,-3.802489E-1,-6.9589126E-1,-6.01153E-3,2.7606398E-1,-1.1428766E-1,-3.1071848E-1,3.5121733E-1,-3.006636E-1,5.185008E-1,-4.2612168E-1,2.961549E-1,4.6718877E-2,6.58373E-2,-2.8616354E-2,5.0603803E-2,4.8116695E-2,2.8054325E-2,-2.40423E-2,2.9333336E-2,-4.685702E-3,1.9141497E-2,7.946439E-3,-3.312649E-2,2.8532853E-2,-2.9713783E-2,-2.9638607E-2,2.680707E-3,2.5962705E-2,-6.424356E-3,1.2675747E-3,-1.2317071E-2,-1.0483063E-2,-8.832753E-4,-3.184799E-2,-1.953483E-2,-3.7970592E-3,3.3566676E-2,1.5767913E-2,-2.3904085E-2,1.4731717E-2,-1.2481096E-2,-2.9916499E-2,-1.994945E-2,-4.753077E-3,2.7100936E-2,-2.0715483E-2,2.1714042E-4,-2.9461756E-2,-1.4009535E-2,-1.1952847E-2,-2.3829695E-2,-1.9355759E-2,-3.58258E-2,9.9845E-3,3.2616433E-2,-1.5717873E-2,3.1815309E-3,-5.0386777E-3,-1.8734032E-2,-1.640358E-2,2.3157315E-2,2.5005937E-3,-3.6741193E-2,4.786109E-3,4.447147E-2,-3.7732977E-2,-1.9192817E-2,2.9997243E-2,-1.03808325E-2],"categories":[],"categories_nodes":[],"categories_segments":[],"categories_sizes":[],"default_left":[0,0,0,0,0,0,0,0,0,0,0,0,0,0,0,0,0,0,0,0,0,0,0,0,0,0,0,0,0,0,0,0,0,0,0,0,0,0,0,0,0,0,0,0,0,0,0,0,0,0,0,0,0,0,0,0,0,0,0,0,0,0,0,0,0,0,0,0,0,0,0,0,0,0,0,0,0,0,0,0,0,0,0,0,0,0,0,0,0,0,0,0,0,0,0,0,0,0,0,0,0,0,0,0,0,0,0,0,0,0,0,0,0,0,0,0,0,0,0],"id":1,"left_children":[1,3,5,7,9,11,13,15,17,19,21,23,25,27,29,31,33,35,37,39,41,43,-1,45,47,49,51,53,55,57,59,61,63,65,67,69,71,73,75,77,79,81,83,85,87,89,91,93,95,97,99,101,-1,103,105,107,109,111,113,115,117,-1,-1,-1,-1,-1,-1,-1,-1,-1,-1,-1,-1,-1,-1,-1,-1,-1,-1,-1,-1,-1,-1,-1,-1,-1,-1,-1,-1,-1,-1,-1,-1,-1,-1,-1,-1,-1,-1,-1,-1,-1,-1,-1,-1,-1,-1,-1,-1,-1,-1,-1,-1,-1,-1,-1,-1,-1,-1],"loss_changes":[5.210826E2,8.951941E1,3.9928085E1,3.7888763E1,2.5858402E1,6.481247E0,8.891707E0,3.6757294E1,8.105679E0,9.097902E0,4.341118E0,4.5097733E0,2.0501862E0,1.656065E1,7.820921E0,9.991608E0,1.5949173E1,3.407063E0,1.0200296E1,4.4910617E0,7.74601E-1,3.3122807E0,0E0,2.9269295E0,5.5707264E0,2.5746613E0,5.003128E-1,7.226049E0,4.067563E0,6.528303E0,2.859747E0,3.2722473E0,1.3617205E1,8.814079E0,3.5294502E0,8.071579E-1,2.193375E0,3.6663837E0,4.3525147E-1,2.3104768E0,1.5008893E0,5.1537775E-2,3.1085587E-1,2.207203E0,1.1317677E0,1.1531503E0,1.4640808E0,2.691575E0,4.8908596E0,1.1114426E0,1.3280001E0,4.1678238E-1,0E0,3.6917353E0,2.6541123E0,2.2988071E0,9.12266E-1,3.0817366E0,2.8944545E0,2.0292454E0,1.0428028E0,0E0,0E0,0E0,0E0,0E0,0E0,0E0,0E0,0E0,0E0,0E0,0E0,0E0,0E0,0E0,0E0,0E0,0E0,0E0,0E0,0E0,0E0,0E0,0E0,0E0,0E0,0E0,0E0,0E0,0E0,0E0,0E0,0E0,0E0,0E0,0E0,0E0,0E0,0E0,0E0,0E0,0E0,0E0,0E0,0E0,0E0,0E0,0E0,0E0,0E0,0E0,0E0,0E0,0E0,0E0,0E0,0E0,0E0],"parents":[2147483647,0,0,1,1,2,2,3,3,4,4,5,5,6,6,7,7,8,8,9,9,10,10,11,11,12,12,13,13,14,14,15,15,16,16,17,17,18,18,19,19,20,20,21,21,23,23,24,24,25,25,26,26,27,27,28,28,29,29,30,30,31,31,32,32,33,33,34,34,35,35,36,36,37,37,38,38,39,39,40,40,41,41,42,42,43,43,44,44,45,45,46,46,47,47,48,48,49,49,50,50,51,51,53,53,54,54,55,55,56,56,57,57,58,58,59,59,60,60],"right_children":[2,4,6,8,10,12,14,16,18,20,22,24,26,28,30,32,34,36,38,40,42,44,-1,46,48,50,52,54,56,58,60,62,64,66,68,70,72,74,76,78,80,82,84,86,88,90,92,94,96,98,100,102,-1,104,106,108,110,112,114,116,118,-1,-1,-1,-1,-1,-1,-1,-1,-1,-1,-1,-1,-1,-1,-1,-1,-1,-1,-1,-1,-1,-1,-1,-1,-1,-1,-1,-1,-1,-1,-1,-1,-1,-1,-1,-1,-1,-1,-1,-1,-1,-1,-1,-1,-1,-1,-1,-1,-1,-1,-1,-1,-1,-1,-1,-1,-1,-1],"split_conditions":[3.305785E-1,1.00416664E2,4.16455E-1,1E0,2.5454545E0,9.285714E-1,3E0,8.472E1,8.75E-1,1.181E2,1.4E1,1.94E0,2.3076923E0,1E0,3E0,3.0814285E0,2.8191667E0,2.27E2,1E1,4E0,1.9679907E1,9.20983E1,-3.0119363E-2,2E0,2.29E2,1.7864889E-1,2.8028214E1,3.1020409E1,3.09E0,7.34E1,2.2469137E0,2.7E0,3.4814816E0,3.1121107E1,2E0,2.14E0,2.6E1,3.1257143E0,9.4E1,1.2345679E0,1.04333336E2,6.4E1,8.4E1,2.6875E0,2.2533333E-5,6E0,1.9529411E1,1.27E0,1.06049385E2,2.677686E0,7.209091E1,1.7E0,-6.01153E-3,2.27E2,2.7E0,6.6481996E-1,1.5666667E1,2.2533333E-5,7E0,4E0,2.8841667E0,4.6718877E-2,6.58373E-2,-2.8616354E-2,5.0603803E-2,4.8116695E-2,2.8054325E-2,-2.40423E-2,2.9333336E-2,-4.685702E-3,1.9141497E-2,7.946439E-3,-3.312649E-2,2.8532853E-2,-2.9713783E-2,-2.9638607E-2,2.680707E-3,2.5962705E-2,-6.424356E-3,1.2675747E-3,-1.2317071E-2,-1.0483063E-2,-8.832753E-4,-3.184799E-2,-1.953483E-2,-3.7970592E-3,3.3566676E-2,1.5767913E-2,-2.3904085E-2,1.4731717E-2,-1.2481096E-2,-2.9916499E-2,-1.994945E-2,-4.753077E-3,2.7100936E-2,-2.0715483E-2,2.1714042E-4,-2.9461756E-2,-1.4009535E-2,-1.1952847E-2,-2.3829695E-2,-1.9355759E-2,-3.58258E-2,9.9845E-3,3.2616433E-2,-1.5717873E-2,3.1815309E-3,-5.0386777E-3,-1.8734032E-2,-1.640358E-2,2.3157315E-2,2.5005937E-3,-3.6741193E-2,4.786109E-3,4.447147E-2,-3.7732977E-2,-1.9192817E-2,2.9997243E-2,-1.03808325E-2],"split_indices":[64,39,118,61,57,63,91,130,106,39,104,76,63,63,61,45,45,127,104,0,111,130,0,91,127,118,111,40,44,9,58,45,57,40,48,44,1,45,7,88,129,1,8,57,121,0,3,42,130,94,9,105,0,128,45,88,3,121,73,91,45,0,0,0,0,0,0,0,0,0,0,0,0,0,0,0,0,0,0,0,0,0,0,0,0,0,0,0,0,0,0,0,0,0,0,0,0,0,0,0,0,0,0,0,0,0,0,0,0,0,0,0,0,0,0,0,0,0,0],"split_type":[0,0,0,0,0,0,0,0,0,0,0,0,0,0,0,0,0,0,0,0,0,0,0,0,0,0,0,0,0,0,0,0,0,0,0,0,0,0,0,0,0,0,0,0,0,0,0,0,0,0,0,0,0,0,0,0,0,0,0,0,0,0,0,0,0,0,0,0,0,0,0,0,0,0,0,0,0,0,0,0,0,0,0,0,0,0,0,0,0,0,0,0,0,0,0,0,0,0,0,0,0,0,0,0,0,0,0,0,0,0,0,0,0,0,0,0,0,0,0],"sum_hessian":[2.483E3,9.43E2,1.54E3,6.6E2,2.83E2,9.45E2,5.95E2,5.15E2,1.45E2,1.54E2,1.29E2,4.58E2,4.87E2,3.87E2,2.08E2,2.55E2,2.6E2,2.9E1,1.16E2,1.07E2,4.7E1,1.26E2,3E0,2.18E2,2.4E2,3.77E2,1.1E2,2.05E2,1.82E2,3.7E1,1.71E2,2.31E2,2.4E1,2.43E2,1.7E1,1.4E1,1.5E1,1.07E2,9E0,2.7E1,8E1,5E0,4.2E1,6.9E1,5.7E1,2.2E1,1.96E2,2.8E1,2.12E2,2.72E2,1.05E2,1.08E2,2E0,1.32E2,7.3E1,1.73E2,9E0,1.9E1,1.8E1,1.66E2,5E0,3.9E1,1.92E2,7E0,1.7E1,9.3E1,1.5E2,1.4E1,3E0,5E0,9E0,4E0,1.1E1,1.05E2,2E0,8E0,1E0,2E1,7E0,4E1,4E1,2E0,3E0,2.7E1,1.5E1,4E0,6.5E1,5.6E1,1E0,4E0,1.8E1,1.31E2,6.5E1,1.9E1,9E0,1.79E2,3.3E1,2.57E2,1.5E1,4.4E1,6.1E1,8E0,1E2,1.11E2,2.1E1,3.4E1,3.9E1,4.1E1,1.32E2,1E0,8E0,1.1E1,8E0,9E0,9E0,1.7E1,1.49E2,3E0,2E0],"tree_param":{"num_deleted":"0","num_feature":"132","num_nodes":"119","size_leaf_vector":"1"}},{"base_weights":[-1.9416847E-3,5.4175866E-1,-3.4179753E-1,7.260217E-1,1.4164627E-1,-4.7081363E-1,-1.2944381E-1,8.553726E-1,2.7712792E-1,-1.1764738E-1,4.2499828E-1,-3.783613E-1,-5.4433906E-1,-3.312355E-2,-2.8462186E-1,1.203407E0,6.88942E-1,-3.4089273E-1,3.599313E-1,3.6486623E-1,-2.235653E-1,6.665647E-1,2.7858973E-1,-2.6031432E-1,-4.8018068E-1,-5.08112E-1,-6.5245134E-1,1.2614195E-1,-2.2757691E-1,-6.692975E-2,-3.6120242E-1,-2.2710688E-2,1.2268198E0,-5.377112E-1,7.5395966E-1,-5.137812E-1,3.9266217E-1,4.4590196E-1,-4.5471802E-1,4.629469E-1,-9.522574E-3,-1.00468874E-1,-4.8202035E-1,7.0410365E-1,2.1302104E-2,-2.730552E-2,3.029843E-1,-3.0997315E-1,4.1478008E-2,-5.147449E-1,8.245587E-2,-5.223122E-1,-2.403849E-1,-5.682672E-1,-7.342589E-1,2.4131262E-1,-7.437376E-2,2.69426E-1,-3.4724498E-1,9.1972575E-2,-2.3448294E-1,6.588546E-2,-4.015032E-1,6.697478E-2,5.432524E-2,-1.895495E-2,-3.1334553E-2,5.041593E-2,3.0251076E-2,-5.3950865E-3,-3.5296537E-2,5.018377E-3,2.2831893E-2,-2.6395315E-2,2.466218E-2,-2.7426256E-2,1.6774178E-2,2.6121313E-2,-5.3862096E-3,-9.01711E-3,1.39175495E-2,2.7857525E-3,-1.36238625E-2,-2.8989092E-2,-1.336988E-2,3.6263715E-2,-8.860749E-3,1.5824055E-2,-9.12923E-3,1.053391E-2,2.8935889E-2,1.2063712E-2,-1.674866E-2,-2.5906289E-2,6.29878E-3,-2.00271E-2,-2.9202243E-2,1.5253529E-2,-2.7517427E-2,-2.4050755E-2,-3.0268213E-2,-3.13943E-2,-5.96955E-3,-2.4514196E-2,-3.342638E-2,-3.7173014E-2,-4.324347E-3,9.079294E-3,3.5307813E-2,-2.9803757E-2,-9.3787967E-4,2.3838019E-2,-2.0608617E-2,-3.8040556E-2,-1.4761753E-2,1.2741712E-2,-7.6565403E-3,1.7051745E-2,-1.4487241E-2,2.0108184E-2,-4.6478934E-3,-1.7109904E-2,-3.0069862E-2],"categories":[],"categories_nodes":[],"categories_segments":[],"categories_sizes":[],"default_left":[0,0,0,0,0,0,0,0,0,0,0,0,0,0,0,0,0,0,0,0,0,0,0,0,0,0,0,0,0,0,0,0,0,0,0,0,0,0,0,0,0,0,0,0,0,0,0,0,0,0,0,0,0,0,0,0,0,0,0,0,0,0,0,0,0,0,0,0,0,0,0,0,0,0,0,0,0,0,0,0,0,0,0,0,0,0,0,0,0,0,0,0,0,0,0,0,0,0,0,0,0,0,0,0,0,0,0,0,0,0,0,0,0,0,0,0,0,0,0,0,0,0,0],"id":2,"left_children":[1,3,5,7,9,11,13,15,17,19,21,23,25,27,29,31,33,35,37,39,41,43,45,47,49,51,53,55,57,59,61,-1,63,65,67,69,71,73,75,77,79,81,83,85,87,-1,89,91,93,95,97,99,101,103,105,107,109,111,113,115,117,119,121,-1,-1,-1,-1,-1,-1,-1,-1,-1,-1,-1,-1,-1,-1,-1,-1,-1,-1,-1,-1,-1,-1,-1,-1,-1,-1,-1,-1,-1,-1,-1,-1,-1,-1,-1,-1,-1,-1,-1,-1,-1,-1,-1,-1,-1,-1,-1,-1,-1,-1,-1,-1,-1,-1,-1,-1,-1,-1,-1,-1],"loss_changes":[4.597324E2,7.045285E1,4.188394E1,3.779544E1,2.2311827E1,6.2653503E0,8.659712E0,2.85961E1,7.6964808E0,8.207558E0,4.9425735E0,4.9832764E0,1.7364349E0,1.1146834E1,3.6767826E0,6.8831787E0,2.800035E1,2.4845598E0,9.377468E0,1.0692973E0,4.1193233E0,1.2930145E0,2.016337E0,2.9952002E0,4.4569244E0,1.3951569E0,4.7115707E-1,4.5904665E0,9.728568E0,1.5924169E0,2.8492165E0,0E0,1.0900421E0,1.6461372E-2,1.1853699E1,1.0936723E0,2.896732E-2,5.7464848E0,1.1476655E0,8.369703E-1,3.944196E-1,2.4330258E0,7.262049E-1,1.0800934E0,2.985169E-1,0E0,2.168746E0,2.4374084E0,1.436541E0,1.4597206E0,2.140097E0,1.0087128E0,9.565121E-1,2.0389938E-1,3.0524445E-1,3.3699856E0,2.1069164E0,4.718709E0,2.5931292E0,1.2764792E0,1.0211347E0,8.3861756E-1,1.5724125E0,0E0,0E0,0E0,0E0,0E0,0E0,0E0,0E0,0E0,0E0,0E0,0E0,0E0,0E0,0E0,0E0,0E0,0E0,0E0,0E0,0E0,0E0,0E0,0E0,0E0,0E0,0E0,0E0,0E0,0E0,0E0,0E0,0E0,0E0,0E0,0E0,0E0,0E0,0E0,0E0,0E0,0E0,0E0,0E0,0E0,0E0,0E0,0E0,0E0,0E0,0E0,0E0,0E0,0E0,0E0,0E0,0E0,0E0,0E0,0E0],"parents":[2147483647,0,0,1,1,2,2,3,3,4,4,5,5,6,6,7,7,8,8,9,9,10,10,11,11,12,12,13,13,14,14,15,15,16,16,17,17,18,18,19,19,20,20,21,21,22,22,23,23,24,24,25,25,26,26,27,27,28,28,29,29,30,30,32,32,33,33,34,34,35,35,36,36,37,37,38,38,39,39,40,40,41,41,42,42,43,43,44,44,46,46,47,47,48,48,49,49,50,50,51,51,52,52,53,53,54,54,55,55,56,56,57,57,58,58,59,59,60,60,61,61,62,62],"right_children":[2,4,6,8,10,12,14,16,18,20,22,24,26,28,30,32,34,36,38,40,42,44,46,48,50,52,54,56,58,60,62,-1,64,66,68,70,72,74,76,78,80,82,84,86,88,-1,90,92,94,96,98,100,102,104,106,108,110,112,114,116,118,120,122,-1,-1,-1,-1,-1,-1,-1,-1,-1,-1,-1,-1,-1,-1,-1,-1,-1,-1,-1,-1,-1,-1,-1,-1,-1,-1,-1,-1,-1,-1,-1,-1,-1,-1,-1,-1,-1,-1,-1,-1,-1,-1,-1,-1,-1,-1,-1,-1,-1,-1,-1,-1,-1,-1,-1,-1,-1,-1,-1,-1],"split_conditions":[3.305785E-1,1.00416664E2,4.16455E-1,1E0,2.5454545E0,8.5714287E-1,1E0,7.753846E1,3.3333334E-1,2E0,3.259849E2,9.375E-1,2.3076923E0,3E0,5.4351852E1,4.6153846E-1,6.796875E-1,2.442E1,4E0,1.112E2,1.181E2,9.20983E1,3.3448E2,8.4615386E-1,2.808875E-4,2.368421E0,9.55E1,3.0938606E1,3E0,1.83E0,1.5384616E0,-2.2710688E-2,4.3015E1,5.44E0,8.810884E1,2.724138E0,1.8E1,1.555275E2,1.711111E1,1.3081286E0,7.619048E-1,1.05E2,1E1,1.5789473E-1,1.0896552E1,-2.730552E-2,2.675E0,3E0,9.5E-1,1.96E2,4E0,9.339645E1,2.01E0,6.28125E1,3.084E1,5E0,2E0,8.2947365E1,4E0,2.3529413E0,1.2E2,1.0644286E0,1.66E0,6.697478E-2,5.432524E-2,-1.895495E-2,-3.1334553E-2,5.041593E-2,3.0251076E-2,-5.3950865E-3,-3.5296537E-2,5.018377E-3,2.2831893E-2,-2.6395315E-2,2.466218E-2,-2.7426256E-2,1.6774178E-2,2.6121313E-2,-5.3862096E-3,-9.01711E-3,1.39175495E-2,2.7857525E-3,-1.36238625E-2,-2.8989092E-2,-1.336988E-2,3.6263715E-2,-8.860749E-3,1.5824055E-2,-9.12923E-3,1.053391E-2,2.8935889E-2,1.2063712E-2,-1.674866E-2,-2.5906289E-2,6.29878E-3,-2.00271E-2,-2.9202243E-2,1.5253529E-2,-2.7517427E-2,-2.4050755E-2,-3.0268213E-2,-3.13943E-2,-5.96955E-3,-2.4514196E-2,-3.342638E-2,-3.7173014E-2,-4.324347E-3,9.079294E-3,3.5307813E-2,-2.9803757E-2,-9.3787967E-4,2.3838019E-2,-2.0608617E-2,-3.8040556E-2,-1.4761753E-2,1.2741712E-2,-7.6565403E-3,1.7051745E-2,-1.4487241E-2,2.0108184E-2,-4.6478934E-3,-1.7109904E-2,-3.0069862E-2],"split_indices":[64,39,118,61,57,63,63,130,93,6,22,93,63,91,130,28,88,10,97,39,39,130,22,93,123,87,39,40,61,42,105,0,109,75,130,57,2,21,4,88,99,129,74,63,3,0,45,61,47,37,61,130,76,129,10,32,104,129,91,105,37,117,42,0,0,0,0,0,0,0,0,0,0,0,0,0,0,0,0,0,0,0,0,0,0,0,0,0,0,0,0,0,0,0,0,0,0,0,0,0,0,0,0,0,0,0,0,0,0,0,0,0,0,0,0,0,0,0,0,0,0,0,0],"split_type":[0,0,0,0,0,0,0,0,0,0,0,0,0,0,0,0,0,0,0,0,0,0,0,0,0,0,0,0,0,0,0,0,0,0,0,0,0,0,0,0,0,0,0,0,0,0,0,0,0,0,0,0,0,0,0,0,0,0,0,0,0,0,0,0,0,0,0,0,0,0,0,0,0,0,0,0,0,0,0,0,0,0,0,0,0,0,0,0,0,0,0,0,0,0,0,0,0,0,0,0,0,0,0,0,0,0,0,0,0,0,0,0,0,0,0,0,0,0,0,0,0,0,0],"sum_hessian":[2.486E3,9.56E2,1.53E3,6.54E2,3.02E2,9.51E2,5.79E2,5.07E2,1.47E2,1.58E2,1.44E2,4.24E2,5.27E2,3.58E2,2.21E2,1.62E2,3.45E2,1.7E1,1.3E2,2.8E1,1.3E2,5.3E1,9.1E1,1.98E2,2.26E2,3.99E2,1.28E2,1.97E2,1.61E2,5.8E1,1.63E2,2E0,1.6E2,1.7E1,3.28E2,1.4E1,3E0,1.18E2,1.2E1,2.2E1,6E0,8.9E1,4.1E1,5E1,3E0,2E0,8.9E1,1.7E2,2.8E1,2.13E2,1.3E1,3.78E2,2.1E1,6.7E1,6.1E1,1.25E2,7.2E1,3.1E1,1.3E2,3E1,2.8E1,1.4E1,1.49E2,8.4E1,7.6E1,8E0,9E0,1.19E2,2.09E2,5E0,9E0,1E0,2E0,5E0,1.13E2,1.1E1,1E0,2E1,2E0,4E0,2E0,4.7E1,4.2E1,2.7E1,1.4E1,4.9E1,1E0,1E0,2E0,6.8E1,2.1E1,7E0,1.63E2,3E0,2.5E1,8.3E1,1.3E2,1E1,3E0,2.57E2,1.21E2,4E0,1.7E1,4.1E1,2.6E1,6E1,1E0,1.12E2,1.3E1,6E0,6.6E1,2.4E1,7E0,1.3E1,1.17E2,1.8E1,1.2E1,2E0,2.6E1,4E0,1E1,1.17E2,3.2E1],"tree_param":{"num_deleted":"0","num_feature":"132","num_nodes":"123","size_leaf_vector":"1"}},{"base_weights":[5.8584297E-3,5.4000175E-1,-3.2371584E-1,7.2016037E-1,1.22306764E-1,-4.4081262E-1,-1.3636784E-1,8.3766365E-1,2.5770074E-1,-1.3478258E-1,4.3066758E-1,-3.6317137E-1,-5.10647E-1,-4.5553096E-2,-3.0610424E-1,1.0689342E0,6.1177653E-1,-1.089137E-1,4.0845066E-1,-4.6902746E-3,-4.2938578E-1,4.5859593E-1,-2.9233536E-2,-4.6400955E-1,-2.7550656E-1,-7.1901195E-2,-5.2120197E-1,1.2656023E-1,-2.2728983E-1,2.7548365E-2,-3.6404157E-1,4.2295536E-1,1.1407421E0,-2.1451062E-2,6.446916E-1,5.5155754E-3,-3.327505E-2,4.8635024E-1,-4.1592863E-1,3.1060836E-1,-9.886354E-2,-5.1885384E-1,-1.9200125E-1,5.035005E-1,-2.0106551E-1,-1.226827E-1,-4.9892545E-1,1.2639119E-1,-3.272317E-1,-1.6171761E-1,2.8139272E-1,-4.9798417E-1,-7.2094715E-1,2.5047147E-1,-9.753474E-2,-2.6577643E-1,2.8102377E-1,1.491992E-1,-3.2960303E-2,-4.1333115E-1,-4.388444E-2,4.680208E-2,-1.6958155E-2,6.379399E-2,4.8656028E-2,4.04211E-2,2.1937473E-2,-9.295573E-3,2.2003781E-2,1.9707067E-2,5.264316E-2,-2.748469E-2,1.6354823E-2,2.1051334E-2,-1.1867693E-2,2.6619742E-3,-9.8721795E-3,-1.2891366E-2,-2.9332295E-2,-1.7115594E-3,-1.6288558E-2,3.320051E-2,1.9140655E-2,8.172691E-3,-1.3353108E-2,-2.5583599E-2,-5.2872823E-5,-2.8128877E-2,-1.7650368E-2,1.7517304E-2,-8.809766E-3,-1.896899E-2,1.4654316E-3,4.275441E-3,-1.13078905E-2,3.0771734E-3,1.8027281E-2,-2.6894182E-2,-1.9819278E-2,-3.8594916E-2,2.2614093E-3,-4.405125E-3,1.5613476E-2,-3.2421764E-2,-2.810043E-3,-1.2319804E-3,-1.6107446E-2,-2.3011955E-2,2.2146042E-2,-2.894552E-2,1.6632697E-2,-3.7248578E-2,-1.8623853E-2,-2.3163138E-2,7.247198E-3],"categories":[],"categories_nodes":[],"categories_segments":[],"categories_sizes":[],"default_left":[0,0,0,0,0,0,0,0,0,0,0,0,0,0,0,0,0,0,0,0,0,0,0,0,0,0,0,0,0,0,0,0,0,0,0,0,0,0,0,0,0,0,0,0,0,0,0,0,0,0,0,0,0,0,0,0,0,0,0,0,0,0,0,0,0,0,0,0,0,0,0,0,0,0,0,0,0,0,0,0,0,0,0,0,0,0,0,0,0,0,0,0,0,0,0,0,0,0,0,0,0,0,0,0,0,0,0,0,0,0,0,0,0,0,0],"id":3,"left_children":[1,3,5,7,9,11,13,15,17,19,21,23,25,27,29,31,33,35,37,39,41,43,-1,45,47,49,51,53,55,57,59,61,63,-1,65,67,-1,69,71,73,75,77,79,81,83,85,87,89,91,93,95,97,99,101,103,105,107,109,-1,111,113,-1,-1,-1,-1,-1,-1,-1,-1,-1,-1,-1,-1,-1,-1,-1,-1,-1,-1,-1,-1,-1,-1,-1,-1,-1,-1,-1,-1,-1,-1,-1,-1,-1,-1,-1,-1,-1,-1,-1,-1,-1,-1,-1,-1,-1,-1,-1,-1,-1,-1,-1,-1,-1,-1],"loss_changes":[4.4520364E2,7.252948E1,3.4250687E1,3.6409637E1,2.3206722E1,5.030548E0,9.28104E0,2.7399506E1,7.671344E0,6.130084E0,4.039572E0,3.9297066E0,2.296524E0,1.2352815E1,4.069525E0,1.1763489E1,9.663254E0,2.614956E0,6.4957314E0,3.3562906E0,9.4105816E-1,3.9520702E0,0E0,2.4653473E0,5.1968346E0,4.5801693E-1,1.922699E0,5.6613092E0,3.8308363E0,2.771769E0,2.8065548E0,1.126638E1,4.126953E0,0E0,8.614548E0,2.993344E0,0E0,4.2864037E0,1.074321E0,1.673064E0,1.3150179E0,4.680891E-1,3.0542177E-1,2.1091328E0,2.601658E-1,9.9298805E-1,1.5847015E0,2.0269356E0,4.1015587E0,1.9458297E-1,3.0015886E-2,1.586647E0,1.947752E0,2.7684526E0,1.6258295E0,2.4252958E0,1.8839654E0,3.9326808E0,0E0,1.8225899E0,2.0469105E0,0E0,0E0,0E0,0E0,0E0,0E0,0E0,0E0,0E0,0E0,0E0,0E0,0E0,0E0,0E0,0E0,0E0,0E0,0E0,0E0,0E0,0E0,0E0,0E0,0E0,0E0,0E0,0E0,0E0,0E0,0E0,0E0,0E0,0E0,0E0,0E0,0E0,0E0,0E0,0E0,0E0,0E0,0E0,0E0,0E0,0E0,0E0,0E0,0E0,0E0,0E0,0E0,0E0,0E0],"parents":[2147483647,0,0,1,1,2,2,3,3,4,4,5,5,6,6,7,7,8,8,9,9,10,10,11,11,12,12,13,13,14,14,15,15,16,16,17,17,18,18,19,19,20,20,21,21,23,23,24,24,25,25,26,26,27,27,28,28,29,29,30,30,31,31,32,32,34,34,35,35,37,37,38,38,39,39,40,40,41,41,42,42,43,43,44,44,45,45,46,46,47,47,48,48,49,49,50,50,51,51,52,52,53,53,54,54,55,55,56,56,57,57,59,59,60,60],"right_children":[2,4,6,8,10,12,14,16,18,20,22,24,26,28,30,32,34,36,38,40,42,44,-1,46,48,50,52,54,56,58,60,62,64,-1,66,68,-1,70,72,74,76,78,80,82,84,86,88,90,92,94,96,98,100,102,104,106,108,110,-1,112,114,-1,-1,-1,-1,-1,-1,-1,-1,-1,-1,-1,-1,-1,-1,-1,-1,-1,-1,-1,-1,-1,-1,-1,-1,-1,-1,-1,-1,-1,-1,-1,-1,-1,-1,-1,-1,-1,-1,-1,-1,-1,-1,-1,-1,-1,-1,-1,-1,-1,-1,-1,-1,-1,-1],"split_conditions":[3.305785E-1,1.00416664E2,4.16455E-1,1E0,2.5454545E0,9.285714E-1,3E0,8.472E1,8.61678E-1,1.181E2,1.6E1,1.94E0,6.144E-1,9.677419E-1,3E0,5.222E-1,1.0187755E0,1.224E1,1.6E1,4E0,8E0,2.4983564E-1,-2.9233536E-2,2.6530612E-1,2.17E2,1.12E1,2.2533333E-5,3.1020409E1,3.09E0,4.1E0,6.4444447E0,7.644444E1,7.911111E-1,-2.1451062E-2,3.3438015E1,2.5365853E0,-3.327505E-2,1.7E1,1.711111E1,1.2345679E0,9.232E1,3.259849E2,2.6222221E1,3.3549E2,4.1E1,1.87E2,1.3017751E0,8.601125E0,1.06049385E2,9.333333E0,3.1E1,1.8465778E-1,3.6363637E0,1.890625E1,2E0,3E1,1.5444445E1,6.4074073E0,-3.2960303E-2,4E0,3.7E1,4.680208E-2,-1.6958155E-2,6.379399E-2,4.8656028E-2,4.04211E-2,2.1937473E-2,-9.295573E-3,2.2003781E-2,1.9707067E-2,5.264316E-2,-2.748469E-2,1.6354823E-2,2.1051334E-2,-1.1867693E-2,2.6619742E-3,-9.8721795E-3,-1.2891366E-2,-2.9332295E-2,-1.7115594E-3,-1.6288558E-2,3.320051E-2,1.9140655E-2,8.172691E-3,-1.3353108E-2,-2.5583599E-2,-5.2872823E-5,-2.8128877E-2,-1.7650368E-2,1.7517304E-2,-8.809766E-3,-1.896899E-2,1.4654316E-3,4.275441E-3,-1.13078905E-2,3.0771734E-3,1.8027281E-2,-2.6894182E-2,-1.9819278E-2,-3.8594916E-2,2.2614093E-3,-4.405125E-3,1.5613476E-2,-3.2421764E-2,-2.810043E-3,-1.2319804E-3,-1.6107446E-2,-2.3011955E-2,2.2146042E-2,-2.894552E-2,1.6632697E-2,-3.7248578E-2,-1.8623853E-2,-2.3163138E-2,7.247198E-3],"split_indices":[64,39,118,61,57,63,91,130,94,39,103,76,34,63,61,46,58,3,103,0,74,64,0,94,128,3,121,40,44,105,28,130,46,0,40,105,0,6,4,88,130,22,3,21,1,37,64,112,130,3,1,118,105,40,104,2,10,4,0,91,1,0,0,0,0,0,0,0,0,0,0,0,0,0,0,0,0,0,0,0,0,0,0,0,0,0,0,0,0,0,0,0,0,0,0,0,0,0,0,0,0,0,0,0,0,0,0,0,0,0,0,0,0,0,0],"split_type":[0,0,0,0,0,0,0,0,0,0,0,0,0,0,0,0,0,0,0,0,0,0,0,0,0,0,0,0,0,0,0,0,0,0,0,0,0,0,0,0,0,0,0,0,0,0,0,0,0,0,0,0,0,0,0,0,0,0,0,0,0,0,0,0,0,0,0,0,0,0,0,0,0,0,0,0,0,0,0,0,0,0,0,0,0,0,0,0,0,0,0,0,0,0,0,0,0,0,0,0,0,0,0,0,0,0,0,0,0,0,0,0,0,0,0],"sum_hessian":[2.527E3,9.64E2,1.563E3,6.73E2,2.91E2,9.61E2,6.02E2,5.36E2,1.37E2,1.59E2,1.32E2,4.58E2,5.03E2,3.93E2,2.09E2,2.63E2,2.73E2,4E1,9.7E1,1.11E2,4.8E1,1.29E2,3E0,2.11E2,2.47E2,1.2E1,4.91E2,2.02E2,1.91E2,3.1E1,1.78E2,2.7E1,2.36E2,8E0,2.65E2,3.4E1,6E0,8.9E1,8E0,2.5E1,8.6E1,3.4E1,1.4E1,1.21E2,8E0,2E1,1.91E2,2.8E1,2.19E2,1E1,2E0,4.43E2,4.8E1,1.3E2,7.2E1,1.78E2,1.3E1,2.7E1,4E0,1.54E2,2.4E1,1.6E1,1.1E1,1.27E2,1.09E2,1.46E2,1.19E2,2.4E1,1E1,7.8E1,1.1E1,7E0,1E0,2.1E1,4E0,3.4E1,5.2E1,8E0,2.6E1,7E0,7E0,5E1,7.1E1,1E0,7E0,4E0,1.6E1,1.31E2,6E1,1.6E1,1.2E1,1.91E2,2.8E1,2E0,8E0,1E0,1E0,3.15E2,1.28E2,4.5E1,3E0,2E1,1.1E2,4E0,6.8E1,3.4E1,1.44E2,2E0,1.1E1,5E0,2.2E1,1.5E1,1.39E2,7E0,1.7E1],"tree_param":{"num_deleted":"0","num_feature":"132","num_nodes":"115","size_leaf_vector":"1"}},{"base_weights":[-5.8336137E-3,4.9816334E-1,-3.0874202E-1,9.560308E-2,6.71504E-1,-4.0498075E-1,-1.1659305E-1,2.3637415E-1,-2.8101215E-1,8.3737373E-1,3.5848024E-1,-3.7573996E-1,-6.1718714E-1,-1.9679403E-2,-2.8596205E-1,3.7745392E-1,5.4388225E-2,-3.926712E-1,1.7620859E-1,9.454446E-1,5.8070683E-1,-3.7617084E-1,4.4589671E-1,-1.4876553E-1,-3.9223254E-1,-4.2047384E-1,-6.4425796E-1,1.4686914E-1,-2.027598E-1,-9.890064E-2,-3.446236E-1,5.7575065E-1,2.5444704E-1,1.1124963E-1,-3.3395866E-1,-1.0150789E-1,-4.663435E-1,-5.9331157E-3,2.843874E-1,5.081021E-1,1.0010794E0,-4.1156855E-1,6.1547405E-1,4.7797123E-1,-5.616251E-1,5.128881E-1,-5.0947636E-1,4.169941E-2,-3.5286367E-1,-3.60507E-1,-5.360624E-1,-1.8642378E-1,-3.1690508E-2,-6.492358E-1,-2.7907013E-3,1.8757309E-1,-2.7189368E-1,-3.019719E-1,9.256243E-2,-2.915951E-1,8.233429E-2,-3.9628842E-1,1.8853262E-2,1.4814875E-2,3.1481043E-2,2.297692E-2,3.908263E-3,9.20545E-3,-7.6993206E-3,1.1426687E-2,-2.0293506E-2,-1.1307118E-2,-3.5697882E-4,-6.0148104E-3,-2.5105998E-2,2.1541214E-2,5.912166E-3,4.2125124E-2,-7.416857E-3,3.604048E-2,5.5994797E-2,-2.2715775E-2,-6.01452E-3,-1.2276483E-2,3.1923514E-2,-4.9514812E-3,4.4782415E-2,2.9731393E-3,-2.9782632E-2,4.1215453E-2,1.8480916E-2,3.986466E-3,-2.8046647E-2,1.2420251E-2,-2.0654274E-2,-2.3542016E-3,-2.2004379E-2,-1.8023249E-3,-1.8618263E-2,-7.427317E-3,-2.8251758E-2,1.1128873E-3,-1.395192E-2,-3.270117E-2,-3.5438836E-3,6.306892E-3,2.2056792E-2,-1.8240215E-2,1.2616015E-2,-9.349694E-3,-2.6362658E-2,-7.1988814E-3,2.3557743E-2,-1.7294467E-3,-1.8053204E-2,6.333186E-3,-2.4539297E-2,-1.428689E-2,-2.5202919E-2,1.673854E-2,-9.666476E-3],"categories":[],"categories_nodes":[],"categories_segments":[],"categories_sizes":[],"default_left":[0,0,0,0,0,0,0,0,0,0,0,0,0,0,0,0,0,0,0,0,0,0,0,0,0,0,0,0,0,0,0,0,0,0,0,0,0,0,0,0,0,0,0,0,0,0,0,0,0,0,0,0,0,0,0,0,0,0,0,0,0,0,0,0,0,0,0,0,0,0,0,0,0,0,0,0,0,0,0,0,0,0,0,0,0,0,0,0,0,0,0,0,0,0,0,0,0,0,0,0,0,0,0,0,0,0,0,0,0,0,0,0,0,0,0,0,0,0,0,0,0],"id":4,"left_children":[1,3,5,7,9,11,13,15,17,19,21,23,25,27,29,31,33,35,37,39,41,43,45,47,49,51,53,55,57,59,61,63,65,67,69,71,73,-1,75,77,79,81,83,85,87,89,91,93,95,97,99,101,-1,103,-1,105,107,109,111,113,115,117,119,-1,-1,-1,-1,-1,-1,-1,-1,-1,-1,-1,-1,-1,-1,-1,-1,-1,-1,-1,-1,-1,-1,-1,-1,-1,-1,-1,-1,-1,-1,-1,-1,-1,-1,-1,-1,-1,-1,-1,-1,-1,-1,-1,-1,-1,-1,-1,-1,-1,-1,-1,-1,-1,-1,-1,-1,-1,-1],"loss_changes":[3.8349542E2,6.57384E1,2.8966995E1,1.5176136E1,3.3915863E1,6.252411E0,8.61181E0,5.3197727E0,4.051313E0,1.1378418E1,1.4938473E1,3.3893127E0,3.947525E-1,1.0244523E1,2.0618172E0,2.7073498E0,2.0686922E0,1.3040552E0,5.4412663E-1,6.8151245E0,4.7381325E0,4.228548E0,1.344566E1,2.5026207E0,3.721878E0,7.8060746E-1,2.8011703E-1,3.0509734E0,4.7158785E0,1.6653876E0,2.730425E0,4.7582817E-1,2.6394663E0,1.5936694E0,5.7815075E-1,1.6304706E-1,5.586138E-1,0E0,2.4101335E-1,8.027462E0,8.050751E0,7.606387E-3,2.6515465E0,1.293696E0,4.792347E-1,8.306442E0,4.6918154E-1,3.2988367E0,8.0608964E-1,2.7029343E0,1.6338577E0,1.9948032E-1,0E0,2.4991608E-1,0E0,2.4523635E0,8.713281E-1,3.0096931E0,3.7394793E0,3.9815223E-1,6.97317E-1,1.3690529E0,1.3383341E0,0E0,0E0,0E0,0E0,0E0,0E0,0E0,0E0,0E0,0E0,0E0,0E0,0E0,0E0,0E0,0E0,0E0,0E0,0E0,0E0,0E0,0E0,0E0,0E0,0E0,0E0,0E0,0E0,0E0,0E0,0E0,0E0,0E0,0E0,0E0,0E0,0E0,0E0,0E0,0E0,0E0,0E0,0E0,0E0,0E0,0E0,0E0,0E0,0E0,0E0,0E0,0E0,0E0,0E0,0E0,0E0,0E0,0E0],"parents":[2147483647,0,0,1,1,2,2,3,3,4,4,5,5,6,6,7,7,8,8,9,9,10,10,11,11,12,12,13,13,14,14,15,15,16,16,17,17,18,18,19,19,20,20,21,21,22,22,23,23,24,24,25,25,26,26,27,27,28,28,29,29,30,30,31,31,32,32,33,33,34,34,35,35,36,36,38,38,39,39,40,40,41,41,42,42,43,43,44,44,45,45,46,46,47,47,48,48,49,49,50,50,51,51,53,53,55,55,56,56,57,57,58,58,59,59,60,60,61,61,62,62],"right_children":[2,4,6,8,10,12,14,16,18,20,22,24,26,28,30,32,34,36,38,40,42,44,46,48,50,52,54,56,58,60,62,64,66,68,70,72,74,-1,76,78,80,82,84,86,88,90,92,94,96,98,100,102,-1,104,-1,106,108,110,112,114,116,118,120,-1,-1,-1,-1,-1,-1,-1,-1,-1,-1,-1,-1,-1,-1,-1,-1,-1,-1,-1,-1,-1,-1,-1,-1,-1,-1,-1,-1,-1,-1,-1,-1,-1,-1,-1,-1,-1,-1,-1,-1,-1,-1,-1,-1,-1,-1,-1,-1,-1,-1,-1,-1,-1,-1,-1,-1,-1,-1],"split_conditions":[3.0964237E-1,2.5906668E0,2.9545453E-1,1.1353846E2,6E0,2.2857144E0,1E0,1.0029744E0,1.125E1,9.021094E1,1.6415167E2,4.3704474E-1,3.846154E1,3E0,5.4351852E1,1.03E2,1.412506E2,1.991238E1,2.410925E1,5.655556E-1,2.8758E2,3E0,1.6E1,9.8298675E-1,6.66358E-7,1.55E1,1.2327778E2,9.270975E1,8E0,1.64E2,6.6666665E0,7.89E0,3.7339287E1,1.05E2,8.857142E0,1.685E3,9.012182E0,-5.9331157E-3,2.1621622E-1,7.644444E1,2.698E0,3.8E1,1.92E2,2.5E1,4.8717947E0,3.1253745E2,1.7260857E2,8E0,9.012182E0,3E0,3E0,1.345E3,-3.1690508E-2,3.084E1,-2.7907013E-3,1.7E1,1.388889E-1,9E0,2.875E0,2.3692308E1,1.0207143E2,1.3358766E0,8.69E1,1.4814875E-2,3.1481043E-2,2.297692E-2,3.908263E-3,9.20545E-3,-7.6993206E-3,1.1426687E-2,-2.0293506E-2,-1.1307118E-2,-3.5697882E-4,-6.0148104E-3,-2.5105998E-2,2.1541214E-2,5.912166E-3,4.2125124E-2,-7.416857E-3,3.604048E-2,5.5994797E-2,-2.2715775E-2,-6.01452E-3,-1.2276483E-2,3.1923514E-2,-4.9514812E-3,4.4782415E-2,2.9731393E-3,-2.9782632E-2,4.1215453E-2,1.8480916E-2,3.986466E-3,-2.8046647E-2,1.2420251E-2,-2.0654274E-2,-2.3542016E-3,-2.2004379E-2,-1.8023249E-3,-1.8618263E-2,-7.427317E-3,-2.8251758E-2,1.1128873E-3,-1.395192E-2,-3.270117E-2,-3.5438836E-3,6.306892E-3,2.2056792E-2,-1.8240215E-2,1.2616015E-2,-9.349694E-3,-2.6362658E-2,-7.1988814E-3,2.3557743E-2,-1.7294467E-3,-1.8053204E-2,6.333186E-3,-2.4539297E-2,-1.428689E-2,-2.5202919E-2,1.673854E-2,-9.666476E-3],"split_indices":[64,45,117,39,103,63,63,106,27,130,21,64,129,91,130,129,14,111,111,46,20,86,103,88,124,27,39,130,91,128,28,108,40,129,3,19,12,0,81,130,45,1,128,1,3,22,21,104,12,61,91,19,0,10,0,73,93,73,45,129,39,118,130,0,0,0,0,0,0,0,0,0,0,0,0,0,0,0,0,0,0,0,0,0,0,0,0,0,0,0,0,0,0,0,0,0,0,0,0,0,0,0,0,0,0,0,0,0,0,0,0,0,0,0,0,0,0,0,0,0,0],"split_type":[0,0,0,0,0,0,0,0,0,0,0,0,0,0,0,0,0,0,0,0,0,0,0,0,0,0,0,0,0,0,0,0,0,0,0,0,0,0,0,0,0,0,0,0,0,0,0,0,0,0,0,0,0,0,0,0,0,0,0,0,0,0,0,0,0,0,0,0,0,0,0,0,0,0,0,0,0,0,0,0,0,0,0,0,0,0,0,0,0,0,0,0,0,0,0,0,0,0,0,0,0,0,0,0,0,0,0,0,0,0,0,0,0,0,0,0,0,0,0,0,0],"sum_hessian":[2.51E3,9.42E2,1.568E3,2.84E2,6.58E2,1.044E3,5.24E2,2.07E2,7.7E1,4.29E2,2.29E2,9.2E2,1.24E2,3.34E2,1.9E2,1.16E2,9.1E1,6.2E1,1.5E1,3E2,1.29E2,2.4E1,2.05E2,6.3E1,8.57E2,1.7E1,1.07E2,1.75E2,1.59E2,4.6E1,1.44E2,4.3E1,7.3E1,8E1,1.1E1,1.3E1,4.9E1,4E0,1.1E1,3.5E1,2.65E2,4E0,1.25E2,4E0,2E1,1.92E2,1.3E1,3.3E1,3E1,7.05E2,1.52E2,9E0,8E0,1.06E2,1E0,1.6E2,1.5E1,1.19E2,4E1,2.2E1,2.4E1,1.26E2,1.8E1,8E0,3.5E1,3.3E1,4E1,6.3E1,1.7E1,1E0,1E1,5E0,8E0,5E0,4.4E1,5E0,6E0,2.3E1,1.2E1,8.1E1,1.84E2,3E0,1E0,3E0,1.22E2,2E0,2E0,1E0,1.9E1,5.9E1,1.33E2,1E0,1.2E1,2.3E1,1E1,7E0,2.3E1,2.5E1,6.8E2,1.1E1,1.41E2,3E0,6E0,1.05E2,1E0,1.3E2,3E1,1.3E1,2E0,8E1,3.9E1,2.5E1,1.5E1,5E0,1.7E1,2.3E1,1E0,6.4E1,6.2E1,7E0,1.1E1],"tree_param":{"num_deleted":"0","num_feature":"132","num_nodes":"121","size_leaf_vector":"1"}},{"base_weights":[-2.4862497E-3,4.7431841E-1,-2.9907486E-1,9.832994E-2,6.4065754E-1,-3.936334E-1,-1.3933875E-1,2.523721E-1,-1.5745956E-1,7.6038104E-1,2.7334923E-1,-3.633249E-1,-6.0185325E-1,4.5218486E-1,-1.61194E-1,3.5609198E-1,6.1290327E-2,-2.726082E-1,4.265709E-1,1.0125268E0,6.148403E-1,-3.3182842E-1,3.3525378E-1,-3.7673068E-1,-7.2143674E-2,-3.2648402E-1,-6.23333E-1,5.4325294E-1,-1.3765402E-2,-1.2445431E-1,-4.554745E-1,4.635461E-1,1.4293914E-1,1.7562343E-1,-2.1617362E-1,-3.7977165E-1,-5.97625E-2,-2.2061467E-3,5.0710446E-1,3.627091E-1,1.0361766E0,6.934403E-1,-4.4394416E-1,-6.021195E-2,-2.979592E-2,4.005705E-1,-3.9394605E-1,-4.3283854E-2,-3.8802928E-1,-2.1729033E-1,4.358219E-1,-4.7290576E-1,4.7980428E-2,-2.720934E-3,-6.279267E-1,6.403445E-1,1.4332762E-1,-2.606546E-2,-2.687588E-1,-4.8740208E-1,1.2932587E-1,4.140636E-2,2.0283392E-2,1.373786E-2,-3.3536588E-3,2.2690613E-2,5.432018E-3,-1.6029933E-2,1.4083809E-2,-3.1886082E-2,-1.4997512E-2,-6.426291E-3,2.3545152E-2,-8.255261E-3,5.356431E-3,2.8104488E-2,4.073588E-3,2.0263923E-2,1.6180873E-3,-1.1232813E-3,5.2420188E-2,4.235813E-2,2.2327928E-2,-2.592345E-2,2.989005E-2,3.397623E-3,-1.695958E-2,-1.580014E-2,2.3206165E-2,-2.40264E-2,1.6125917E-2,1.7990889E-2,-1.6264005E-2,-1.8088147E-2,-2.6910318E-2,2.072847E-3,-1.5454592E-2,3.0731276E-2,2.9330463E-3,-5.8997334E-3,-2.5337547E-2,6.2117577E-3,-9.4247656E-4,-3.2810222E-2,-2.2748886E-2,4.986954E-3,3.579212E-2,1.9440318E-2,-7.496349E-3,-5.057653E-3,2.385561E-2,-1.718857E-2,-6.066195E-3,1.719581E-2,-2.5383238E-2,2.420509E-3,9.301824E-3],"categories":[],"categories_nodes":[],"categories_segments":[],"categories_sizes":[],"default_left":[0,0,0,0,0,0,0,0,0,0,0,0,0,0,0,0,0,0,0,0,0,0,0,0,0,0,0,0,0,0,0,0,0,0,0,0,0,0,0,0,0,0,0,0,0,0,0,0,0,0,0,0,0,0,0,0,0,0,0,0,0,0,0,0,0,0,0,0,0,0,0,0,0,0,0,0,0,0,0,0,0,0,0,0,0,0,0,0,0,0,0,0,0,0,0,0,0,0,0,0,0,0,0,0,0,0,0,0,0,0,0,0,0,0,0,0,0],"id":5,"left_children":[1,3,5,7,9,11,13,15,17,19,21,23,25,27,29,31,33,35,37,39,41,43,45,47,49,51,53,55,-1,57,59,61,63,65,67,69,71,73,75,77,79,81,83,85,-1,87,89,91,93,95,97,99,101,-1,103,105,107,109,111,113,115,-1,-1,-1,-1,-1,-1,-1,-1,-1,-1,-1,-1,-1,-1,-1,-1,-1,-1,-1,-1,-1,-1,-1,-1,-1,-1,-1,-1,-1,-1,-1,-1,-1,-1,-1,-1,-1,-1,-1,-1,-1,-1,-1,-1,-1,-1,-1,-1,-1,-1,-1,-1,-1,-1,-1,-1],"loss_changes":[3.580628E2,6.06649E1,2.3523132E1,1.1821046E1,2.9387604E1,5.9659424E0,7.5969276E0,3.6843252E0,7.7155704E0,1.7983063E1,6.367612E0,3.3220367E0,5.240135E-1,1.5408416E0,6.0195312E0,2.705144E0,2.163427E0,2.144186E0,6.5720725E-1,2.451889E0,2.727127E1,1.1118176E0,7.3974037E0,3.0725403E0,2.9701505E0,6.258172E-1,2.6115036E-1,6.459789E-1,0E0,7.1061697E0,1.2206516E0,1.3521614E0,1.1811326E0,8.4512675E-1,1.1300646E0,1.1058817E0,1.2647039E0,8.892963E-2,3.2866144E-1,9.938586E-2,2.3146667E0,1.1082977E1,2.0955667E0,3.4484628E-1,0E0,6.522299E0,9.6140623E-1,3.2998896E0,2.9333649E0,7.4916935E-1,5.708852E-1,3.6302447E-2,2.2726174E-2,0E0,2.4918747E-1,5.408206E-1,4.182314E-1,1.13452E1,2.2033644E0,1.1684322E0,9.349048E-3,0E0,0E0,0E0,0E0,0E0,0E0,0E0,0E0,0E0,0E0,0E0,0E0,0E0,0E0,0E0,0E0,0E0,0E0,0E0,0E0,0E0,0E0,0E0,0E0,0E0,0E0,0E0,0E0,0E0,0E0,0E0,0E0,0E0,0E0,0E0,0E0,0E0,0E0,0E0,0E0,0E0,0E0,0E0,0E0,0E0,0E0,0E0,0E0,0E0,0E0,0E0,0E0,0E0,0E0,0E0,0E0],"parents":[2147483647,0,0,1,1,2,2,3,3,4,4,5,5,6,6,7,7,8,8,9,9,10,10,11,11,12,12,13,13,14,14,15,15,16,16,17,17,18,18,19,19,20,20,21,21,22,22,23,23,24,24,25,25,26,26,27,27,29,29,30,30,31,31,32,32,33,33,34,34,35,35,36,36,37,37,38,38,39,39,40,40,41,41,42,42,43,43,45,45,46,46,47,47,48,48,49,49,50,50,51,51,52,52,54,54,55,55,56,56,57,57,58,58,59,59,60,60],"right_children":[2,4,6,8,10,12,14,16,18,20,22,24,26,28,30,32,34,36,38,40,42,44,46,48,50,52,54,56,-1,58,60,62,64,66,68,70,72,74,76,78,80,82,84,86,-1,88,90,92,94,96,98,100,102,-1,104,106,108,110,112,114,116,-1,-1,-1,-1,-1,-1,-1,-1,-1,-1,-1,-1,-1,-1,-1,-1,-1,-1,-1,-1,-1,-1,-1,-1,-1,-1,-1,-1,-1,-1,-1,-1,-1,-1,-1,-1,-1,-1,-1,-1,-1,-1,-1,-1,-1,-1,-1,-1,-1,-1,-1,-1,-1,-1,-1,-1],"split_conditions":[3.305785E-1,2.5906668E0,4.2333335E-1,5.1555557E1,1E0,2.3076923E0,1.4E0,1.0029744E0,2.4827585E0,7.753846E1,8E0,2.3076923E0,2.7866667E1,1.8611112E0,2.88199E3,1.78125E0,1.625E0,2.4448485E0,2.8303E2,3.6711112E-1,2.9833333E0,7E0,5E0,3.8666666E-1,3.0588236E0,1.33705E1,2.5179E2,3.4836214E0,-1.3765402E-2,9.166667E-1,3.4504592E0,3.1121107E1,1.195E2,3.775E1,4.5617283E1,9.8298675E-1,8.5E1,2E1,1.0475E2,2.6453333E1,8.560524E1,2.4705882E0,2.909294E1,7.171875E0,-2.979592E-2,1.7260857E2,4.138273E1,8E0,2.2533333E-5,2.8070312E1,2.7727273E0,5E0,3.7396667E1,-2.720934E-3,6.25E-1,4E0,4.9E1,1.7E1,3.3333333E0,1.5384616E0,2.685044E1,4.140636E-2,2.0283392E-2,1.373786E-2,-3.3536588E-3,2.2690613E-2,5.432018E-3,-1.6029933E-2,1.4083809E-2,-3.1886082E-2,-1.4997512E-2,-6.426291E-3,2.3545152E-2,-8.255261E-3,5.356431E-3,2.8104488E-2,4.073588E-3,2.0263923E-2,1.6180873E-3,-1.1232813E-3,5.2420188E-2,4.235813E-2,2.2327928E-2,-2.592345E-2,2.989005E-2,3.397623E-3,-1.695958E-2,-1.580014E-2,2.3206165E-2,-2.40264E-2,1.6125917E-2,1.7990889E-2,-1.6264005E-2,-1.8088147E-2,-2.6910318E-2,2.072847E-3,-1.5454592E-2,3.0731276E-2,2.9330463E-3,-5.8997334E-3,-2.5337547E-2,6.2117577E-3,-9.4247656E-4,-3.2810222E-2,-2.2748886E-2,4.986954E-3,3.579212E-2,1.9440318E-2,-7.496349E-3,-5.057653E-3,2.385561E-2,-1.718857E-2,-6.066195E-3,1.719581E-2,-2.5383238E-2,2.420509E-3,9.301824E-3],"split_indices":[64,45,118,40,61,63,105,106,57,130,91,87,40,51,20,58,116,45,20,118,45,0,97,64,105,111,20,118,0,63,118,40,129,40,40,88,8,1,129,10,21,33,15,28,0,21,16,104,122,40,57,0,15,0,93,6,1,73,57,105,15,0,0,0,0,0,0,0,0,0,0,0,0,0,0,0,0,0,0,0,0,0,0,0,0,0,0,0,0,0,0,0,0,0,0,0,0,0,0,0,0,0,0,0,0,0,0,0,0,0,0,0,0,0,0,0,0],"split_type":[0,0,0,0,0,0,0,0,0,0,0,0,0,0,0,0,0,0,0,0,0,0,0,0,0,0,0,0,0,0,0,0,0,0,0,0,0,0,0,0,0,0,0,0,0,0,0,0,0,0,0,0,0,0,0,0,0,0,0,0,0,0,0,0,0,0,0,0,0,0,0,0,0,0,0,0,0,0,0,0,0,0,0,0,0,0,0,0,0,0,0,0,0,0,0,0,0,0,0,0,0,0,0,0,0,0,0,0,0,0,0,0,0,0,0,0,0],"sum_hessian":[2.53E3,9.7E2,1.56E3,2.98E2,6.72E2,9.79E2,5.81E2,1.86E2,1.12E2,5.06E2,1.66E2,8.57E2,1.22E2,2E1,5.61E2,1.2E2,6.6E1,9.4E1,1.8E1,1.83E2,3.23E2,1.5E1,1.51E2,8.19E2,3.8E1,1E1,1.12E2,1.8E1,2E0,5E2,6.1E1,7.9E1,4.1E1,4.7E1,1.9E1,6.2E1,3.2E1,3E0,1.5E1,7E0,1.76E2,3.01E2,2.2E1,8E0,7E0,1.39E2,1.2E1,2.7E1,7.92E2,3E1,8E0,7E0,3E0,1E0,1.11E2,1.4E1,4E0,2.98E2,2.02E2,5.8E1,3E0,9E0,7E1,2.5E1,1.6E1,8E0,3.9E1,1.6E1,3E0,1.3E1,4.9E1,2.9E1,3E0,1E0,2E0,1.3E1,2E0,6E0,1E0,2E0,1.74E2,1.84E2,1.17E2,2.1E1,1E0,6E0,2E0,1.1E1,1.28E2,1.1E1,1E0,1.1E1,1.6E1,6.77E2,1.15E2,8E0,2.2E1,5E0,3E0,1E0,6E0,1E0,2E0,9.3E1,1.8E1,2E0,1.2E1,2E0,2E0,2.6E2,3.8E1,1.33E2,6.9E1,1E0,5.7E1,2E0,1E0],"tree_param":{"num_deleted":"0","num_feature":"132","num_nodes":"117","size_leaf_vector":"1"}},{"base_weights":[8.061355E-3,4.9107116E-1,-2.5330228E-1,6.55525E-2,6.669017E-1,-3.5116354E-1,-9.455835E-2,1.8802704E-1,-3.5280234E-1,7.7820414E-1,3.7457806E-1,-3.1022269E-3,-3.7397188E-1,-1.7276946E-2,-2.3118377E-1,5.005517E-1,1.0481416E-1,-2.558919E-1,-5.593265E-1,9.1311437E-1,6.0586256E-1,-2.214931E-1,4.668372E-1,1.0295444E-1,-2.87749E-2,-3.506953E-1,-5.297775E-1,1.16914496E-1,-1.410629E-1,-3.2977545E-1,-7.100644E-2,1.6904826E-1,5.8583903E-1,4.9371096E-1,4.2508084E-2,-3.588854E-1,-9.862909E-2,-3.4437377E-2,-1.7668903E-2,9.060738E-2,9.4332904E-1,6.683539E-1,-6.659685E-2,3.7621945E-1,-4.4163167E-1,5.248023E-1,-2.5301779E-2,2.0279297E-1,-4.9646622E-1,-3.649152E-1,-1.5244949E-1,-2.1436596E-1,-5.502105E-1,2.0408127E-1,-9.842055E-2,-2.9078618E-1,1.5193532E-1,-3.4560174E-1,2.5144164E-2,-1.4727611E-2,-3.9022997E-1,1.3737279E-2,-8.458034E-3,3.115953E-2,7.962132E-3,2.7920151E-2,3.1498016E-3,-1.2367641E-3,1.6785473E-2,-1.92779E-2,7.031417E-3,-2.13902E-4,-9.62524E-3,-2.306988E-2,5.1698215E-2,5.2947324E-2,4.0098485E-2,4.4497743E-2,2.4844665E-2,4.6421718E-2,-2.0860411E-2,1.3093448E-3,4.171003E-2,-2.9769076E-2,1.22668985E-2,4.1795317E-2,1.890452E-2,1.7996497E-2,-3.518413E-3,-2.627179E-2,-7.341981E-3,-5.321454E-3,-1.8726299E-2,-2.0287912E-2,7.201638E-3,-2.41335E-2,4.8405626E-3,-2.373409E-2,-3.0804316E-2,-7.992296E-3,1.25068305E-2,-7.3869647E-3,2.8982896E-2,-9.171665E-3,-2.6589839E-2,-4.070953E-3,1.9714162E-2,-1.4962355E-2,-3.0090705E-2,3.5130386E-3,-1.6625678E-2,-2.4262028E-2,-2.757299E-3],"categories":[],"categories_nodes":[],"categories_segments":[],"categories_sizes":[],"default_left":[0,0,0,0,0,0,0,0,0,0,0,0,0,0,0,0,0,0,0,0,0,0,0,0,0,0,0,0,0,0,0,0,0,0,0,0,0,0,0,0,0,0,0,0,0,0,0,0,0,0,0,0,0,0,0,0,0,0,0,0,0,0,0,0,0,0,0,0,0,0,0,0,0,0,0,0,0,0,0,0,0,0,0,0,0,0,0,0,0,0,0,0,0,0,0,0,0,0,0,0,0,0,0,0,0,0,0,0,0,0,0,0,0],"id":6,"left_children":[1,3,5,7,9,11,13,15,17,19,21,23,25,27,29,31,33,35,37,39,41,43,45,47,-1,49,51,53,55,57,59,61,63,65,67,69,71,-1,-1,73,75,77,79,81,83,85,-1,87,89,91,93,95,97,99,101,103,105,107,-1,109,111,-1,-1,-1,-1,-1,-1,-1,-1,-1,-1,-1,-1,-1,-1,-1,-1,-1,-1,-1,-1,-1,-1,-1,-1,-1,-1,-1,-1,-1,-1,-1,-1,-1,-1,-1,-1,-1,-1,-1,-1,-1,-1,-1,-1,-1,-1,-1,-1,-1,-1,-1,-1],"loss_changes":[3.1711603E2,6.594681E1,2.5288643E1,1.3336931E1,2.001117E1,8.001068E0,6.574016E0,5.1747565E0,1.0377197E0,9.932831E0,9.672186E0,3.8837528E0,3.2449799E0,6.6442876E0,3.5298185E0,1.0884342E0,3.8559144E0,6.448796E-1,2.3638439E-1,6.1523285E0,8.491112E0,3.3240604E0,8.780869E0,3.3323247E0,0E0,2.2728958E0,6.6187286E-1,3.623938E0,9.168861E0,2.0055227E0,1.5572536E0,4.039539E-1,4.2658424E-1,5.77827E-1,2.7488065E0,3.873036E-1,1.5860738E-1,0E0,0E0,5.684446E0,3.1059113E0,6.5490265E0,6.6669974E0,1.1003127E0,2.0472553E0,6.2108536E0,0E0,2.0427427E0,3.8733482E-3,1.8730087E0,4.3392305E0,7.981387E-1,2.6979065E-1,2.3362117E0,1.9583888E0,3.472949E0,4.047361E0,1.4470081E0,0E0,2.0489712E0,3.8711584E-1,0E0,0E0,0E0,0E0,0E0,0E0,0E0,0E0,0E0,0E0,0E0,0E0,0E0,0E0,0E0,0E0,0E0,0E0,0E0,0E0,0E0,0E0,0E0,0E0,0E0,0E0,0E0,0E0,0E0,0E0,0E0,0E0,0E0,0E0,0E0,0E0,0E0,0E0,0E0,0E0,0E0,0E0,0E0,0E0,0E0,0E0,0E0,0E0,0E0,0E0,0E0,0E0],"parents":[2147483647,0,0,1,1,2,2,3,3,4,4,5,5,6,6,7,7,8,8,9,9,10,10,11,11,12,12,13,13,14,14,15,15,16,16,17,17,18,18,19,19,20,20,21,21,22,22,23,23,25,25,26,26,27,27,28,28,29,29,30,30,31,31,32,32,33,33,34,34,35,35,36,36,39,39,40,40,41,41,42,42,43,43,44,44,45,45,47,47,48,48,49,49,50,50,51,51,52,52,53,53,54,54,55,55,56,56,57,57,59,59,60,60],"right_children":[2,4,6,8,10,12,14,16,18,20,22,24,26,28,30,32,34,36,38,40,42,44,46,48,-1,50,52,54,56,58,60,62,64,66,68,70,72,-1,-1,74,76,78,80,82,84,86,-1,88,90,92,94,96,98,100,102,104,106,108,-1,110,112,-1,-1,-1,-1,-1,-1,-1,-1,-1,-1,-1,-1,-1,-1,-1,-1,-1,-1,-1,-1,-1,-1,-1,-1,-1,-1,-1,-1,-1,-1,-1,-1,-1,-1,-1,-1,-1,-1,-1,-1,-1,-1,-1,-1,-1,-1,-1,-1,-1,-1,-1,-1],"split_conditions":[2.214533E-1,2.5842857E0,2.54E-1,1.1622222E2,6E0,3.8666666E-1,9.166667E-1,1.2E1,3.7142856E0,8.519459E1,1.7260857E2,1.1E1,2.2857144E0,3E0,3.2307692E0,2.4032763E1,4E-1,7E0,1.96875E0,3.695858E-1,2.8191667E0,3E0,1.6E1,3E0,-2.87749E-2,1.0563265E2,2.7866667E1,8.1632656E-1,8E0,8.9E1,2.2857144E0,1.051875E2,4E0,3.2507805E1,2.5625E0,6.28E1,8.888889E-1,-3.4437377E-2,-1.7668903E-2,2.7410984E1,8.0396694E-1,3.1121107E1,6.437E0,1.4090765E2,6.61157E-1,6.6588234E1,-2.5301779E-2,1.8184525E1,4.8E1,8.961539E1,6.4285713E-1,1.33705E1,9.55E1,5.552E-1,4E0,9E0,2.0745E3,1.66E0,2.5144164E-2,3.1494737E0,9E0,1.3737279E-2,-8.458034E-3,3.115953E-2,7.962132E-3,2.7920151E-2,3.1498016E-3,-1.2367641E-3,1.6785473E-2,-1.92779E-2,7.031417E-3,-2.13902E-4,-9.62524E-3,-2.306988E-2,5.1698215E-2,5.2947324E-2,4.0098485E-2,4.4497743E-2,2.4844665E-2,4.6421718E-2,-2.0860411E-2,1.3093448E-3,4.171003E-2,-2.9769076E-2,1.22668985E-2,4.1795317E-2,1.890452E-2,1.7996497E-2,-3.518413E-3,-2.627179E-2,-7.341981E-3,-5.321454E-3,-1.8726299E-2,-2.0287912E-2,7.201638E-3,-2.41335E-2,4.8405626E-3,-2.373409E-2,-3.0804316E-2,-7.992296E-3,1.25068305E-2,-7.3869647E-3,2.8982896E-2,-9.171665E-3,-2.6589839E-2,-4.070953E-3,1.9714162E-2,-1.4962355E-2,-3.0090705E-2,3.5130386E-3,-1.6625678E-2,-2.4262028E-2,-2.757299E-3],"split_indices":[64,45,117,39,103,64,63,126,33,130,21,103,63,91,57,14,34,73,58,46,45,85,103,61,0,130,40,34,91,9,63,39,85,40,57,9,106,0,0,15,46,40,116,13,34,130,0,111,6,39,93,111,39,46,97,73,20,42,0,45,5,0,0,0,0,0,0,0,0,0,0,0,0,0,0,0,0,0,0,0,0,0,0,0,0,0,0,0,0,0,0,0,0,0,0,0,0,0,0,0,0,0,0,0,0,0,0,0,0,0,0,0,0],"split_type":[0,0,0,0,0,0,0,0,0,0,0,0,0,0,0,0,0,0,0,0,0,0,0,0,0,0,0,0,0,0,0,0,0,0,0,0,0,0,0,0,0,0,0,0,0,0,0,0,0,0,0,0,0,0,0,0,0,0,0,0,0,0,0,0,0,0,0,0,0,0,0,0,0,0,0,0,0,0,0,0,0,0,0,0,0,0,0,0,0,0,0,0,0,0,0,0,0,0,0,0,0,0,0,0,0,0,0,0,0,0,0,0,0],"sum_hessian":[2.51E3,8.81E2,1.629E3,2.58E2,6.23E2,1.007E3,6.22E2,2E2,5.8E1,4.5E2,1.73E2,6.2E1,9.45E2,3.98E2,2.24E2,4.1E1,1.59E2,4.1E1,1.7E1,2.5E2,2E2,2.3E1,1.5E2,5.3E1,9E0,8.25E2,1.2E2,1.91E2,2.07E2,1.38E2,8.6E1,9E0,3.2E1,2.1E1,1.38E2,2.4E1,1.7E1,9E0,8E0,9E0,2.41E2,1.83E2,1.7E1,6E0,1.7E1,1.42E2,8E0,4.6E1,7E0,7.69E2,5.6E1,8E0,1.12E2,1.36E2,5.5E1,1.37E2,7E1,1.36E2,2E0,7.4E1,1.2E1,7E0,2E0,2.9E1,3E0,1.8E1,3E0,1.13E2,2.5E1,2.3E1,1E0,9E0,8E0,6E0,3E0,1.29E2,1.12E2,7.8E1,1.05E2,4E0,1.3E1,4E0,2E0,1.4E1,3E0,4.4E1,9.8E1,2.9E1,1.7E1,6E0,1E0,2.8E1,7.41E2,3E1,2.6E1,4E0,4E0,5.6E1,5.6E1,1.5E1,1.21E2,5.2E1,3E0,9.6E1,4.1E1,3.6E1,3.4E1,1.17E2,1.9E1,5.9E1,1.5E1,9E0,3E0],"tree_param":{"num_deleted":"0","num_feature":"132","num_nodes":"113","size_leaf_vector":"1"}},{"base_weights":[1.0499745E-3,4.341283E-1,-2.6467183E-1,5.773912E-1,9.159369E-2,-3.658051E-1,-9.121741E-2,6.765272E-1,2.5607702E-1,4.363793E-1,-3.4221143E-2,-2.0078689E-1,-3.8669795E-1,-5.7342607E-3,-2.3836654E-1,8.711018E-1,4.9180743E-1,-1.5993835E-1,3.48686E-1,4.689591E-1,-2.5635768E-2,9.988981E-2,-2.9079184E-1,-8.811326E-2,-3.4099337E-1,-3.9955842E-1,-1.6650867E-1,1.3416056E-1,-1.846945E-1,-2.628193E-1,7.7605605E-2,1.16711155E-1,9.544043E-1,5.5416787E-1,-2.6508898E-1,-2.925181E-1,1.8191642E-1,3.968208E-1,-2.782407E-1,3.7130114E-2,3.8680232E-1,1.446657E-1,-1.8816268E-1,-3.6675513E-1,-1.01477295E-1,-5.5954015E-1,9.549865E-3,-1.07744E-1,-3.966121E-1,-1.0998515E-1,-4.0808684E-1,-3.5342485E-1,3.3937755E-1,2.8468162E-1,1.2577084E-2,4.3262622E-1,-2.3284885E-1,-9.347502E-2,-3.1978348E-1,3.2511833E-1,-2.870705E-1,2.9763982E-2,-2.456127E-2,3.366954E-2,4.9959812E-2,4.6346232E-2,2.3440357E-2,3.1287916E-2,-2.5575472E-2,-2.531507E-2,-1.6353704E-3,1.335592E-2,-3.8763483E-3,-2.022075E-2,2.1709936E-2,1.2449757E-2,-2.2058703E-2,-1.8380797E-2,2.0307388E-2,-1.7281543E-2,8.904837E-3,7.6384014E-5,-1.631291E-2,-2.2035254E-2,-6.9918535E-3,1.0142117E-2,-9.018645E-3,1.4894009E-2,-3.375351E-2,3.5627563E-3,-2.0746808E-2,-7.152438E-4,-1.7607337E-2,-2.1692947E-2,-9.669627E-3,-1.5522669E-2,8.668964E-3,-1.9645434E-2,-2.6917025E-2,-2.4427755E-2,-4.8264167E-3,-1.2861903E-2,2.30125E-2,7.2563863E-3,2.70905E-2,1.00567555E-2,-5.5756075E-3,-1.5233052E-2,3.0527491E-2,2.6846537E-3,-1.5864909E-2,-1.3248133E-2,1.2854668E-3,-1.8779749E-2,-9.049873E-4,-5.585218E-4,2.7558628E-2,1.44732E-2,-2.8778857E-2],"categories":[],"categories_nodes":[],"categories_segments":[],"categories_sizes":[],"default_left":[0,0,0,0,0,0,0,0,0,0,0,0,0,0,0,0,0,0,0,0,0,0,0,0,0,0,0,0,0,0,0,0,0,0,0,0,0,0,0,0,0,0,0,0,0,0,0,0,0,0,0,0,0,0,0,0,0,0,0,0,0,0,0,0,0,0,0,0,0,0,0,0,0,0,0,0,0,0,0,0,0,0,0,0,0,0,0,0,0,0,0,0,0,0,0,0,0,0,0,0,0,0,0,0,0,0,0,0,0,0,0,0,0,0,0,0,0,0,0],"id":7,"left_children":[1,3,5,7,9,11,13,15,17,19,21,23,25,27,29,31,33,35,37,39,-1,41,43,45,47,49,51,53,55,57,59,61,63,65,67,69,71,73,75,-1,77,79,81,83,85,87,89,91,93,95,97,99,101,103,105,107,109,111,113,115,117,-1,-1,-1,-1,-1,-1,-1,-1,-1,-1,-1,-1,-1,-1,-1,-1,-1,-1,-1,-1,-1,-1,-1,-1,-1,-1,-1,-1,-1,-1,-1,-1,-1,-1,-1,-1,-1,-1,-1,-1,-1,-1,-1,-1,-1,-1,-1,-1,-1,-1,-1,-1,-1,-1,-1,-1,-1,-1],"loss_changes":[2.9022742E2,4.700763E1,2.7384804E1,2.135994E1,1.233461E1,3.3252258E0,7.256583E0,1.8117538E1,6.2585754E0,2.5904617E0,7.2205153E0,1.7550793E0,2.4112396E0,9.187812E0,1.6583891E0,1.5599258E1,1.2749397E1,1.4129045E0,4.0937767E0,1.3764019E0,0E0,1.8071182E0,9.982114E-1,2.9519691E0,6.0591984E-1,1.9950104E0,4.8478603E0,3.7663996E0,4.8867335E0,1.8704805E0,1.5375235E0,7.8568377E0,2.1592712E0,7.4246902E0,4.9300632E0,1.2053905E0,2.1965468E-1,3.8592644E0,9.688933E-1,0E0,1.0103836E0,2.02849E0,4.9821073E-1,7.941823E-1,5.647958E-1,1.290726E0,1.4439894E0,2.4616712E-1,2.1886635E-1,1.4739653E0,1.3740387E0,1.237277E0,1.1279951E0,3.222628E0,2.7132013E0,1.76018E0,3.6467772E0,1.0491827E0,2.4683027E0,7.6635194E-1,1.3309469E0,0E0,0E0,0E0,0E0,0E0,0E0,0E0,0E0,0E0,0E0,0E0,0E0,0E0,0E0,0E0,0E0,0E0,0E0,0E0,0E0,0E0,0E0,0E0,0E0,0E0,0E0,0E0,0E0,0E0,0E0,0E0,0E0,0E0,0E0,0E0,0E0,0E0,0E0,0E0,0E0,0E0,0E0,0E0,0E0,0E0,0E0,0E0,0E0,0E0,0E0,0E0,0E0,0E0,0E0,0E0,0E0,0E0,0E0],"parents":[2147483647,0,0,1,1,2,2,3,3,4,4,5,5,6,6,7,7,8,8,9,9,10,10,11,11,12,12,13,13,14,14,15,15,16,16,17,17,18,18,19,19,21,21,22,22,23,23,24,24,25,25,26,26,27,27,28,28,29,29,30,30,31,31,32,32,33,33,34,34,35,35,36,36,37,37,38,38,40,40,41,41,42,42,43,43,44,44,45,45,46,46,47,47,48,48,49,49,50,50,51,51,52,52,53,53,54,54,55,55,56,56,57,57,58,58,59,59,60,60],"right_children":[2,4,6,8,10,12,14,16,18,20,22,24,26,28,30,32,34,36,38,40,-1,42,44,46,48,50,52,54,56,58,60,62,64,66,68,70,72,74,76,-1,78,80,82,84,86,88,90,92,94,96,98,100,102,104,106,108,110,112,114,116,118,-1,-1,-1,-1,-1,-1,-1,-1,-1,-1,-1,-1,-1,-1,-1,-1,-1,-1,-1,-1,-1,-1,-1,-1,-1,-1,-1,-1,-1,-1,-1,-1,-1,-1,-1,-1,-1,-1,-1,-1,-1,-1,-1,-1,-1,-1,-1,-1,-1,-1,-1,-1,-1,-1,-1,-1,-1,-1],"split_conditions":[3.305785E-1,1.00416664E2,2.5940424E-1,1E0,8.3375E1,5.859375E-1,1E0,8.472E1,8.75E-1,1.6E1,1.1353846E2,5.568E1,1.0563265E2,3E0,2.98E0,5.1590717E-1,2.8191667E0,9.3E1,1.6E1,4.46281E-1,-2.5635768E-2,1.2345679E0,2.428182E0,4.4489794E0,1.96E2,6.25E-1,6.396324E2,3.3285E1,8E-1,5.2285713E1,9.635294E1,1.387875E0,2.694E0,2.5027779E1,6.437E0,1.3254437E0,1.3E2,8E0,1.346025E1,3.7130114E-2,1E0,9.228E-1,1.05E2,1.1E1,3E-1,7.4545455E0,2.15E2,6.863158E1,3.0612245E-1,1.1E1,3.7037036E0,5.555556E-1,6.498615E0,2.6666667E0,6.1538464E-1,1.5E1,4.6222222E-1,1.94E2,6.6666665E0,6.7867E2,1.9991856E2,2.9763982E-2,-2.456127E-2,3.366954E-2,4.9959812E-2,4.6346232E-2,2.3440357E-2,3.1287916E-2,-2.5575472E-2,-2.531507E-2,-1.6353704E-3,1.335592E-2,-3.8763483E-3,-2.022075E-2,2.1709936E-2,1.2449757E-2,-2.2058703E-2,-1.8380797E-2,2.0307388E-2,-1.7281543E-2,8.904837E-3,7.6384014E-5,-1.631291E-2,-2.2035254E-2,-6.9918535E-3,1.0142117E-2,-9.018645E-3,1.4894009E-2,-3.375351E-2,3.5627563E-3,-2.0746808E-2,-7.152438E-4,-1.7607337E-2,-2.1692947E-2,-9.669627E-3,-1.5522669E-2,8.668964E-3,-1.9645434E-2,-2.6917025E-2,-2.4427755E-2,-4.8264167E-3,-1.2861903E-2,2.30125E-2,7.2563863E-3,2.70905E-2,1.00567555E-2,-5.5756075E-3,-1.5233052E-2,3.0527491E-2,2.6846537E-3,-1.5864909E-2,-1.3248133E-2,1.2854668E-3,-1.8779749E-2,-9.049873E-4,-5.585218E-4,2.7558628E-2,1.44732E-2,-2.8778857E-2],"split_indices":[64,39,117,62,129,64,63,130,106,103,39,40,130,91,44,46,45,7,103,106,0,88,45,4,37,34,22,109,87,130,39,118,45,40,115,76,38,91,111,0,74,46,129,74,69,3,37,9,63,3,64,93,28,76,63,2,64,127,28,20,21,0,0,0,0,0,0,0,0,0,0,0,0,0,0,0,0,0,0,0,0,0,0,0,0,0,0,0,0,0,0,0,0,0,0,0,0,0,0,0,0,0,0,0,0,0,0,0,0,0,0,0,0,0,0,0,0,0,0],"split_type":[0,0,0,0,0,0,0,0,0,0,0,0,0,0,0,0,0,0,0,0,0,0,0,0,0,0,0,0,0,0,0,0,0,0,0,0,0,0,0,0,0,0,0,0,0,0,0,0,0,0,0,0,0,0,0,0,0,0,0,0,0,0,0,0,0,0,0,0,0,0,0,0,0,0,0,0,0,0,0,0,0,0,0,0,0,0,0,0,0,0,0,0,0,0,0,0,0,0,0,0,0,0,0,0,0,0,0,0,0,0,0,0,0,0,0,0,0,0,0],"sum_hessian":[2.52E3,9.58E2,1.562E3,6.75E2,2.83E2,9.86E2,5.76E2,5.15E2,1.6E2,7.5E1,2.08E2,1.12E2,8.74E2,3.65E2,2.11E2,2.49E2,2.66E2,2.9E1,1.31E2,7.3E1,2E0,1.37E2,7.1E1,6.3E1,4.9E1,8.25E2,4.9E1,2.05E2,1.6E2,1.96E2,1.5E1,2.5E1,2.24E2,2.46E2,2E1,2.1E1,8E0,1.22E2,9E0,1.5E1,5.8E1,1.19E2,1.8E1,5E1,2.1E1,1E1,5.3E1,1E1,3.9E1,2.4E1,8.01E2,3.6E1,1.3E1,9.1E1,1.14E2,1.1E1,1.49E2,5E1,1.46E2,9E0,6E0,1.4E1,1.1E1,3.3E1,1.91E2,4.4E1,2.02E2,4E0,1.6E1,1.1E1,1E1,6E0,2E0,5E0,1.17E2,2E0,7E0,1E0,5.7E1,7E0,1.12E2,8E0,1E1,3.7E1,1.3E1,4E0,1.7E1,1E0,9E0,4.7E1,6E0,8E0,2E0,3.2E1,7E0,1.4E1,1E1,7.21E2,8E1,2.3E1,1.3E1,2E0,1.1E1,6E1,3.1E1,4.5E1,6.9E1,2E0,9E0,3.4E1,1.15E2,2E1,3E1,1.23E2,2.3E1,4E0,5E0,2E0,4E0],"tree_param":{"num_deleted":"0","num_feature":"132","num_nodes":"119","size_leaf_vector":"1"}},{"base_weights":[-8.9734895E-3,3.9945132E-1,-2.6768985E-1,5.376183E-1,7.537835E-2,-3.5691604E-1,-1.1022245E-1,6.3140506E-1,2.1997836E-1,-1.19410135E-1,2.8482848E-1,-3.3668703E-1,-4.9384636E-1,-7.6443575E-2,-3.8875014E-1,8.947327E-1,5.031454E-1,-8.672819E-2,3.5181415E-1,2.745752E-1,-2.145333E-1,4.721811E-1,1.7669868E-1,-3.1091243E-1,-4.590615E-1,-2.4855371E-1,-5.228058E-1,-3.4006542E-1,-4.1598875E-2,-4.3100506E-1,1.6225529E-1,9.151442E-1,-1.8623269E-1,-4.4330326E-1,5.6080097E-1,-3.8423538E-1,1.5889724E-1,4.2102665E-1,-3.093735E-1,3.8169497E-1,-1.7781416E-2,-3.245372E-1,-9.3620285E-2,9.679991E-2,5.297009E-1,2.1280347E-1,-3.7025294E-1,-7.987846E-2,-3.2566482E-1,-3.5801474E-2,-4.8969504E-1,9.538571E-2,-3.088048E-1,-1.7322505E-1,-5.3780276E-1,-4.1966155E-1,-5.993029E-2,5.4230575E-2,-1.6276953E-1,1.3705838E-1,-4.657456E-1,-5.900973E-3,2.6182884E-1,4.4005696E-2,5.9646238E-2,2.2271156E-2,-2.726295E-2,-2.5898954E-2,-1.6416358E-2,1.405098E-2,3.2285515E-2,-2.617988E-2,-3.745094E-3,2.4615385E-2,8.794094E-4,1.7899534E-2,4.2672906E-2,1.2034765E-2,-2.2917746E-2,2.0324519E-2,-3.4752132E-3,-6.743704E-3,1.3068097E-2,-1.7722068E-2,1.1805136E-3,-9.555004E-3,1.8674943E-4,1.1636281E-2,-4.8653604E-3,3.4705967E-2,2.1491745E-2,6.9398247E-3,2.2504333E-2,1.8611336E-2,-2.9659709E-2,1.0431192E-2,-1.2609388E-2,-1.47153875E-2,-2.259791E-2,-1.1602069E-2,2.8242603E-2,-2.6144722E-2,-9.240684E-3,6.608373E-3,5.455554E-4,-1.8642964E-2,-3.573376E-3,1.314916E-2,-1.5653167E-2,-2.7125776E-2,-1.1919976E-3,-3.8560373E-3,-2.7094243E-2,-1.5354789E-2,5.5752806E-3,3.362755E-4,2.1277394E-2,9.988081E-4,-1.16449455E-2,7.043243E-4,8.667676E-3,1.6451001E-2,-2.4367845E-2,3.3026875E-3,1.5253465E-2],"categories":[],"categories_nodes":[],"categories_segments":[],"categories_sizes":[],"default_left":[0,0,0,0,0,0,0,0,0,0,0,0,0,0,0,0,0,0,0,0,0,0,0,0,0,0,0,0,0,0,0,0,0,0,0,0,0,0,0,0,0,0,0,0,0,0,0,0,0,0,0,0,0,0,0,0,0,0,0,0,0,0,0,0,0,0,0,0,0,0,0,0,0,0,0,0,0,0,0,0,0,0,0,0,0,0,0,0,0,0,0,0,0,0,0,0,0,0,0,0,0,0,0,0,0,0,0,0,0,0,0,0,0,0,0,0,0,0,0,0,0,0,0,0,0],"id":8,"left_children":[1,3,5,7,9,11,13,15,17,19,21,23,25,27,29,31,33,35,37,39,41,43,45,47,49,51,53,55,57,59,61,63,65,67,69,71,73,75,77,79,81,83,85,87,89,91,93,95,97,99,101,103,105,107,109,111,113,115,117,119,121,-1,123,-1,-1,-1,-1,-1,-1,-1,-1,-1,-1,-1,-1,-1,-1,-1,-1,-1,-1,-1,-1,-1,-1,-1,-1,-1,-1,-1,-1,-1,-1,-1,-1,-1,-1,-1,-1,-1,-1,-1,-1,-1,-1,-1,-1,-1,-1,-1,-1,-1,-1,-1,-1,-1,-1,-1,-1,-1,-1,-1,-1,-1,-1],"loss_changes":[2.651177E2,4.3526688E1,2.1541801E1,2.0178192E1,1.1947166E1,2.5482864E0,5.2107353E0,1.7315079E1,6.3787923E0,5.75543E0,2.7730007E0,2.5603867E0,7.5089455E-1,4.5603933E0,1.4668951E0,3.9434052E0,1.9674843E1,3.56867E0,5.1641226E0,9.463022E-1,1.6056275E0,1.0499086E0,1.8758197E0,2.397293E0,1.888464E0,3.402967E-1,4.8353004E-1,1.268115E0,5.1295943E0,1.1689844E0,1.7044066E-1,5.848541E-1,1.1499953E0,1.0238171E-2,7.8005753E0,9.091885E-1,1.2634168E0,2.4203472E0,1.0117742E0,2.743814E-1,3.2942164E-1,6.746769E-1,5.7012403E-1,2.3371905E-1,4.2411518E-1,1.4477422E0,1.213979E0,2.2399242E0,2.5123901E0,1.4276632E0,1.2900581E0,7.879278E-3,1.7098522E-1,4.4832212E-1,2.4139404E-1,1.8422008E0,6.274654E-1,4.3540826E0,2.5037408E0,1.5411183E-2,1.070673E0,0E0,1.3710648E-2,0E0,0E0,0E0,0E0,0E0,0E0,0E0,0E0,0E0,0E0,0E0,0E0,0E0,0E0,0E0,0E0,0E0,0E0,0E0,0E0,0E0,0E0,0E0,0E0,0E0,0E0,0E0,0E0,0E0,0E0,0E0,0E0,0E0,0E0,0E0,0E0,0E0,0E0,0E0,0E0,0E0,0E0,0E0,0E0,0E0,0E0,0E0,0E0,0E0,0E0,0E0,0E0,0E0,0E0,0E0,0E0,0E0,0E0,0E0,0E0,0E0,0E0],"parents":[2147483647,0,0,1,1,2,2,3,3,4,4,5,5,6,6,7,7,8,8,9,9,10,10,11,11,12,12,13,13,14,14,15,15,16,16,17,17,18,18,19,19,20,20,21,21,22,22,23,23,24,24,25,25,26,26,27,27,28,28,29,29,30,30,31,31,32,32,33,33,34,34,35,35,36,36,37,37,38,38,39,39,40,40,41,41,42,42,43,43,44,44,45,45,46,46,47,47,48,48,49,49,50,50,51,51,52,52,53,53,54,54,55,55,56,56,57,57,58,58,59,59,60,60,62,62],"right_children":[2,4,6,8,10,12,14,16,18,20,22,24,26,28,30,32,34,36,38,40,42,44,46,48,50,52,54,56,58,60,62,64,66,68,70,72,74,76,78,80,82,84,86,88,90,92,94,96,98,100,102,104,106,108,110,112,114,116,118,120,122,-1,124,-1,-1,-1,-1,-1,-1,-1,-1,-1,-1,-1,-1,-1,-1,-1,-1,-1,-1,-1,-1,-1,-1,-1,-1,-1,-1,-1,-1,-1,-1,-1,-1,-1,-1,-1,-1,-1,-1,-1,-1,-1,-1,-1,-1,-1,-1,-1,-1,-1,-1,-1,-1,-1,-1,-1,-1,-1,-1,-1,-1,-1,-1],"split_conditions":[2.173913E-1,1.00416664E2,2.7083334E-1,3E0,2.5454545E0,2.2857144E0,2.88199E3,7.753846E1,8.52071E-1,4E0,3.20288E2,3.527778E-7,3.946E1,2.8E1,8.4875E1,8.4E1,1.0187755E0,4.3076925E0,1.6E1,1.112E2,1.0933333E1,3.2252E2,2.25E2,3E0,2E0,2.9866667E0,1.6470588E0,2.1106627E0,1E0,4.4615383E0,3.1E1,6.1960783E0,3.0171428E0,1.9012346E1,2.5906668E0,2.5714285E0,2.64E0,6.1538463E0,1.92E2,1.2345679E0,7E-1,2.5223076E0,2.958E1,8.922222E1,5.486111E-1,2.675E0,1.6363636E0,1.96E2,1.75E0,6.8454544E1,1.625E0,3.5E1,1.6315E3,9E0,3.084E1,1.4655E3,2.85E0,7.2E1,5.4351852E1,3E1,1.5384616E0,-5.900973E-3,1.1846154E1,4.4005696E-2,5.9646238E-2,2.2271156E-2,-2.726295E-2,-2.5898954E-2,-1.6416358E-2,1.405098E-2,3.2285515E-2,-2.617988E-2,-3.745094E-3,2.4615385E-2,8.794094E-4,1.7899534E-2,4.2672906E-2,1.2034765E-2,-2.2917746E-2,2.0324519E-2,-3.4752132E-3,-6.743704E-3,1.3068097E-2,-1.7722068E-2,1.1805136E-3,-9.555004E-3,1.8674943E-4,1.1636281E-2,-4.8653604E-3,3.4705967E-2,2.1491745E-2,6.9398247E-3,2.2504333E-2,1.8611336E-2,-2.9659709E-2,1.0431192E-2,-1.2609388E-2,-1.47153875E-2,-2.259791E-2,-1.1602069E-2,2.8242603E-2,-2.6144722E-2,-9.240684E-3,6.608373E-3,5.455554E-4,-1.8642964E-2,-3.573376E-3,1.314916E-2,-1.5653167E-2,-2.7125776E-2,-1.1919976E-3,-3.8560373E-3,-2.7094243E-2,-1.5354789E-2,5.5752806E-3,3.362755E-4,2.1277394E-2,9.988081E-4,-1.16449455E-2,7.043243E-4,8.667676E-3,1.6451001E-2,-2.4367845E-2,3.3026875E-3,1.5253465E-2],"split_indices":[63,39,117,92,57,63,20,130,94,0,22,123,130,1,9,6,58,28,103,39,27,20,128,62,62,45,105,121,63,75,1,75,4,40,45,105,45,75,128,88,99,45,10,130,106,45,105,37,94,9,63,1,20,6,10,20,57,1,130,1,105,0,3,0,0,0,0,0,0,0,0,0,0,0,0,0,0,0,0,0,0,0,0,0,0,0,0,0,0,0,0,0,0,0,0,0,0,0,0,0,0,0,0,0,0,0,0,0,0,0,0,0,0,0,0,0,0,0,0,0,0,0,0,0,0],"split_type":[0,0,0,0,0,0,0,0,0,0,0,0,0,0,0,0,0,0,0,0,0,0,0,0,0,0,0,0,0,0,0,0,0,0,0,0,0,0,0,0,0,0,0,0,0,0,0,0,0,0,0,0,0,0,0,0,0,0,0,0,0,0,0,0,0,0,0,0,0,0,0,0,0,0,0,0,0,0,0,0,0,0,0,0,0,0,0,0,0,0,0,0,0,0,0,0,0,0,0,0,0,0,0,0,0,0,0,0,0,0,0,0,0,0,0,0,0,0,0,0,0,0,0,0,0],"sum_hessian":[2.507E3,9.72E2,1.535E3,6.81E2,2.91E2,9.79E2,5.56E2,5.25E2,1.56E2,1.51E2,1.4E2,8.56E2,1.23E2,4.97E2,5.9E1,1.7E2,3.55E2,4.7E1,1.09E2,2.9E1,1.22E2,5E1,9E1,7.1E2,1.46E2,1.4E1,1.09E2,5.7E1,4.4E2,5.5E1,4E0,1.67E2,3E0,2E1,3.35E2,2.1E1,2.6E1,9.9E1,1E1,2.1E1,8E0,6.3E1,5.9E1,7E0,4.3E1,8.5E1,5E0,4.3E1,6.67E2,1E1,1.36E2,2E0,1.2E1,5E0,1.04E2,4.4E1,1.3E1,2.46E2,1.94E2,3E0,5.2E1,1E0,3E0,1.52E2,1.5E1,1E0,2E0,1E1,1E1,7.9E1,2.56E2,1.4E1,7E0,7E0,1.9E1,8.8E1,1.1E1,2E0,8E0,2E1,1E0,6E0,2E0,5.8E1,5E0,2.9E1,3E1,4E0,3E0,1.4E1,2.9E1,6.6E1,1.9E1,1E0,4E0,1.6E1,2.7E1,5.37E2,1.3E2,8E0,2E0,1.22E2,1.4E1,1E0,1E0,9E0,3E0,1E0,4E0,1.03E2,1E0,1.2E1,3.2E1,5E0,8E0,2.19E2,2.7E1,5.4E1,1.4E2,1E0,2E0,1E0,5.1E1,1E0,2E0],"tree_param":{"num_deleted":"0","num_feature":"132","num_nodes":"125","size_leaf_vector":"1"}},{"base_weights":[6.052378E-3,3.929268E-1,-2.4176519E-1,9.387998E-2,5.2353835E-1,-3.2555494E-1,-1.01298034E-1,-2.6855525E-2,3.3199748E-1,6.3228804E-1,1.9028892E-1,-4.1332904E-1,-2.8506222E-1,4.1090572E-1,-1.20706014E-1,-1.623391E-1,2.8746238E-1,4.8069796E-1,1.0628955E-1,8.32633E-1,5.087067E-1,2.4330528E-1,-4.1027007E-1,-4.2066887E-1,1.0092063E-1,-3.0729493E-1,-8.8949546E-2,3.426496E-2,2.2475906E-1,-6.1632174E-1,-1.0371017E-1,-3.079831E-1,-5.734288E-2,3.7446666E-1,6.36487E-2,6.066328E-1,3.1510693E-1,-1.9301112E-1,2.6863104E-1,-1.781689E-1,8.4953076E-1,5.786849E-1,-3.7263796E-1,-3.1878966E-1,3.1030032E-1,-4.50545E-1,2.8326034E-3,-3.3120367E-1,-4.643912E-1,1.612649E-2,-3.511411E-2,-3.426211E-1,-1.8875928E-1,5.219572E-2,-4.839195E-1,-8.331684E-2,4.0516976E-1,-6.529664E-1,1.6592741E-4,9.089807E-3,-1.7558303E-1,-1.0752724E-2,-2.3073692E-2,1.7742793E-3,-1.0560269E-2,2.0327331E-2,-2.4322301E-2,-2.3347689E-2,6.1164238E-3,3.6552526E-2,1.4566916E-2,2.2326922E-2,7.58899E-3,-1.5182798E-2,4.450486E-3,1.8735288E-2,-4.3984447E-3,2.1714378E-2,-2.6354179E-2,4.7320943E-2,3.5373315E-2,3.443999E-2,1.817887E-2,-2.1737017E-2,2.6392912E-2,1.7811349E-3,-2.5767196E-2,9.085391E-4,2.2270558E-2,-3.888619E-3,-2.3756418E-2,-2.76108E-2,-1.45915765E-2,-1.8249953E-2,-2.6240066E-2,2.1026651E-3,-6.6654086E-3,2.1235787E-3,-1.7662214E-2,1.8714173E-2,-1.0646108E-2,9.348087E-3,-6.6974326E-3,-8.223005E-3,-2.8172323E-2,3.4834386E-3,-1.2976269E-2,2.7988186E-2,8.477092E-3,-3.3838898E-2,-6.799519E-3,7.92321E-3,-4.6688616E-3,3.0655912E-3,-1.0547861E-2],"categories":[],"categories_nodes":[],"categories_segments":[],"categories_sizes":[],"default_left":[0,0,0,0,0,0,0,0,0,0,0,0,0,0,0,0,0,0,0,0,0,0,0,0,0,0,0,0,0,0,0,0,0,0,0,0,0,0,0,0,0,0,0,0,0,0,0,0,0,0,0,0,0,0,0,0,0,0,0,0,0,0,0,0,0,0,0,0,0,0,0,0,0,0,0,0,0,0,0,0,0,0,0,0,0,0,0,0,0,0,0,0,0,0,0,0,0,0,0,0,0,0,0,0,0,0,0,0,0,0,0,0,0,0,0],"id":9,"left_children":[1,3,5,7,9,11,13,15,17,19,21,23,25,27,29,31,33,35,37,39,41,43,45,47,49,51,53,-1,55,57,59,61,63,65,67,69,71,73,75,77,79,81,83,85,87,89,-1,91,93,-1,95,97,99,101,103,105,107,109,-1,111,113,-1,-1,-1,-1,-1,-1,-1,-1,-1,-1,-1,-1,-1,-1,-1,-1,-1,-1,-1,-1,-1,-1,-1,-1,-1,-1,-1,-1,-1,-1,-1,-1,-1,-1,-1,-1,-1,-1,-1,-1,-1,-1,-1,-1,-1,-1,-1,-1,-1,-1,-1,-1,-1,-1],"loss_changes":[2.3891785E2,3.79552E1,1.7845215E1,8.54744E0,2.4414688E1,3.26223E0,5.7059364E0,8.478479E0,3.305194E0,1.2203461E1,5.4488497E0,1.167263E0,2.8241768E0,9.185991E-1,4.560532E0,2.1079376E0,1.1445303E0,1.0600672E0,2.0439947E0,3.4478607E0,1.982827E1,5.9358435E0,2.8879786E-1,9.962044E-1,1.6205807E-1,2.3933334E0,3.8161318E0,0E0,8.118801E-1,4.1088343E-1,4.314658E0,7.280512E-1,1.1786859E0,1.3853397E0,6.1756325E-1,1.0815487E0,5.332818E-1,4.9509054E-1,1.0542705E0,1.083686E0,1.9456787E0,6.7370834E0,1.5716317E0,1.2025993E0,5.478217E0,8.218026E-2,0E0,7.090187E-1,9.7929E-1,0E0,3.5915576E-2,1.8600044E0,1.9435406E0,1.3044261E0,3.6463785E-1,1.7982504E-1,2.329365E-1,1.1723518E-1,0E0,3.1984348E0,2.7364216E0,0E0,0E0,0E0,0E0,0E0,0E0,0E0,0E0,0E0,0E0,0E0,0E0,0E0,0E0,0E0,0E0,0E0,0E0,0E0,0E0,0E0,0E0,0E0,0E0,0E0,0E0,0E0,0E0,0E0,0E0,0E0,0E0,0E0,0E0,0E0,0E0,0E0,0E0,0E0,0E0,0E0,0E0,0E0,0E0,0E0,0E0,0E0,0E0,0E0,0E0,0E0,0E0,0E0,0E0],"parents":[2147483647,0,0,1,1,2,2,3,3,4,4,5,5,6,6,7,7,8,8,9,9,10,10,11,11,12,12,13,13,14,14,15,15,16,16,17,17,18,18,19,19,20,20,21,21,22,22,23,23,24,24,25,25,26,26,28,28,29,29,30,30,31,31,32,32,33,33,34,34,35,35,36,36,37,37,38,38,39,39,40,40,41,41,42,42,43,43,44,44,45,45,47,47,48,48,50,50,51,51,52,52,53,53,54,54,55,55,56,56,57,57,59,59,60,60],"right_children":[2,4,6,8,10,12,14,16,18,20,22,24,26,28,30,32,34,36,38,40,42,44,46,48,50,52,54,-1,56,58,60,62,64,66,68,70,72,74,76,78,80,82,84,86,88,90,-1,92,94,-1,96,98,100,102,104,106,108,110,-1,112,114,-1,-1,-1,-1,-1,-1,-1,-1,-1,-1,-1,-1,-1,-1,-1,-1,-1,-1,-1,-1,-1,-1,-1,-1,-1,-1,-1,-1,-1,-1,-1,-1,-1,-1,-1,-1,-1,-1,-1,-1,-1,-1,-1,-1,-1,-1,-1,-1,-1,-1,-1,-1,-1,-1],"split_conditions":[3.305785E-1,2.5906668E0,4.2307693E-1,8.6E1,1E0,8.75E-1,1.4285715E0,2.5263157E0,1.9102709E1,7.753846E1,5E0,1.9130435E0,2.2194445E-1,3.7E1,2.5E1,6.0666668E1,1.8461539E0,1.1255753E0,2.3433332E0,4E1,2.9833333E0,5.925926E-1,9.4E1,3.4763332E1,7.1E1,3.0555556E0,6.35E-6,3.426496E-2,7.7111113E-1,7.0833335E0,1.2244898E0,6.521667E1,3.5E-1,1.6E1,7E0,8.1777775E-1,1.37179985E1,1.03875E2,2.2945E3,3.0171428E0,7.733333E-1,6E0,2.909294E1,4.377778E1,9E0,6.4E1,2.8326034E-3,2.5925925E0,3.569564E2,1.612649E-2,6E1,8.796335E-1,1.592E1,1.4532872E0,4E0,5E1,2.8843536E0,3.0154545E0,1.6592741E-4,3E0,4.379584E1,-1.0752724E-2,-2.3073692E-2,1.7742793E-3,-1.0560269E-2,2.0327331E-2,-2.4322301E-2,-2.3347689E-2,6.1164238E-3,3.6552526E-2,1.4566916E-2,2.2326922E-2,7.58899E-3,-1.5182798E-2,4.450486E-3,1.8735288E-2,-4.3984447E-3,2.1714378E-2,-2.6354179E-2,4.7320943E-2,3.5373315E-2,3.443999E-2,1.817887E-2,-2.1737017E-2,2.6392912E-2,1.7811349E-3,-2.5767196E-2,9.085391E-4,2.2270558E-2,-3.888619E-3,-2.3756418E-2,-2.76108E-2,-1.45915765E-2,-1.8249953E-2,-2.6240066E-2,2.1026651E-3,-6.6654086E-3,2.1235787E-3,-1.7662214E-2,1.8714173E-2,-1.0646108E-2,9.348087E-3,-6.6974326E-3,-8.223005E-3,-2.8172323E-2,3.4834386E-3,-1.2976269E-2,2.7988186E-2,8.477092E-3,-3.3838898E-2,-6.799519E-3,7.92321E-3,-4.6688616E-3,3.0655912E-3,-1.0547861E-2],"split_indices":[64,45,118,8,62,88,105,57,111,130,97,99,118,1,1,9,87,88,45,38,45,46,7,109,8,70,122,0,46,28,64,110,69,103,0,34,111,130,20,4,46,0,15,129,91,1,0,33,22,0,1,88,4,64,0,1,76,45,0,91,130,0,0,0,0,0,0,0,0,0,0,0,0,0,0,0,0,0,0,0,0,0,0,0,0,0,0,0,0,0,0,0,0,0,0,0,0,0,0,0,0,0,0,0,0,0,0,0,0,0,0,0,0,0,0],"split_type":[0,0,0,0,0,0,0,0,0,0,0,0,0,0,0,0,0,0,0,0,0,0,0,0,0,0,0,0,0,0,0,0,0,0,0,0,0,0,0,0,0,0,0,0,0,0,0,0,0,0,0,0,0,0,0,0,0,0,0,0,0,0,0,0,0,0,0,0,0,0,0,0,0,0,0,0,0,0,0,0,0,0,0,0,0,0,0,0,0,0,0,0,0,0,0,0,0,0,0,0,0,0,0,0,0,0,0,0,0,0,0,0,0,0,0],"sum_hessian":[2.49E3,9.72E2,1.518E3,2.96E2,6.76E2,9.5E2,5.68E2,1.97E2,9.9E1,5.09E2,1.67E2,2.97E2,6.53E2,2E1,5.48E2,1.38E2,5.9E1,5.9E1,4E1,1.92E2,3.17E2,1.54E2,1.3E1,2.93E2,4E0,5.86E2,6.7E1,7E0,1.3E1,1.7E1,5.31E2,5.7E1,8.1E1,4.2E1,1.7E1,3.2E1,2.7E1,1.4E1,2.6E1,3E0,1.89E2,2.94E2,2.3E1,1.6E1,1.38E2,1.2E1,1E0,9.9E1,1.94E2,1E0,3E0,4.5E2,1.36E2,5E1,1.7E1,5E0,8E0,1.6E1,1E0,2.07E2,3.24E2,3.7E1,2E1,5.1E1,3E1,4.1E1,1E0,1E0,1.6E1,2.2E1,1E1,1.4E1,1.3E1,1E1,4E0,2E1,6E0,1E0,2E0,1.09E2,8E1,1.93E2,1.01E2,2.2E1,1E0,6E0,1E1,4.4E1,9.4E1,1E0,1.1E1,1.3E1,8.6E1,7.6E1,1.18E2,2E0,1E0,1.2E1,4.38E2,5E0,1.31E2,2.9E1,2.1E1,4E0,1.3E1,3E0,2E0,4E0,4E0,1.5E1,1E0,8.4E1,1.23E2,4.2E1,2.82E2],"tree_param":{"num_deleted":"0","num_feature":"132","num_nodes":"115","size_leaf_vector":"1"}},{"base_weights":[4.5603225E-3,3.6984816E-1,-2.1928264E-1,5.3486866E-1,4.6924576E-2,-3.2165077E-1,-7.10865E-2,6.8697304E-1,3.9465442E-1,-1.4473166E-1,2.7501538E-1,-2.665477E-1,-3.6717916E-1,-3.6974996E-2,-3.469033E-1,7.639721E-2,7.3315305E-1,-2.5240514E-1,4.539287E-1,-2.6408827E-2,-3.4768635E-1,3.1385005E-1,-2.7048279E-2,-1.8651082E-1,-3.826344E-1,1.4744098E-2,-3.7671822E-1,4.199058E-2,-1.6292939E-1,1.4956637E-1,-3.797563E-1,4.5749772E-1,-5.249144E-1,7.545757E-1,-1.7831434E-2,-5.2009076E-1,4.078953E-2,6.1013293E-1,3.1985563E-1,1.7610621E-1,-1.07084736E-1,-9.623458E-2,-3.980587E-1,4.636557E-1,2.2547294E-1,2.7534278E-2,-2.3304047E-1,-4.4206497E-1,-1.9381738E-1,-1.424485E-2,9.512403E-2,-5.83379E-1,-3.6268765E-1,-1.315266E-1,1.7613983E-1,-2.5626493E-1,-1.6067972E-2,4.886389E-4,9.1035785E-3,-4.2153707E-1,1.01344265E-1,-2.8315869E-3,4.2508688E-2,-3.3691652E-2,-1.3550642E-2,4.032361E-2,2.4160095E-2,-1.3621389E-2,-3.2992177E-2,4.9332485E-2,2.7244482E-2,1.7204719E-2,-2.574535E-2,1.7462304E-2,-2.170101E-3,-1.1552286E-2,-2.3269E-3,2.4201258E-3,-1.2446938E-2,-3.0885646E-2,-1.7264107E-2,8.742972E-3,2.5665939E-2,-6.013483E-3,1.4811252E-2,-1.8641913E-2,4.9345004E-3,2.8515302E-4,-1.4314437E-2,-2.5695248E-2,-1.779559E-2,1.5165514E-2,-1.5095445E-2,-1.1314541E-3,7.105504E-3,-9.017587E-5,-3.0204257E-2,-2.402693E-2,-1.6923657E-2,2.13433E-3,-1.3549528E-2,1.368939E-2,-2.679373E-3,-1.4956652E-2,-1.4163717E-3,2.7191997E-2,-2.521591E-3,1.630342E-2,-2.1986747E-2,-6.9907825E-3,1.2843907E-2],"categories":[],"categories_nodes":[],"categories_segments":[],"categories_sizes":[],"default_left":[0,0,0,0,0,0,0,0,0,0,0,0,0,0,0,0,0,0,0,0,0,0,0,0,0,0,0,0,0,0,0,0,0,0,0,0,0,0,0,0,0,0,0,0,0,0,0,0,0,0,0,0,0,0,0,0,0,0,0,0,0,0,0,0,0,0,0,0,0,0,0,0,0,0,0,0,0,0,0,0,0,0,0,0,0,0,0,0,0,0,0,0,0,0,0,0,0,0,0,0,0,0,0,0,0,0,0,0,0,0,0],"id":10,"left_children":[1,3,5,7,9,11,13,15,17,19,21,23,25,27,29,31,33,35,37,39,41,43,-1,45,47,49,51,53,55,57,59,61,63,65,-1,67,-1,69,71,73,75,77,79,81,83,85,87,89,91,-1,93,95,97,99,101,103,105,-1,-1,107,109,-1,-1,-1,-1,-1,-1,-1,-1,-1,-1,-1,-1,-1,-1,-1,-1,-1,-1,-1,-1,-1,-1,-1,-1,-1,-1,-1,-1,-1,-1,-1,-1,-1,-1,-1,-1,-1,-1,-1,-1,-1,-1,-1,-1,-1,-1,-1,-1,-1,-1],"loss_changes":[2.0229117E2,5.0066574E1,2.324878E1,1.2994415E1,1.3984897E1,2.1775665E0,5.895728E0,8.318314E0,1.2617973E1,4.1692843E0,4.796279E0,3.7752E0,1.8052826E0,5.5766354E0,1.1822252E0,5.2816706E0,6.712616E0,8.430623E0,6.0667343E0,1.8323857E0,7.7233124E-1,1.7489729E0,0E0,2.4663982E0,1.7995319E0,3.4020728E-1,1.1860123E0,8.053801E0,2.9566784E0,2.094075E-2,1.3492689E0,2.874555E0,1.5767884E-1,3.4268951E0,0E0,6.163068E-1,0E0,2.827816E0,3.4752502E0,1.2313378E0,5.8968246E-1,2.7708954E-1,4.011221E-1,6.417093E-1,2.2372088E0,1.3187914E0,2.5823078E0,6.0312843E-1,2.3484542E0,0E0,6.407611E-2,3.4813404E-1,1.1329346E0,3.6803336E0,4.388989E0,1.2813311E0,1.662877E0,0E0,0E0,9.596729E-1,2.609668E-1,0E0,0E0,0E0,0E0,0E0,0E0,0E0,0E0,0E0,0E0,0E0,0E0,0E0,0E0,0E0,0E0,0E0,0E0,0E0,0E0,0E0,0E0,0E0,0E0,0E0,0E0,0E0,0E0,0E0,0E0,0E0,0E0,0E0,0E0,0E0,0E0,0E0,0E0,0E0,0E0,0E0,0E0,0E0,0E0,0E0,0E0,0E0,0E0,0E0,0E0],"parents":[2147483647,0,0,1,1,2,2,3,3,4,4,5,5,6,6,7,7,8,8,9,9,10,10,11,11,12,12,13,13,14,14,15,15,16,16,17,17,18,18,19,19,20,20,21,21,23,23,24,24,25,25,26,26,27,27,28,28,29,29,30,30,31,31,32,32,33,33,35,35,37,37,38,38,39,39,40,40,41,41,42,42,43,43,44,44,45,45,46,46,47,47,48,48,50,50,51,51,52,52,53,53,54,54,55,55,56,56,59,59,60,60],"right_children":[2,4,6,8,10,12,14,16,18,20,22,24,26,28,30,32,34,36,38,40,42,44,-1,46,48,50,52,54,56,58,60,62,64,66,-1,68,-1,70,72,74,76,78,80,82,84,86,88,90,92,-1,94,96,98,100,102,104,106,-1,-1,108,110,-1,-1,-1,-1,-1,-1,-1,-1,-1,-1,-1,-1,-1,-1,-1,-1,-1,-1,-1,-1,-1,-1,-1,-1,-1,-1,-1,-1,-1,-1,-1,-1,-1,-1,-1,-1,-1,-1,-1,-1,-1,-1,-1,-1,-1,-1,-1,-1,-1,-1],"split_conditions":[2E0,1.00416664E2,4.16455E-1,8.472E1,2.5263157E0,9.166667E-1,2.88199E3,4.5936942E-1,6.2E-1,1.181E2,1.6E1,1.7142857E0,2.3987595E1,9.677419E-1,4.631579E0,6.8742386E1,1.6E1,8.755556E1,3.3438015E1,4E0,2.0252142E1,3.3051E2,-2.7048279E-2,1.7419355E0,3.3076923E0,1.1742116E1,2.357143E0,9E0,3.2307692E0,7.3333335E0,8.4875E1,4.2E-1,4E0,1E0,-1.7831434E-2,5.222E-1,4.078953E-2,2.1367348E1,1.6E1,1.8367347E0,1.7777778E0,1.1360947E0,2.8148333E1,3.8685E2,1.345E3,9.285714E-1,2E0,2.8163265E1,8.472E1,-1.424485E-2,4.888889E-1,1.8154834E2,5.2469134E-1,3.6363637E-1,8.742857E1,6.5306125E0,1.1111112E0,4.886389E-4,9.1035785E-3,1.5384616E0,6.6358023E0,-2.8315869E-3,4.2508688E-2,-3.3691652E-2,-1.3550642E-2,4.032361E-2,2.4160095E-2,-1.3621389E-2,-3.2992177E-2,4.9332485E-2,2.7244482E-2,1.7204719E-2,-2.574535E-2,1.7462304E-2,-2.170101E-3,-1.1552286E-2,-2.3269E-3,2.4201258E-3,-1.2446938E-2,-3.0885646E-2,-1.7264107E-2,8.742972E-3,2.5665939E-2,-6.013483E-3,1.4811252E-2,-1.8641913E-2,4.9345004E-3,2.8515302E-4,-1.4314437E-2,-2.5695248E-2,-1.779559E-2,1.5165514E-2,-1.5095445E-2,-1.1314541E-3,7.105504E-3,-9.017587E-5,-3.0204257E-2,-2.402693E-2,-1.6923657E-2,2.13433E-3,-1.3549528E-2,1.368939E-2,-2.679373E-3,-1.4956652E-2,-1.4163717E-3,2.7191997E-2,-2.521591E-3,1.630342E-2,-2.1986747E-2,-6.9907825E-3,1.2843907E-2],"split_indices":[61,39,118,130,57,63,20,46,46,39,103,94,15,63,75,130,103,9,40,0,111,21,0,51,33,16,57,74,57,3,9,76,74,61,0,46,0,40,103,58,51,100,110,19,19,94,92,10,130,0,106,21,106,63,130,28,87,0,0,105,10,0,0,0,0,0,0,0,0,0,0,0,0,0,0,0,0,0,0,0,0,0,0,0,0,0,0,0,0,0,0,0,0,0,0,0,0,0,0,0,0,0,0,0,0,0,0,0,0,0,0],"split_type":[0,0,0,0,0,0,0,0,0,0,0,0,0,0,0,0,0,0,0,0,0,0,0,0,0,0,0,0,0,0,0,0,0,0,0,0,0,0,0,0,0,0,0,0,0,0,0,0,0,0,0,0,0,0,0,0,0,0,0,0,0,0,0,0,0,0,0,0,0,0,0,0,0,0,0,0,0,0,0,0,0,0,0,0,0,0,0,0,0,0,0,0,0,0,0,0,0,0,0,0,0,0,0,0,0,0,0,0,0,0,0],"sum_hessian":[2.472E3,9.39E2,1.533E3,6.21E2,3.18E2,9.06E2,6.27E2,2.96E2,3.25E2,1.73E2,1.45E2,4.13E2,4.93E2,5.59E2,6.8E1,2.1E1,2.75E2,2.7E1,2.98E2,1.1E2,6.3E1,1.39E2,6E0,2.46E2,1.67E2,1.2E1,4.81E2,3.44E2,2.15E2,4E0,6.4E1,1.3E1,8E0,2.7E2,5E0,2.2E1,5E0,1.36E2,1.62E2,3.1E1,7.9E1,1.1E1,5.2E1,5E1,8.9E1,4.4E1,2.02E2,1.26E2,4.1E1,2E0,1E1,2.8E1,4.53E2,1.5E2,1.94E2,1.31E2,8.4E1,1E0,3E0,5.9E1,5E0,6E0,7E0,4E0,4E0,2.25E2,4.5E1,9E0,1.3E1,1.8E1,1.18E2,1.58E2,4E0,1.7E1,1.4E1,2.5E1,5.4E1,6E0,5E0,8E0,4.4E1,8E0,4.2E1,1.5E1,7.4E1,6E0,3.8E1,3.7E1,1.65E2,6.6E1,6E1,7E0,3.4E1,3E0,7E0,1E0,2.7E1,7.4E1,3.79E2,6.7E1,8.3E1,1.36E2,5.8E1,1.1E2,2.1E1,4E0,8E1,1E0,5.8E1,2E0,3E0],"tree_param":{"num_deleted":"0","num_feature":"132","num_nodes":"111","size_leaf_vector":"1"}},{"base_weights":[7.7194866E-4,3.5310906E-1,-2.2027132E-1,7.282476E-2,4.804395E-1,-2.9565802E-1,-1.0973774E-1,1.7682655E-1,-1.9476599E-1,5.699727E-1,1.8390214E-1,-2.3237267E-1,-3.485017E-1,-8.647388E-2,-4.001733E-1,3.0348253E-1,2.9811107E-2,-2.8774703E-1,1.433653E-1,7.4834335E-1,4.6104574E-1,-2.188486E-1,2.744208E-1,-7.889925E-2,-2.8230557E-1,-3.245673E-1,-4.5701528E-1,-5.2260168E-2,-3.055612E-1,-1.547097E-1,-5.8304113E-1,-2.3154058E-2,3.9249414E-1,7.495359E-2,-2.8500697E-1,-4.8881713E-2,-3.3897433E-1,-9.958822E-2,2.6315832E-1,-2.7173001E-2,7.5800264E-1,5.181372E-1,-4.155241E-1,6.923755E-2,-3.9874777E-1,1.5128976E-2,4.0697342E-1,-3.1269467E-1,8.4521756E-2,-2.248858E-2,-3.3008206E-1,-3.8965878E-1,-2.701363E-1,-5.119109E-1,-3.7275743E-1,3.7280876E-2,-1.6627969E-1,-3.525436E-1,2.2133777E-1,-7.670054E-3,-3.4991035E-1,-6.093717E-1,1.8806041E-3,2.1808688E-2,-6.3247136E-3,2.816434E-2,1.5448551E-2,-1.3595447E-4,1.2814528E-2,-7.460215E-3,-2.7663095E-2,-6.6328845E-3,5.584569E-3,-2.3587791E-2,-1.2154353E-2,2.1677932E-3,-8.271852E-3,1.6638417E-2,1.1671871E-3,1.0352081E-2,3.8742177E-2,2.7037267E-2,-2.5109634E-2,-2.4371825E-2,-1.4743403E-2,2.2111297E-2,-8.626744E-3,-2.5993815E-2,7.7585517E-3,-4.299711E-3,1.8377364E-2,-1.2080215E-3,2.5052417E-2,1.4844405E-2,-1.748358E-2,-3.8389217E-3,1.5540674E-2,-7.873225E-3,1.3708839E-2,-1.5461326E-2,-3.0012298E-2,-5.9349607E-3,-2.0310065E-2,-1.17590595E-2,-1.9743096E-2,-8.792281E-5,-2.6114315E-2,-1.0093397E-2,-2.4393244E-2,-2.177529E-2,3.4627002E-3,-5.4362644E-3,-1.5606262E-2,-1.9252053E-2,1.4808687E-2,3.1923057E-4,1.5302106E-2,6.8441513E-3,-9.956458E-3,-9.4401836E-4,-2.2089658E-2,-1.7043889E-2,-3.2972567E-2],"categories":[],"categories_nodes":[],"categories_segments":[],"categories_sizes":[],"default_left":[0,0,0,0,0,0,0,0,0,0,0,0,0,0,0,0,0,0,0,0,0,0,0,0,0,0,0,0,0,0,0,0,0,0,0,0,0,0,0,0,0,0,0,0,0,0,0,0,0,0,0,0,0,0,0,0,0,0,0,0,0,0,0,0,0,0,0,0,0,0,0,0,0,0,0,0,0,0,0,0,0,0,0,0,0,0,0,0,0,0,0,0,0,0,0,0,0,0,0,0,0,0,0,0,0,0,0,0,0,0,0,0,0,0,0,0,0,0,0,0,0,0,0],"id":11,"left_children":[1,3,5,7,9,11,13,15,17,19,21,23,25,27,29,31,33,35,37,39,41,43,45,47,49,51,53,55,57,59,61,63,65,67,69,71,73,75,77,-1,79,81,83,85,87,89,91,93,95,97,99,101,103,105,107,109,111,113,115,117,119,121,-1,-1,-1,-1,-1,-1,-1,-1,-1,-1,-1,-1,-1,-1,-1,-1,-1,-1,-1,-1,-1,-1,-1,-1,-1,-1,-1,-1,-1,-1,-1,-1,-1,-1,-1,-1,-1,-1,-1,-1,-1,-1,-1,-1,-1,-1,-1,-1,-1,-1,-1,-1,-1,-1,-1,-1,-1,-1,-1,-1,-1],"loss_changes":[1.945485E2,3.4333252E1,1.2758347E1,8.4390745E0,1.7471237E1,2.9689636E0,4.1815457E0,4.050197E0,2.7136354E0,9.525085E0,5.710807E0,3.181017E0,1.1372871E0,4.324095E0,1.9746175E0,3.410799E0,1.4709527E0,8.032708E-1,5.791861E-1,2.7952194E0,1.6129509E1,1.5305758E0,4.3588085E0,3.9999661E0,3.9027176E0,1.3438225E0,2.1158981E-1,5.1313314E0,2.0089188E0,6.000629E-1,4.4781685E-1,1.2893163E0,1.1383524E0,1.2683403E0,3.9103746E-1,1.8969491E-1,5.855856E-1,7.306154E-2,2.0924741E-1,0E0,1.6025238E0,7.1688004E0,2.9803753E-2,1.158439E0,1.2883859E0,1.5996642E0,3.4190512E0,1.0730548E0,2.2869196E0,2.045307E0,1.3131409E0,7.7653694E-1,8.924484E-1,2.6373196E-1,6.4900064E-1,4.293005E0,1.8211498E0,1.6319199E0,1.2549827E-1,3.8704538E-1,2.6540244E-1,1.1135864E-1,0E0,0E0,0E0,0E0,0E0,0E0,0E0,0E0,0E0,0E0,0E0,0E0,0E0,0E0,0E0,0E0,0E0,0E0,0E0,0E0,0E0,0E0,0E0,0E0,0E0,0E0,0E0,0E0,0E0,0E0,0E0,0E0,0E0,0E0,0E0,0E0,0E0,0E0,0E0,0E0,0E0,0E0,0E0,0E0,0E0,0E0,0E0,0E0,0E0,0E0,0E0,0E0,0E0,0E0,0E0,0E0,0E0,0E0,0E0,0E0,0E0],"parents":[2147483647,0,0,1,1,2,2,3,3,4,4,5,5,6,6,7,7,8,8,9,9,10,10,11,11,12,12,13,13,14,14,15,15,16,16,17,17,18,18,19,19,20,20,21,21,22,22,23,23,24,24,25,25,26,26,27,27,28,28,29,29,30,30,31,31,32,32,33,33,34,34,35,35,36,36,37,37,38,38,40,40,41,41,42,42,43,43,44,44,45,45,46,46,47,47,48,48,49,49,50,50,51,51,52,52,53,53,54,54,55,55,56,56,57,57,58,58,59,59,60,60,61,61],"right_children":[2,4,6,8,10,12,14,16,18,20,22,24,26,28,30,32,34,36,38,40,42,44,46,48,50,52,54,56,58,60,62,64,66,68,70,72,74,76,78,-1,80,82,84,86,88,90,92,94,96,98,100,102,104,106,108,110,112,114,116,118,120,122,-1,-1,-1,-1,-1,-1,-1,-1,-1,-1,-1,-1,-1,-1,-1,-1,-1,-1,-1,-1,-1,-1,-1,-1,-1,-1,-1,-1,-1,-1,-1,-1,-1,-1,-1,-1,-1,-1,-1,-1,-1,-1,-1,-1,-1,-1,-1,-1,-1,-1,-1,-1,-1,-1,-1,-1,-1,-1,-1,-1,-1],"split_conditions":[3.0964237E-1,2.5906668E0,3.8899174E-1,1.1353846E2,1E0,1.4201183E0,1.5484712E0,9.917355E-1,1.125E1,7.753846E1,2.4876816E2,2.3529413E0,3.7037036E0,2.75E3,7E0,1.9285715E0,1.412506E2,1.991238E1,5.6131687E1,2E0,2.9833333E0,1.56E3,1E0,7.1428573E-1,1.941E3,1.9354838E0,3E0,1E0,2.958E1,2.55E0,6.4E1,1.32E2,1.937615E1,4.571429E0,1.1E1,9E0,2.6974E1,1.3428572E1,6E0,-2.7173001E-2,2.0977777E-1,3.76944E0,3.1578946E-1,1.97E0,9.3E1,1.625E0,1.598E-1,9.3E1,5.4545456E-1,2E0,2.8333333E0,1.1285714E1,9.339645E1,3.1246E2,1.6264463E1,5.4938046E1,1.8333334E0,3.4866667E0,9.1E1,2.3E0,2.5217392E0,1.7689561E2,1.8806041E-3,2.1808688E-2,-6.3247136E-3,2.816434E-2,1.5448551E-2,-1.3595447E-4,1.2814528E-2,-7.460215E-3,-2.7663095E-2,-6.6328845E-3,5.584569E-3,-2.3587791E-2,-1.2154353E-2,2.1677932E-3,-8.271852E-3,1.6638417E-2,1.1671871E-3,1.0352081E-2,3.8742177E-2,2.7037267E-2,-2.5109634E-2,-2.4371825E-2,-1.4743403E-2,2.2111297E-2,-8.626744E-3,-2.5993815E-2,7.7585517E-3,-4.299711E-3,1.8377364E-2,-1.2080215E-3,2.5052417E-2,1.4844405E-2,-1.748358E-2,-3.8389217E-3,1.5540674E-2,-7.873225E-3,1.3708839E-2,-1.5461326E-2,-3.0012298E-2,-5.9349607E-3,-2.0310065E-2,-1.17590595E-2,-1.9743096E-2,-8.792281E-5,-2.6114315E-2,-1.0093397E-2,-2.4393244E-2,-2.177529E-2,3.4627002E-3,-5.4362644E-3,-1.5606262E-2,-1.9252053E-2,1.4808687E-2,3.1923057E-4,1.5302106E-2,6.8441513E-3,-9.956458E-3,-9.4401836E-4,-2.2089658E-2,-1.7043889E-2,-3.2972567E-2],"split_indices":[64,45,118,39,61,64,121,106,27,130,22,105,64,19,61,57,14,111,40,8,45,19,102,93,19,51,63,63,10,44,2,37,15,75,103,74,111,3,74,0,117,118,99,115,7,58,117,39,63,102,57,3,130,19,4,13,63,45,8,105,57,22,0,0,0,0,0,0,0,0,0,0,0,0,0,0,0,0,0,0,0,0,0,0,0,0,0,0,0,0,0,0,0,0,0,0,0,0,0,0,0,0,0,0,0,0,0,0,0,0,0,0,0,0,0,0,0,0,0,0,0,0,0],"split_type":[0,0,0,0,0,0,0,0,0,0,0,0,0,0,0,0,0,0,0,0,0,0,0,0,0,0,0,0,0,0,0,0,0,0,0,0,0,0,0,0,0,0,0,0,0,0,0,0,0,0,0,0,0,0,0,0,0,0,0,0,0,0,0,0,0,0,0,0,0,0,0,0,0,0,0,0,0,0,0,0,0,0,0,0,0,0,0,0,0,0,0,0,0,0,0,0,0,0,0,0,0,0,0,0,0,0,0,0,0,0,0,0,0,0,0,0,0,0,0,0,0,0,0],"sum_hessian":[2.496E3,9.62E2,1.534E3,3.01E2,6.61E2,9.11E2,6.23E2,2.17E2,8.4E1,5.07E2,1.54E2,4.17E2,4.94E2,5.78E2,4.5E1,1.16E2,1.01E2,6.6E1,1.8E1,1.9E2,3.17E2,2.8E1,1.26E2,1.03E2,3.14E2,4.08E2,8.6E1,5.01E2,7.7E1,2E1,2.5E1,2.5E1,9.1E1,8.9E1,1.2E1,1.2E1,5.4E1,6E0,1.2E1,1E0,1.89E2,2.98E2,1.9E1,1.1E1,1.7E1,4.3E1,8.3E1,4.2E1,6.1E1,4.9E1,2.65E2,1.83E2,2.25E2,4.9E1,3.7E1,2.81E2,2.2E2,7.1E1,6E0,1.2E1,8E0,2.4E1,1E0,4E0,2.1E1,2.8E1,6.3E1,6.3E1,2.6E1,9E0,3E0,8E0,4E0,2.1E1,3.3E1,2E0,4E0,9E0,3E0,6E0,1.83E2,2.92E2,6E0,1E1,9E0,4E0,7E0,1.4E1,3E0,3.4E1,9E0,1.5E1,6.8E1,2E0,4E1,3.6E1,2.5E1,3.4E1,1.5E1,2.48E2,1.7E1,1.1E1,1.72E2,1.78E2,4.7E1,1E0,4.8E1,1.6E1,2.1E1,1.7E1,2.64E2,1.59E2,6.1E1,6.8E1,3E0,2E0,4E0,7E0,5E0,2E0,6E0,5E0,1.9E1],"tree_param":{"num_deleted":"0","num_feature":"132","num_nodes":"123","size_leaf_vector":"1"}},{"base_weights":[-2.7643202E-3,3.2663584E-1,-2.0696083E-1,4.5185623E-1,7.517439E-2,-2.6971352E-1,-6.258982E-2,5.3226924E-1,1.7118166E-1,2.864037E-1,-6.349209E-2,-2.4881749E-1,-4.1261983E-1,3.8356677E-1,-8.223625E-2,6.5414673E-1,3.7710032E-1,1.1154734E-1,8.820741E-1,2.3044683E-1,5.57879E-1,5.980856E-2,-2.0963115E-1,-1.1000905E-1,-2.6607868E-1,-2.5431237E-1,-4.3931675E-1,5.371279E-1,2.1649258E-2,3.1134745E-1,-1.0606475E-1,1.9526397E-1,7.3996466E-1,4.0165022E-1,-4.3080384E-1,-7.985807E-2,2.3777382E-1,5.1736724E-2,2.4596743E-2,-2.2147761E-3,3.4357697E-1,6.0373414E-1,-8.98059E-3,9.7374134E-2,-4.125415E-1,-8.6110406E-2,-3.1334448E-1,-2.2366686E-1,2.1459725E-1,-2.2918737E-1,-3.6260357E-1,2.2900963E-2,-3.171876E-1,-9.5958136E-2,-4.5082554E-1,6.5363806E-1,8.2443E-2,-1.1101121E-2,9.926494E-2,9.4606414E-2,6.4867246E-1,-6.742398E-2,-3.1581104E-1,3.028874E-2,-1.9918527E-2,3.9623417E-2,2.3341147E-2,2.8664937E-2,1.2370271E-2,2.0807266E-2,-3.206598E-2,9.3785E-3,-1.1519623E-2,1.6595421E-2,-1.1821753E-2,-3.5871416E-2,4.2272448E-3,1.8630078E-2,-2.240947E-2,3.343081E-2,6.598473E-4,8.316742E-3,-1.0087059E-2,-1.19930785E-2,-3.1019378E-2,-9.339402E-3,9.057469E-3,-2.0485733E-2,-5.6754905E-3,-4.8613003E-3,-2.0815497E-2,2.552036E-2,-5.8835177E-3,-1.2329369E-2,1.5721581E-3,-1.8598435E-2,2.3500705E-2,-3.997028E-3,5.9054415E-3,-1.8607095E-2,-1.5906066E-3,1.0539651E-3,-1.4102697E-2,-2.2746893E-2,3.8242342E-5,6.431818E-3,3.4663733E-2,6.046534E-4,5.0930977E-3,6.59153E-3,-1.5890837E-3,2.1496825E-2,-4.0471246E-3,3.4627955E-2,6.3423156E-3,2.1304209E-3,-7.3825703E-3,1.7348042E-2,-1.7643945E-2],"categories":[],"categories_nodes":[],"categories_segments":[],"categories_sizes":[],"default_left":[0,0,0,0,0,0,0,0,0,0,0,0,0,0,0,0,0,0,0,0,0,0,0,0,0,0,0,0,0,0,0,0,0,0,0,0,0,0,0,0,0,0,0,0,0,0,0,0,0,0,0,0,0,0,0,0,0,0,0,0,0,0,0,0,0,0,0,0,0,0,0,0,0,0,0,0,0,0,0,0,0,0,0,0,0,0,0,0,0,0,0,0,0,0,0,0,0,0,0,0,0,0,0,0,0,0,0,0,0,0,0,0,0,0,0,0,0,0,0],"id":12,"left_children":[1,3,5,7,9,11,13,15,17,19,21,23,25,27,29,31,33,35,37,39,41,43,45,47,49,51,53,55,57,59,61,63,65,67,69,71,73,-1,-1,75,77,79,-1,81,83,85,87,89,91,93,95,97,99,101,103,105,107,-1,109,111,113,115,117,-1,-1,-1,-1,-1,-1,-1,-1,-1,-1,-1,-1,-1,-1,-1,-1,-1,-1,-1,-1,-1,-1,-1,-1,-1,-1,-1,-1,-1,-1,-1,-1,-1,-1,-1,-1,-1,-1,-1,-1,-1,-1,-1,-1,-1,-1,-1,-1,-1,-1,-1,-1,-1,-1,-1,-1],"loss_changes":[1.6855981E2,3.0163124E1,1.3998428E1,1.4353607E1,9.39112E0,3.1164398E0,4.1512747E0,9.15239E0,6.0062833E0,1.800684E0,3.5082316E0,2.230156E0,4.6305466E-1,1.099901E0,4.2627306E0,1.07638855E1,4.5563393E0,3.2564855E0,1.4612484E-1,2.8171115E0,8.1861067E-1,1.9210458E0,1.1131742E0,3.958767E0,2.9009514E0,3.907206E-1,4.111786E-1,6.877675E-1,1.5442824E-1,1.8395481E0,3.4313335E0,1.1207524E1,2.971489E0,5.55048E0,1.5149552E0,2.2170992E0,3.6942706E0,0E0,0E0,2.2945156E0,1.8216076E0,7.574816E-1,0E0,2.0756495E0,1.3831961E-1,1.1639339E0,8.77882E-1,1.8838022E0,2.8121257E0,2.7695522E0,1.9682732E0,5.83983E-2,2.7044845E-1,1.1484639E-1,2.0648766E-1,1.3972092E-1,4.2326637E-3,0E0,2.9795509E-2,1.0355362E0,1.4116335E-1,3.1930606E0,1.7438931E0,0E0,0E0,0E0,0E0,0E0,0E0,0E0,0E0,0E0,0E0,0E0,0E0,0E0,0E0,0E0,0E0,0E0,0E0,0E0,0E0,0E0,0E0,0E0,0E0,0E0,0E0,0E0,0E0,0E0,0E0,0E0,0E0,0E0,0E0,0E0,0E0,0E0,0E0,0E0,0E0,0E0,0E0,0E0,0E0,0E0,0E0,0E0,0E0,0E0,0E0,0E0,0E0,0E0,0E0,0E0,0E0],"parents":[2147483647,0,0,1,1,2,2,3,3,4,4,5,5,6,6,7,7,8,8,9,9,10,10,11,11,12,12,13,13,14,14,15,15,16,16,17,17,18,18,19,19,20,20,21,21,22,22,23,23,24,24,25,25,26,26,27,27,28,28,29,29,30,30,31,31,32,32,33,33,34,34,35,35,36,36,39,39,40,40,41,41,43,43,44,44,45,45,46,46,47,47,48,48,49,49,50,50,51,51,52,52,53,53,54,54,55,55,56,56,58,58,59,59,60,60,61,61,62,62],"right_children":[2,4,6,8,10,12,14,16,18,20,22,24,26,28,30,32,34,36,38,40,42,44,46,48,50,52,54,56,58,60,62,64,66,68,70,72,74,-1,-1,76,78,80,-1,82,84,86,88,90,92,94,96,98,100,102,104,106,108,-1,110,112,114,116,118,-1,-1,-1,-1,-1,-1,-1,-1,-1,-1,-1,-1,-1,-1,-1,-1,-1,-1,-1,-1,-1,-1,-1,-1,-1,-1,-1,-1,-1,-1,-1,-1,-1,-1,-1,-1,-1,-1,-1,-1,-1,-1,-1,-1,-1,-1,-1,-1,-1,-1,-1,-1,-1,-1,-1,-1],"split_conditions":[3.305785E-1,9.925E1,3.202941E-1,1E0,9.1E1,2.2857144E0,1.4285715E0,8.8E1,1.4044375E-4,1.2636364E1,4.944E1,3E0,3.846154E1,5.327784E-1,3E1,5.655556E-1,2.8426316E0,7.5673467E-1,1.32E2,1.4054321E0,1.941E3,4.2333335E-7,6.122449E0,7.1E1,9.5E-1,1.461925E1,3.148148E-1,1.4444444E0,7.807143E1,1.2E1,1.83E0,4.745098E1,9.628571E1,3.1121107E1,3E0,4.377778E1,6.684211E-7,5.1736724E-2,2.4596743E-2,4.909091E0,1.1E1,1.33E1,-8.98059E-3,1.2345679E0,7.025E1,1.5E2,1E1,2.8166667E-6,5.411111E1,1.9555556E0,2.2173913E0,1.682353E1,1.811E3,4.7E1,3.084E1,2.1E0,1.575275E2,-1.1101121E-2,4.8E1,8.007143E1,2.44E2,2.922449E1,1.5E0,3.028874E-2,-1.9918527E-2,3.9623417E-2,2.3341147E-2,2.8664937E-2,1.2370271E-2,2.0807266E-2,-3.206598E-2,9.3785E-3,-1.1519623E-2,1.6595421E-2,-1.1821753E-2,-3.5871416E-2,4.2272448E-3,1.8630078E-2,-2.240947E-2,3.343081E-2,6.598473E-4,8.316742E-3,-1.0087059E-2,-1.19930785E-2,-3.1019378E-2,-9.339402E-3,9.057469E-3,-2.0485733E-2,-5.6754905E-3,-4.8613003E-3,-2.0815497E-2,2.552036E-2,-5.8835177E-3,-1.2329369E-2,1.5721581E-3,-1.8598435E-2,2.3500705E-2,-3.997028E-3,5.9054415E-3,-1.8607095E-2,-1.5906066E-3,1.0539651E-3,-1.4102697E-2,-2.2746893E-2,3.8242342E-5,6.431818E-3,3.4663733E-2,6.046534E-4,5.0930977E-3,6.59153E-3,-1.5890837E-3,2.1496825E-2,-4.0471246E-3,3.4627955E-2,6.3423156E-3,2.1304209E-3,-7.3825703E-3,1.7348042E-2,-1.7643945E-2],"split_indices":[64,39,117,62,129,63,105,129,123,27,40,62,129,106,129,46,45,46,38,76,19,123,28,1,93,111,88,63,9,26,42,129,39,40,5,129,123,0,0,75,104,27,0,88,9,38,74,123,40,58,87,3,19,8,10,10,21,0,2,39,37,40,105,0,0,0,0,0,0,0,0,0,0,0,0,0,0,0,0,0,0,0,0,0,0,0,0,0,0,0,0,0,0,0,0,0,0,0,0,0,0,0,0,0,0,0,0,0,0,0,0,0,0,0,0,0,0,0,0],"split_type":[0,0,0,0,0,0,0,0,0,0,0,0,0,0,0,0,0,0,0,0,0,0,0,0,0,0,0,0,0,0,0,0,0,0,0,0,0,0,0,0,0,0,0,0,0,0,0,0,0,0,0,0,0,0,0,0,0,0,0,0,0,0,0,0,0,0,0,0,0,0,0,0,0,0,0,0,0,0,0,0,0,0,0,0,0,0,0,0,0,0,0,0,0,0,0,0,0,0,0,0,0,0,0,0,0,0,0,0,0,0,0,0,0,0,0,0,0,0,0],"sum_hessian":[2.504E3,9.58E2,1.546E3,6.39E2,3.19E2,1.077E3,4.69E2,4.96E2,1.43E2,1.26E2,1.93E2,9.42E2,1.35E2,1.9E1,4.5E2,2.76E2,2.2E2,1.33E2,1E1,1.06E2,2E1,1.05E2,8.8E1,1.05E2,8.37E2,2.1E1,1.14E2,1.3E1,6E0,2.5E1,4.25E2,4.4E1,2.32E2,2.14E2,6E0,5.3E1,8E1,6E0,4E0,3.5E1,7.1E1,1.9E1,1E0,9.8E1,7E0,4.1E1,4.7E1,7.8E1,2.7E1,6.08E2,2.29E2,4E0,1.7E1,4E0,1.1E2,1E1,3E0,1E0,5E0,1.6E1,9E0,3.6E2,6.5E1,2.6E1,1.8E1,1.93E2,3.9E1,1E2,1.14E2,1E0,5E0,1.9E1,3.4E1,6.7E1,1.3E1,3E0,3.2E1,6.9E1,2E0,1.7E1,2E0,8E1,1.8E1,5E0,2E0,3E1,1.1E1,3.1E1,1.6E1,4.8E1,3E1,1.4E1,1.3E1,5.7E2,3.8E1,2.27E2,2E0,2E0,2E0,1.4E1,3E0,3E0,1E0,1.09E2,1E0,1E0,9E0,1E0,2E0,4E0,1E0,5E0,1.1E1,8E0,1E0,1.52E2,2.08E2,3E0,6.2E1],"tree_param":{"num_deleted":"0","num_feature":"132","num_nodes":"119","size_leaf_vector":"1"}},{"base_weights":[-8.1910934E-5,3.1950006E-1,-1.8775041E-1,3.805876E-2,4.6106994E-1,-2.4445687E-1,-4.9328726E-2,1.2330503E-1,-2.4780805E-1,4.8222277E-1,-3.6494476E-1,-1.4237229E-2,-2.5906396E-1,-3.049404E-1,-1.3231952E-2,2.1656732E-1,-3.557468E-2,-1.7137985E-1,-4.5198253E-1,6.461343E-1,3.8705933E-1,2.1902259E-1,-4.6401313E-1,-1.7451464E-1,2.3561049E-1,-2.4070765E-1,-3.8030759E-1,-1.9449514E-1,-5.3343314E-1,1.7717017E-1,-7.875708E-2,3.361233E-1,1.2338042E-1,8.036382E-2,-1.8250689E-1,-4.3207385E-2,-2.3972468E-1,-1.176913E-2,-5.3384537E-1,6.028806E-1,9.59398E-1,-3.933141E-1,4.3786794E-1,1.5156043E-2,1.2706518E-3,-1.1433986E-2,-5.074059E-1,-1.0203302E-2,-4.695948E-1,3.373293E-1,-2.7941817E-1,-2.2415288E-1,-3.90705E-1,-4.278102E-1,-6.277499E-2,-9.23879E-2,-2.4578905E-2,1.2540489E-2,-5.9431857E-1,-2.3623519E-1,2.236626E-1,-1.529505E-2,-2.4602081E-1,-3.5979827E-3,1.8537618E-2,1.43686235E-2,-1.1150794E-3,9.28465E-3,-3.3459899E-3,6.833914E-3,-1.3328719E-2,-8.555678E-3,5.090507E-3,9.654343E-4,-1.3230624E-2,-1.0406196E-2,-2.8707355E-2,-9.368165E-3,3.1657014E-2,1.2201565E-2,5.2292783E-2,-2.1253519E-2,8.427012E-3,2.954314E-2,1.5446673E-2,-2.6409462E-2,-7.489312E-3,6.8605877E-3,-1.6832931E-2,-2.4670972E-2,-3.4012496E-3,2.2021174E-2,-1.4087398E-3,-2.1655766E-2,-1.6290824E-3,-2.155235E-3,-1.1797525E-2,-5.546147E-3,-2.121456E-2,-2.5010997E-2,-9.816036E-3,-1.3441539E-2,9.802298E-3,-2.6938481E-2,7.088322E-4,-5.3018513E-3,-3.0910445E-2,-2.237007E-2,1.2257802E-2,1.3593981E-2,-1.0427417E-2,-2.585813E-3,1.354295E-2,-1.8523369E-2,-3.238323E-3],"categories":[],"categories_nodes":[],"categories_segments":[],"categories_sizes":[],"default_left":[0,0,0,0,0,0,0,0,0,0,0,0,0,0,0,0,0,0,0,0,0,0,0,0,0,0,0,0,0,0,0,0,0,0,0,0,0,0,0,0,0,0,0,0,0,0,0,0,0,0,0,0,0,0,0,0,0,0,0,0,0,0,0,0,0,0,0,0,0,0,0,0,0,0,0,0,0,0,0,0,0,0,0,0,0,0,0,0,0,0,0,0,0,0,0,0,0,0,0,0,0,0,0,0,0,0,0,0,0,0,0,0,0,0,0],"id":13,"left_children":[1,3,5,7,9,11,13,15,17,19,21,23,25,27,29,31,33,35,37,39,41,43,45,47,49,51,53,55,57,59,61,63,65,67,69,71,73,-1,75,77,79,81,83,-1,-1,-1,85,87,89,91,93,95,97,99,101,103,-1,-1,105,107,109,111,113,-1,-1,-1,-1,-1,-1,-1,-1,-1,-1,-1,-1,-1,-1,-1,-1,-1,-1,-1,-1,-1,-1,-1,-1,-1,-1,-1,-1,-1,-1,-1,-1,-1,-1,-1,-1,-1,-1,-1,-1,-1,-1,-1,-1,-1,-1,-1,-1,-1,-1,-1,-1],"loss_changes":[1.505984E2,3.6997177E1,1.24057045E1,7.633709E0,1.0974014E1,3.7694168E0,4.2495E0,3.5787184E0,1.0460768E0,9.155731E0,1.0272725E0,2.7641735E0,2.2564468E0,1.3346982E0,5.0667834E0,1.651968E0,1.5478258E0,4.6267807E-1,2.1124053E-1,2.4025574E0,1.5397686E1,4.1143462E-2,2.6931286E-2,2.0315793E0,1.5087348E0,2.194458E0,2.0396023E0,1.1679571E0,1.008543E0,2.05174E0,3.2019358E0,9.593601E-1,2.0848994E0,8.0360293E-1,1.1097586E0,3.8839385E-1,2.3074603E-1,0E0,5.1159143E-2,4.8054657E0,1.2910042E0,4.9985933E-1,6.9386673E0,0E0,0E0,0E0,2.642393E-3,1.3936776E0,1.0994363E-1,8.790798E-1,1.7557868E-1,1.762661E0,7.9865074E-1,1.8964825E0,1.0660026E0,1.4822603E0,0E0,0E0,1.327548E-1,1.2278724E0,2.0156531E0,2.3068647E0,1.8481936E0,0E0,0E0,0E0,0E0,0E0,0E0,0E0,0E0,0E0,0E0,0E0,0E0,0E0,0E0,0E0,0E0,0E0,0E0,0E0,0E0,0E0,0E0,0E0,0E0,0E0,0E0,0E0,0E0,0E0,0E0,0E0,0E0,0E0,0E0,0E0,0E0,0E0,0E0,0E0,0E0,0E0,0E0,0E0,0E0,0E0,0E0,0E0,0E0,0E0,0E0,0E0,0E0],"parents":[2147483647,0,0,1,1,2,2,3,3,4,4,5,5,6,6,7,7,8,8,9,9,10,10,11,11,12,12,13,13,14,14,15,15,16,16,17,17,18,18,19,19,20,20,21,21,22,22,23,23,24,24,25,25,26,26,27,27,28,28,29,29,30,30,31,31,32,32,33,33,34,34,35,35,36,36,38,38,39,39,40,40,41,41,42,42,46,46,47,47,48,48,49,49,50,50,51,51,52,52,53,53,54,54,55,55,58,58,59,59,60,60,61,61,62,62],"right_children":[2,4,6,8,10,12,14,16,18,20,22,24,26,28,30,32,34,36,38,40,42,44,46,48,50,52,54,56,58,60,62,64,66,68,70,72,74,-1,76,78,80,82,84,-1,-1,-1,86,88,90,92,94,96,98,100,102,104,-1,-1,106,108,110,112,114,-1,-1,-1,-1,-1,-1,-1,-1,-1,-1,-1,-1,-1,-1,-1,-1,-1,-1,-1,-1,-1,-1,-1,-1,-1,-1,-1,-1,-1,-1,-1,-1,-1,-1,-1,-1,-1,-1,-1,-1,-1,-1,-1,-1,-1,-1,-1,-1,-1,-1,-1,-1],"split_conditions":[2E0,2.5906668E0,5.282214E-1,1.1557895E2,1.1E1,4.3704474E-1,2.8E1,1.1111112E0,3.7142856E0,7.753846E1,1.346025E1,2.6666667E0,2.2533333E-5,4.75E0,1.3490907E1,1.04333336E2,1.03E2,3.5166668E1,5E0,6.25E0,1.2244898E0,6E0,1.945946E0,1.8461539E0,6.35E-6,3.7037036E0,2.1E0,2.7E1,1.4655E3,5.552E-1,8.857143E1,3.2252E2,3.7339287E1,1.7291666E0,2E0,1.1167347E0,1.9821777E1,-1.176913E-2,1.4E0,3.9952436E-1,7.0875E1,1.9157266E2,8.938461E1,1.5156043E-2,1.2706518E-3,-1.1433986E-2,2.16E0,4.404E1,4.1469387E1,1.5328798E0,2.128E3,2.5294118E0,7.3E1,4.14375E-1,3.3846154E0,7E0,-2.4578905E-2,1.2540489E-2,5E-1,1.7E1,2.3222221E1,1.8614959E0,7.866667E-1,-3.5979827E-3,1.8537618E-2,1.43686235E-2,-1.1150794E-3,9.28465E-3,-3.3459899E-3,6.833914E-3,-1.3328719E-2,-8.555678E-3,5.090507E-3,9.654343E-4,-1.3230624E-2,-1.0406196E-2,-2.8707355E-2,-9.368165E-3,3.1657014E-2,1.2201565E-2,5.2292783E-2,-2.1253519E-2,8.427012E-3,2.954314E-2,1.5446673E-2,-2.6409462E-2,-7.489312E-3,6.8605877E-3,-1.6832931E-2,-2.4670972E-2,-3.4012496E-3,2.2021174E-2,-1.4087398E-3,-2.1655766E-2,-1.6290824E-3,-2.155235E-3,-1.1797525E-2,-5.546147E-3,-2.121456E-2,-2.5010997E-2,-9.816036E-3,